{"learner":{"attributes":{"scikit_learn":"{\"_estimator_type\": \"classifier\"}"},"feature_names":["outcome","pass_angle","pass_length","x1","y1","x2","y2","start_distance_from_center","end_distance_from_center","end_distance_from_goal","end_angle_to_goal","prev_pass1_angle","prev_pass1_length","prev_pass1_x1","prev_pass1_y1","prev_pass1_x2","prev_pass1_y2","prev_pass1_start_distance_from_center","prev_pass1_end_distance_from_center","prev_pass1_end_distance_from_goal","prev_pass1_end_angle_to_goal","prev_pass1_outcome","prev_pass2_angle","prev_pass2_length","prev_pass2_x1","prev_pass2_y1","prev_pass2_x2","prev_pass2_y2","prev_pass2_start_distance_from_center","prev_pass2_end_distance_from_center","prev_pass2_end_distance_from_goal","prev_pass2_end_angle_to_goal","prev_pass2_outcome","prev_pass3_angle","prev_pass3_length","prev_pass3_x1","prev_pass3_y1","prev_pass3_x2","prev_pass3_y2","prev_pass3_start_distance_from_center","prev_pass3_end_distance_from_center","prev_pass3_end_distance_from_goal","prev_pass3_end_angle_to_goal","prev_pass3_outcome","prev_pass4_angle","prev_pass4_length","prev_pass4_x1","prev_pass4_y1","prev_pass4_x2","prev_pass4_y2","prev_pass4_start_distance_from_center","prev_pass4_end_distance_from_center","prev_pass4_end_distance_from_goal","prev_pass4_end_angle_to_goal","prev_pass4_outcome"],"feature_types":["float","float","float","float","float","float","float","float","float","float","float","float","float","float","float","float","float","float","float","float","float","float","float","float","float","float","float","float","float","float","float","float","float","float","float","float","float","float","float","float","float","float","float","float","float","float","float","float","float","float","float","float","float","float","float"],"gradient_booster":{"model":{"gbtree_model_param":{"num_parallel_tree":"1","num_trees":"200"},"iteration_indptr":[0,1,2,3,4,5,6,7,8,9,10,11,12,13,14,15,16,17,18,19,20,21,22,23,24,25,26,27,28,29,30,31,32,33,34,35,36,37,38,39,40,41,42,43,44,45,46,47,48,49,50,51,52,53,54,55,56,57,58,59,60,61,62,63,64,65,66,67,68,69,70,71,72,73,74,75,76,77,78,79,80,81,82,83,84,85,86,87,88,89,90,91,92,93,94,95,96,97,98,99,100,101,102,103,104,105,106,107,108,109,110,111,112,113,114,115,116,117,118,119,120,121,122,123,124,125,126,127,128,129,130,131,132,133,134,135,136,137,138,139,140,141,142,143,144,145,146,147,148,149,150,151,152,153,154,155,156,157,158,159,160,161,162,163,164,165,166,167,168,169,170,171,172,173,174,175,176,177,178,179,180,181,182,183,184,185,186,187,188,189,190,191,192,193,194,195,196,197,198,199,200],"tree_info":[0,0,0,0,0,0,0,0,0,0,0,0,0,0,0,0,0,0,0,0,0,0,0,0,0,0,0,0,0,0,0,0,0,0,0,0,0,0,0,0,0,0,0,0,0,0,0,0,0,0,0,0,0,0,0,0,0,0,0,0,0,0,0,0,0,0,0,0,0,0,0,0,0,0,0,0,0,0,0,0,0,0,0,0,0,0,0,0,0,0,0,0,0,0,0,0,0,0,0,0,0,0,0,0,0,0,0,0,0,0,0,0,0,0,0,0,0,0,0,0,0,0,0,0,0,0,0,0,0,0,0,0,0,0,0,0,0,0,0,0,0,0,0,0,0,0,0,0,0,0,0,0,0,0,0,0,0,0,0,0,0,0,0,0,0,0,0,0,0,0,0,0,0,0,0,0,0,0,0,0,0,0,0,0,0,0,0,0,0,0,0,0,0,0,0,0,0,0,0,0],"trees":[{"base_weights":[-1.8833533E-7,1.5870502E0,-1.0614119E-1,-2.879353E-1,5.584029E0,-5.578585E-1,2.051917E-3,-6.176511E-1,6.858522E-3,1.13611765E1,3.6595154E0,-3.7834907E-1,-7.239446E-1,5.3965944E-1,-1.4140412E-1,-6.536963E-1,2.8996655E-1,1.6797101E-1,-7.625308E-1,1.19688425E1,3.3570653E-1,5.46471E0,2.7239277E0,-4.348352E-1,6.002751E-1,2.842132E-1,-7.3755455E-1,1.2266781E0,4.2597046E-1,-3.0013405E-2,-3.1923857E-1,-8.6406267E-1,-2.301608E-1,4.8805434E-1,-1.7505924E-1,-8.5411996E-1,7.880978E-2,5.898494E0,1.3314558E1,7.333881E0,2.150038E0,4.0842757E0,1.9230822E0,-1.6522996E-2,-5.16234E-1,3.0199334E-1,6.441516E-1,3.323613E-1,-6.0770404E-1,-6.87221E-1,-9.884724E-1,1.9384499E0,8.0456024E-1,4.0069243E-1,1.9683796E0,-1.428874E-1,1.2877187E-1,-3.264984E-1,7.7651757E-1,-9.2851114E-1,-3.80268E-1,-4.6360925E-1,1.3959668E0,2.974583E-1,1.633175E0,-2.5168326E-1,2.1335343E-1,-2.439245E-1,-1.9022305E-1,2.056334E-1,7.250468E0,7.602095E-1,1.3699865E1,8.074529E0,1.6221831E0,4.0762952E-1,3.4720168E0,-7.424029E-2,4.6534567E0,2.1723518E0,-5.1513714E-1,2.2061816E-1,-5.462134E-1,5.3894013E-1,-5.368007E-1,-2.0442598E-1,1.6015154E0,-1.9928026E-3,-1.5152438E-1,1.14441894E-1,-6.937022E-1,-2.0033479E-1,-3.4857031E-3,2.5481002E0,3.4592557E-1,1.0450444E0,-5.5376083E-2,2.836898E-1,6.347438E-1,3.0179105E0,4.346475E-1,-1.634739E-1,2.4804576E-1,1.16995245E-1,2.5036514E0,-3.4081173E-1,2.0823994E-1,5.2423924E-1,-1.8880738E-1,-3.6488266E-3,-1.9225644E-1,2.657807E-1,-1.547069E-1,-1.088357E-1,1.8035631E-1,4.688406E-1,-1.143778E-1,1.06066965E-1,-1.0406941E-1,4.8960206E-1,-6.3563235E-2,1.6435961E-1,-6.87814E-2,9.778545E-2,-1.3315533E-1,1.6975117E0,4.3055025E-1,2.8316696E0,6.8319744E-1,1.8302017E0,6.1645025E-1,4.9689847E-1,-4.956601E-3,-6.56546E-2,3.3297083E-1,8.494921E-1,1.2818764E-1,9.778545E-2,-1.107495E-1,1.0987697E0,3.4731784E-1,5.4596096E-1,1.6792254E-1,-1.3592915E-1,-1.9928026E-3,7.357365E-2,-1.6970055E-1,-1.4186476E-1,1.6924235E-1,-8.77263E-2,4.2758653E-1,-1.0988106E-1,2.6428628E-1,3.4768733E-1,-9.107521E-2,-4.6988573E-2,6.2226415E-1,-8.7269284E-2,-1.4539875E-1,3.969903E-1,9.3144083E-1,3.225597E-1,-1.0474644E-1,4.700263E-1,1.546429E-1,-1.22742645E-1,1.3557449E-1,-3.424606E-2,6.8197645E-2,1.1973911E-1,4.8507044E-1,7.5127155E-1,-1.7279845E-2,4.623066E-1,-1.5377702E-1,-5.6001153E-2,-1.844025E-2,2.1330843E-2,5.010361E-1,1.6348798E-2,9.693658E-2,9.201789E-1,-4.5581017E-2,-7.0103906E-2,7.876208E-2,-3.6226776E-3,4.3103752E-1,2.1851042E-1,-1.5976979E-1],"categories":[],"categories_nodes":[],"categories_segments":[],"categories_sizes":[],"default_left":[0,0,0,0,0,0,0,1,0,0,0,0,0,0,0,1,0,0,1,0,0,0,0,0,1,1,0,1,1,1,1,1,0,1,1,0,0,0,0,1,1,0,1,0,0,1,0,0,0,0,1,0,0,1,1,1,0,1,1,0,0,0,0,1,1,0,0,0,0,0,1,0,1,0,0,1,1,0,0,0,0,1,1,0,1,0,0,0,0,0,0,0,0,1,0,0,0,0,0,0,0,0,0,0,0,1,0,0,0,0,0,0,0,0,0,0,0,0,0,0,0,0,0,0,0,0,0,0,0,0,0,0,0,0,0,0,0,0,0,0,0,0,0,0,0,0,0,0,0,0,0,0,0,0,0,0,0,0,0,0,0,0,0,0,0,0,0,0,0,0,0,0,0,0,0,0,0,0,0,0,0,0,0,0,0,0,0,0,0],"id":0,"left_children":[1,3,5,7,9,11,13,15,17,19,21,23,25,27,29,31,-1,33,35,37,-1,39,41,43,45,47,49,51,53,55,57,59,61,63,65,67,-1,69,71,73,75,77,79,81,83,85,-1,-1,87,89,91,93,95,97,99,101,103,105,107,109,111,113,115,117,119,121,-1,123,-1,-1,125,-1,127,129,131,133,135,137,139,141,143,145,147,149,151,153,155,-1,-1,-1,157,-1,-1,159,161,163,165,167,169,171,173,175,177,179,181,183,185,-1,187,-1,-1,-1,-1,-1,-1,-1,-1,-1,-1,-1,-1,-1,-1,-1,-1,-1,-1,-1,-1,-1,-1,-1,-1,-1,-1,-1,-1,-1,-1,-1,-1,-1,-1,-1,-1,-1,-1,-1,-1,-1,-1,-1,-1,-1,-1,-1,-1,-1,-1,-1,-1,-1,-1,-1,-1,-1,-1,-1,-1,-1,-1,-1,-1,-1,-1,-1,-1,-1,-1,-1,-1,-1,-1,-1,-1,-1,-1,-1,-1],"loss_changes":[8.3740137E2,2.3370369E3,2.277262E2,2.0714523E1,1.065302E3,2.657013E1,2.9007227E2,8.443996E0,1.4195215E1,1.2348657E2,1.13731445E2,2.4296207E1,6.611603E0,6.135594E1,5.880245E1,8.671288E0,0E0,1.0478199E1,2.4371166E0,1.0769971E2,0E0,1.3913477E2,4.896118E1,1.4008301E1,1.790183E1,9.533027E0,5.1384735E0,3.2077057E1,2.5773712E1,3.275608E1,9.348808E0,1.7095871E0,1.370659E1,1.0258553E1,4.685989E0,8.7419987E-1,0E0,3.160669E1,1.3415283E1,5.277655E1,2.260896E1,4.398105E1,2.2218765E1,8.673122E0,7.766876E0,1.532093E1,0E0,0E0,4.3538678E-1,3.5555725E0,9.399414E-1,3.88936E1,1.4944603E1,1.821006E1,1.5959736E1,8.636761E0,2.0948158E1,8.769745E0,1.4422277E1,1.7031898E0,7.3935204E0,3.88268E0,9.864529E0,8.546444E0,1.159107E1,4.691699E0,0E0,1.5338156E0,0E0,0E0,9.968643E0,0E0,3.078247E1,4.4522095E1,4.3773623E0,5.75763E0,1.0004799E1,1.1359009E0,3.0248077E1,2.1250305E1,3.280033E-1,7.8284116E0,5.4478097E0,1.2015095E1,8.653915E0,9.217195E0,1.8758924E1,0E0,0E0,0E0,2.985077E0,0E0,0E0,2.5757477E1,1.46150055E1,1.8157497E1,7.245354E0,1.1776115E1,1.2943047E1,1.4542107E1,1.4263329E1,8.406748E0,1.6912363E1,9.769315E0,2.2236353E1,8.034607E0,1.3369639E1,0E0,5.615408E0,0E0,0E0,0E0,0E0,0E0,0E0,0E0,0E0,0E0,0E0,0E0,0E0,0E0,0E0,0E0,0E0,0E0,0E0,0E0,0E0,0E0,0E0,0E0,0E0,0E0,0E0,0E0,0E0,0E0,0E0,0E0,0E0,0E0,0E0,0E0,0E0,0E0,0E0,0E0,0E0,0E0,0E0,0E0,0E0,0E0,0E0,0E0,0E0,0E0,0E0,0E0,0E0,0E0,0E0,0E0,0E0,0E0,0E0,0E0,0E0,0E0,0E0,0E0,0E0,0E0,0E0,0E0,0E0,0E0,0E0,0E0,0E0,0E0,0E0,0E0,0E0,0E0,0E0,0E0,0E0],"parents":[2147483647,0,0,1,1,2,2,3,3,4,4,5,5,6,6,7,7,8,8,9,9,10,10,11,11,12,12,13,13,14,14,15,15,17,17,18,18,19,19,21,21,22,22,23,23,24,24,25,25,26,26,27,27,28,28,29,29,30,30,31,31,32,32,33,33,34,34,35,35,37,37,38,38,39,39,40,40,41,41,42,42,43,43,44,44,45,45,48,48,49,49,50,50,51,51,52,52,53,53,54,54,55,55,56,56,57,57,58,58,59,59,60,60,61,61,62,62,63,63,64,64,65,65,67,67,70,70,72,72,73,73,74,74,75,75,76,76,77,77,78,78,79,79,80,80,81,81,82,82,83,83,84,84,85,85,86,86,90,90,93,93,94,94,95,95,96,96,97,97,98,98,99,99,100,100,101,101,102,102,103,103,104,104,105,105,106,106,108,108],"right_children":[2,4,6,8,10,12,14,16,18,20,22,24,26,28,30,32,-1,34,36,38,-1,40,42,44,46,48,50,52,54,56,58,60,62,64,66,68,-1,70,72,74,76,78,80,82,84,86,-1,-1,88,90,92,94,96,98,100,102,104,106,108,110,112,114,116,118,120,122,-1,124,-1,-1,126,-1,128,130,132,134,136,138,140,142,144,146,148,150,152,154,156,-1,-1,-1,158,-1,-1,160,162,164,166,168,170,172,174,176,178,180,182,184,186,-1,188,-1,-1,-1,-1,-1,-1,-1,-1,-1,-1,-1,-1,-1,-1,-1,-1,-1,-1,-1,-1,-1,-1,-1,-1,-1,-1,-1,-1,-1,-1,-1,-1,-1,-1,-1,-1,-1,-1,-1,-1,-1,-1,-1,-1,-1,-1,-1,-1,-1,-1,-1,-1,-1,-1,-1,-1,-1,-1,-1,-1,-1,-1,-1,-1,-1,-1,-1,-1,-1,-1,-1,-1,-1,-1,-1,-1,-1,-1,-1,-1],"split_conditions":[2.1280037E1,1E0,1E0,9.95E1,1.239758E1,2.19E1,4.4616142E1,1.13E2,1.167E2,8.6E0,1.32E1,8.335994E1,-1.238131E0,2.7945126E1,7.4962524E1,1.3901439E1,2.8996655E-1,6.2E0,4.732378E1,1.82E1,3.3570653E-1,1.8643229E1,3.33E1,1E0,6.32E1,-1.1071488E0,3.89E1,5.17E1,2.9979606E0,1.15E1,7.78E1,3.49E1,7.02E1,1.086E2,3.59E1,2E0,7.880978E-2,3.74E1,3.65E1,6.1266863E-1,3.5264713E1,1.0486181E1,2.8175344E1,2.914568E-1,-8.994312E-1,6.32E1,6.441516E-1,3.323613E-1,1.7026155E1,1.9235384E0,1.1037957E2,2.59E1,4.597782E1,3.14E1,1.33764715E1,6.99E1,1.158E2,1.0780376E2,-8.902751E-1,-1.1583859E0,3.54E1,2.7457423E0,8.6E0,8.93E1,2.0047194E1,4.4E0,2.1335343E-1,1.85E1,-1.9022305E-1,2.056334E-1,2.2749506E1,7.602095E-1,1.7761917E0,1.28E1,-9.008765E-3,1.08E1,2.22E1,1.3960659E1,1.031E2,1.056E2,-7.393904E-2,1.7340366E0,6.78E1,7.23E1,1.138E2,-1.744042E0,4.5012222E1,-1.9928026E-3,-1.5152438E-1,1.14441894E-1,1.18E1,-2.0033479E-1,-3.4857031E-3,8.5468E-3,1.0965017E-1,8.56E1,1.5309873E-1,3.6491096E1,7.8E1,9.4E1,1.4139661E1,1.2837834E1,7.8E1,8.33E1,3.81E1,1.038E2,2.4102025E-1,5.2423924E-1,4.2E1,-3.6488266E-3,-1.9225644E-1,2.657807E-1,-1.547069E-1,-1.088357E-1,1.8035631E-1,4.688406E-1,-1.143778E-1,1.06066965E-1,-1.0406941E-1,4.8960206E-1,-6.3563235E-2,1.6435961E-1,-6.87814E-2,9.778545E-2,-1.3315533E-1,1.6975117E0,4.3055025E-1,2.8316696E0,6.8319744E-1,1.8302017E0,6.1645025E-1,4.9689847E-1,-4.956601E-3,-6.56546E-2,3.3297083E-1,8.494921E-1,1.2818764E-1,9.778545E-2,-1.107495E-1,1.0987697E0,3.4731784E-1,5.4596096E-1,1.6792254E-1,-1.3592915E-1,-1.9928026E-3,7.357365E-2,-1.6970055E-1,-1.4186476E-1,1.6924235E-1,-8.77263E-2,4.2758653E-1,-1.0988106E-1,2.6428628E-1,3.4768733E-1,-9.107521E-2,-4.6988573E-2,6.2226415E-1,-8.7269284E-2,-1.4539875E-1,3.969903E-1,9.3144083E-1,3.225597E-1,-1.0474644E-1,4.700263E-1,1.546429E-1,-1.22742645E-1,1.3557449E-1,-3.424606E-2,6.8197645E-2,1.1973911E-1,4.8507044E-1,7.5127155E-1,-1.7279845E-2,4.623066E-1,-1.5377702E-1,-5.6001153E-2,-1.844025E-2,2.1330843E-2,5.010361E-1,1.6348798E-2,9.693658E-2,9.201789E-1,-4.5581017E-2,-7.0103906E-2,7.876208E-2,-3.6226776E-3,4.3103752E-1,2.1851042E-1,-1.5976979E-1],"split_indices":[9,0,0,3,9,8,9,24,5,8,7,9,20,9,9,45,0,8,12,4,0,9,27,32,16,31,8,24,11,49,25,18,36,13,39,8,0,6,35,31,30,2,34,31,20,46,0,0,12,12,41,7,19,47,23,27,46,30,33,1,18,33,8,24,23,17,0,4,0,0,12,0,11,8,1,18,50,12,15,3,1,33,38,14,13,1,52,0,0,0,18,0,0,33,11,15,31,30,27,15,45,2,16,3,49,37,31,0,46,0,0,0,0,0,0,0,0,0,0,0,0,0,0,0,0,0,0,0,0,0,0,0,0,0,0,0,0,0,0,0,0,0,0,0,0,0,0,0,0,0,0,0,0,0,0,0,0,0,0,0,0,0,0,0,0,0,0,0,0,0,0,0,0,0,0,0,0,0,0,0,0,0,0,0,0,0,0,0,0],"split_type":[0,0,0,0,0,0,0,0,0,0,0,0,0,0,0,0,0,0,0,0,0,0,0,0,0,0,0,0,0,0,0,0,0,0,0,0,0,0,0,0,0,0,0,0,0,0,0,0,0,0,0,0,0,0,0,0,0,0,0,0,0,0,0,0,0,0,0,0,0,0,0,0,0,0,0,0,0,0,0,0,0,0,0,0,0,0,0,0,0,0,0,0,0,0,0,0,0,0,0,0,0,0,0,0,0,0,0,0,0,0,0,0,0,0,0,0,0,0,0,0,0,0,0,0,0,0,0,0,0,0,0,0,0,0,0,0,0,0,0,0,0,0,0,0,0,0,0,0,0,0,0,0,0,0,0,0,0,0,0,0,0,0,0,0,0,0,0,0,0,0,0,0,0,0,0,0,0,0,0,0,0,0,0,0,0,0,0,0,0],"sum_hessian":[4.9691836E3,3.106283E2,4.658555E3,2.1207278E2,9.855553E1,8.993829E2,3.759172E3,9.958995E1,1.1248283E2,2.3402065E1,7.515346E1,4.3380023E2,4.6558267E2,7.9123267E2,2.9679395E3,9.855553E1,1.0344282E0,9.365324E1,1.8829592E1,2.1797953E1,1.6041133E0,2.4001734E1,5.1151726E1,4.10653E2,2.3147205E1,5.9367185E0,4.5964594E2,1.10953674E2,6.80279E2,1.825601E3,1.1423386E3,6.5153984E1,3.340154E1,4.8228344E1,4.5424892E1,1.7690222E1,1.1393702E0,4.932274E0,1.6865679E1,1.4571946E1,9.429788E0,1.7435364E1,3.3716366E1,6.708792E1,3.435651E2,2.178296E1,1.3642459E0,1.9938979E0,3.9428208E0,3.8596167E2,7.368427E1,3.9967907E1,7.098576E1,6.705494E2,9.729622E0,1.0671251E3,7.5847577E2,1.1355173E3,6.82123E0,5.668367E1,8.470318E0,2.983351E1,3.568028E0,4.2426548E1,5.801793E0,4.353594E1,1.888956E0,2.9083924E0,1.478183E1,1.4541962E0,3.4780777E0,1.0794034E0,1.5786275E1,1.2533072E1,2.038873E0,4.6324396E0,4.7973485E0,2.2037818E0,1.5231581E1,3.0688038E1,3.0283263E0,4.6744164E1,2.0343756E1,6.0866356E0,3.3747845E2,1.6281E1,5.501959E0,1.0044448E0,2.938376E0,1.5291548E0,3.8443253E2,7.266483E1,1.0194365E0,2.8469265E1,1.1498645E1,5.5304432E1,1.5681333E1,4.4853708E2,2.2201228E2,5.2021246E0,4.527498E0,1.0142944E3,5.28308E1,7.557773E2,2.6985085E0,1.1062686E3,2.9248833E1,1.7540305E0,5.067199E0,2.0238814E0,5.4659786E1,1.1393702E0,7.330948E0,2.8739115E1,1.094395E0,2.2787404E0,1.2892873E0,3.3296597E1,9.129953E0,3.9128373E0,1.888956E0,2.818442E0,4.0717495E1,1.0044448E0,1.9039476E0,2.263749E0,1.2143288E0,1.4751846E1,1.0344282E0,9.6246805E0,2.9083924E0,1.0044448E0,1.0344282E0,3.3881273E0,1.2443123E0,3.3731356E0,1.4242128E0,1.0044448E0,1.1993371E0,1.1138844E1,4.0927377E0,2.0898449E1,9.789589E0,2.0238814E0,1.0044448E0,4.1661972E1,5.082191E0,1.8649693E1,1.6940637E0,4.227663E0,1.8589725E0,3.3590433E2,1.5741299E0,1.1843454E0,1.5096656E1,2.8634174E0,2.6385417E0,4.564977E1,3.3878275E2,2.4001734E1,4.4675307E0,4.3326054E0,7.166039E0,8.215459E0,4.7088974E1,8.9950285E0,6.686304E0,4.995239E1,3.985847E2,2.1893898E2,3.0733013E0,4.032771E0,1.1693537E0,1.409221E0,3.1182764E0,3.8381784E2,6.304765E2,5.0701977E1,2.1288233E0,6.907732E2,6.5004074E1,1.1393702E0,1.5591382E0,1.0923562E3,1.3912311E1,2.7090027E1,2.1588068E0,1.3792377E0,3.6879616E0],"tree_param":{"num_deleted":"0","num_feature":"55","num_nodes":"189","size_leaf_vector":"1"}},{"base_weights":[-3.9906245E-2,-4.543316E-1,6.1889656E-2,-2.2386159E-1,-6.079049E-1,6.1242276E-1,-8.36193E-2,-3.6730376E-1,7.712638E-2,-5.499279E-1,-9.090583E-1,7.428396E-1,3.9270204E-1,1.19060315E-1,-1.8647094E-1,7.89882E-1,-3.994181E-1,-4.6792895E-2,8.534249E-1,-1.4521165E-1,-6.0110253E-1,-9.38581E-1,2.8539082E-1,9.849471E-1,4.8211354E-1,1.5672143E0,3.3531833E-1,1.04110114E-1,1.1957226E0,-2.3985136E-1,-3.6946235E-3,-4.5837775E-1,1.5134978E0,4.282498E-2,-4.5180222E-1,-1.7114513E-1,8.812102E-1,1.5242397E0,-4.4102287E-1,-2.665118E-1,9.27536E-1,3.4098798E-1,-6.1531574E-1,-1.1575447E-2,-9.4843566E-1,1.9822116E-1,-1.0558535E-1,6.422337E-1,1.2843711E0,1.5987768E0,3.8668355E-1,2.3010597E0,-4.253203E-1,1.5046198E0,2.9281843E-1,8.70467E-2,8.787792E-1,3.102872E0,6.300002E-1,-2.4534455E-1,1.0632201E0,-2.7111055E-2,1.3038465E0,-3.0203776E-3,-1.2507345E-1,-1.1554401E-1,2.3854656E0,1.211595E0,-2.6514107E-1,-3.3101335E-1,-7.4181944E-1,5.2373767E-1,-2.6407743E-1,-6.1894435E-1,1.5795292E0,2.57892E0,1.06399156E-1,-1.6307063E-1,7.162784E-2,6.595208E-1,-4.0137988E-1,2.0284858E0,-1.4050324E-1,-1.4686558E-1,1.0804174E0,-6.9135845E-1,-4.601393E-1,-5.073556E-2,-9.5820206E-1,4.429748E-1,1.1418651E0,1.7975944E0,1.0381353E0,-1.3327575E-1,2.126738E0,3.025364E-1,1.2508608E0,3.154541E0,5.8671737E-1,-1.5662698E-1,9.3345344E-2,-7.799973E-2,2.585962E0,2.3796558E-1,1.1652119E0,1.637962E-1,-5.116642E-2,1.2737409E0,-5.030481E-1,1.8326084E-1,7.59052E-1,1.9233139E0,1.8622251E-2,-3.368132E-1,-1.648009E-1,2.262248E0,-3.0885938E-1,9.6996725E-2,-1.9147734E-1,2.0848274E0,-4.57684E-2,-4.7096484E-3,6.568002E-1,6.2412627E-2,5.9537965E-1,2.4252465E-1,-8.638624E-2,2.1768356E-2,-8.189931E-2,-1.6171208E-1,-1.6691333E-2,-9.261999E-2,3.236466E-1,3.7435506E-2,-8.140053E-2,-1.8367348E-3,-1.5332244E-1,4.1903144E-1,-1.2512137E-1,6.623649E-1,-1.0985986E-1,-1.5609862E-1,2.7468005E-1,5.357588E-1,-6.292767E-2,-4.619771E-2,-1.8515947E-1,-5.9934687E-3,5.5624527E-1,-5.5969205E-2,3.9065176E-1,-1.4002763E-1,1.5774001E-1,-3.827001E-2,-1.3371967E-1,-8.1724204E-2,-1.9359756E-1,-2.2225382E-2,1.501727E-1,6.573907E-2,3.4213465E-1,2.589093E-1,5.145806E-1,-4.252055E-2,2.3602338E-1,-1.5260106E-1,1.7151192E-1,7.788702E-1,2.5044578E-1,-1.3301444E-1,7.9201244E-2,1.5442944E-1,5.415221E-1,7.742543E-1,1.4797142E-1,-9.804562E-2,3.897694E-1,2.8728983E-1,-1.5829836E-1,8.187804E-1,-7.944554E-2,7.226915E-2,-7.9464585E-2,4.457849E-1,2.8377185E-2,2.8790964E-2,2.568663E-1,-1.1658467E-3,-1.12495415E-1,1.4281867E-1,5.859887E-1,-1.6156678E-1,9.8434724E-2,-3.536606E-2,6.1718386E-1,-1.4141785E-1,2.3046377E-1,-9.735156E-2,-4.9855616E-2,-3.3989314E-2,3.1973135E-1,3.513565E-2,6.9859946E-1,-1.4069448E-1,9.419345E-2,-4.795986E-2,5.2032392E-2,1.22387245E-1,-5.3681917E-2,-2.787503E-2,5.6171733E-1,1.9817874E-1,-1.3838053E-1],"categories":[],"categories_nodes":[],"categories_segments":[],"categories_sizes":[],"default_left":[0,0,0,1,0,0,0,0,0,0,1,0,0,1,1,1,0,0,0,1,0,0,1,0,0,1,0,0,0,1,0,0,0,0,1,0,0,0,0,0,1,0,1,0,0,0,0,1,0,0,1,1,1,0,1,0,1,0,0,0,0,0,0,0,0,0,0,0,0,0,0,1,0,0,0,1,0,0,0,0,1,0,0,0,0,1,0,0,0,0,0,0,0,0,0,0,0,0,0,0,0,0,0,1,0,1,1,1,0,0,0,0,0,0,1,0,0,1,0,0,0,0,0,0,0,0,0,0,0,0,0,0,0,0,0,0,0,0,0,0,0,0,0,0,0,0,0,0,0,0,0,0,0,0,0,0,0,0,0,0,0,0,0,0,0,0,0,0,0,0,0,0,0,0,0,0,0,0,0,0,0,0,0,0,0,0,0,0,0,0,0,0,0,0,0,0,0,0,0,0,0,0,0,0,0,0,0,0,0,0,0,0,0],"id":1,"left_children":[1,3,5,7,9,11,13,15,17,19,21,23,25,27,29,31,33,35,37,39,41,43,45,47,49,51,53,55,57,59,61,63,65,67,69,71,73,75,77,79,81,83,85,-1,87,-1,-1,89,91,93,95,97,99,101,103,105,107,109,111,113,115,117,119,-1,-1,-1,121,123,125,127,129,131,133,135,137,139,141,-1,-1,143,145,147,-1,-1,149,151,153,-1,155,157,159,161,163,165,167,169,171,173,175,-1,-1,177,179,181,183,185,187,189,191,-1,-1,193,195,197,199,201,203,205,207,209,211,-1,-1,-1,-1,-1,-1,-1,-1,-1,-1,-1,-1,-1,-1,-1,-1,-1,-1,-1,-1,-1,-1,-1,-1,-1,-1,-1,-1,-1,-1,-1,-1,-1,-1,-1,-1,-1,-1,-1,-1,-1,-1,-1,-1,-1,-1,-1,-1,-1,-1,-1,-1,-1,-1,-1,-1,-1,-1,-1,-1,-1,-1,-1,-1,-1,-1,-1,-1,-1,-1,-1,-1,-1,-1,-1,-1,-1,-1,-1,-1,-1,-1,-1,-1,-1,-1,-1,-1,-1,-1,-1,-1],"loss_changes":[2.162776E2,3.5645096E1,3.2977853E2,1.7550304E1,1.0082504E1,2.4368713E1,6.790635E1,1.0536148E1,1.2720236E1,1.0491577E1,3.6642609E0,3.3543945E1,2.1221657E1,1.7530651E1,2.1079666E1,7.7051744E0,6.234131E0,1.3377569E1,1.6473162E1,7.8795986E0,6.277237E0,7.628937E-1,2.2967973E0,2.775177E1,2.7241924E1,2.2558353E1,1.4910774E1,1.4238034E1,1.4149612E1,1.2230705E1,1.5019763E1,2.5822657E-1,1.0762225E1,1.0876324E1,8.159798E0,6.719411E0,1.5336337E1,1.7984056E1,2.3821213E0,6.9430647E0,1.2518878E1,6.659838E0,4.9535065E0,0E0,3.8874817E-1,0E0,0E0,1.26209755E1,1.6790009E1,1.8814682E1,1.7232254E1,1.4158817E1,1.9028419E0,1.8328968E1,1.4046057E1,1.1259927E1,1.3318455E1,1.3064556E0,1.0058685E1,1.221843E1,1.2555887E1,9.846243E0,9.19239E0,0E0,0E0,0E0,8.360889E0,9.067163E0,6.446458E0,5.9545135E0,2.9970474E0,1.4095868E1,5.916529E0,4.4966745E-1,1.226523E1,1.7773216E1,8.09652E0,0E0,0E0,1.4958971E1,4.0124083E0,6.1990643E0,0E0,0E0,6.217697E0,4.4223785E0,8.272047E0,0E0,9.636688E-2,1.6443233E1,1.6532417E1,1.4804001E1,1.8387184E1,4.195332E0,1.922181E1,2.034224E1,1.2672558E1,9.383041E0,8.092457E0,0E0,0E0,6.831765E0,3.0065739E1,2.231532E1,1.8678532E1,1.498292E1,8.793269E0,1.4914886E1,2.181311E0,0E0,0E0,1.0527289E1,8.777574E0,1.010527E1,8.328413E0,9.572052E0,1.6363862E0,1.5183657E1,1.2995901E1,9.226856E0,3.4601083E0,0E0,0E0,0E0,0E0,0E0,0E0,0E0,0E0,0E0,0E0,0E0,0E0,0E0,0E0,0E0,0E0,0E0,0E0,0E0,0E0,0E0,0E0,0E0,0E0,0E0,0E0,0E0,0E0,0E0,0E0,0E0,0E0,0E0,0E0,0E0,0E0,0E0,0E0,0E0,0E0,0E0,0E0,0E0,0E0,0E0,0E0,0E0,0E0,0E0,0E0,0E0,0E0,0E0,0E0,0E0,0E0,0E0,0E0,0E0,0E0,0E0,0E0,0E0,0E0,0E0,0E0,0E0,0E0,0E0,0E0,0E0,0E0,0E0,0E0,0E0,0E0,0E0,0E0,0E0,0E0,0E0,0E0,0E0,0E0,0E0,0E0,0E0,0E0,0E0,0E0,0E0,0E0],"parents":[2147483647,0,0,1,1,2,2,3,3,4,4,5,5,6,6,7,7,8,8,9,9,10,10,11,11,12,12,13,13,14,14,15,15,16,16,17,17,18,18,19,19,20,20,21,21,22,22,23,23,24,24,25,25,26,26,27,27,28,28,29,29,30,30,31,31,32,32,33,33,34,34,35,35,36,36,37,37,38,38,39,39,40,40,41,41,42,42,44,44,47,47,48,48,49,49,50,50,51,51,52,52,53,53,54,54,55,55,56,56,57,57,58,58,59,59,60,60,61,61,62,62,66,66,67,67,68,68,69,69,70,70,71,71,72,72,73,73,74,74,75,75,76,76,79,79,80,80,81,81,84,84,85,85,86,86,88,88,89,89,90,90,91,91,92,92,93,93,94,94,95,95,96,96,97,97,98,98,101,101,102,102,103,103,104,104,105,105,106,106,107,107,108,108,111,111,112,112,113,113,114,114,115,115,116,116,117,117,118,118,119,119,120,120],"right_children":[2,4,6,8,10,12,14,16,18,20,22,24,26,28,30,32,34,36,38,40,42,44,46,48,50,52,54,56,58,60,62,64,66,68,70,72,74,76,78,80,82,84,86,-1,88,-1,-1,90,92,94,96,98,100,102,104,106,108,110,112,114,116,118,120,-1,-1,-1,122,124,126,128,130,132,134,136,138,140,142,-1,-1,144,146,148,-1,-1,150,152,154,-1,156,158,160,162,164,166,168,170,172,174,176,-1,-1,178,180,182,184,186,188,190,192,-1,-1,194,196,198,200,202,204,206,208,210,212,-1,-1,-1,-1,-1,-1,-1,-1,-1,-1,-1,-1,-1,-1,-1,-1,-1,-1,-1,-1,-1,-1,-1,-1,-1,-1,-1,-1,-1,-1,-1,-1,-1,-1,-1,-1,-1,-1,-1,-1,-1,-1,-1,-1,-1,-1,-1,-1,-1,-1,-1,-1,-1,-1,-1,-1,-1,-1,-1,-1,-1,-1,-1,-1,-1,-1,-1,-1,-1,-1,-1,-1,-1,-1,-1,-1,-1,-1,-1,-1,-1,-1,-1,-1,-1,-1,-1,-1,-1,-1,-1,-1],"split_conditions":[1E0,1.43E1,3.822944E1,7.71E1,3.65E1,5.85E1,5.6903515E1,-1.8901829E0,1.4659194E0,4.59E1,7.83E1,2.684716E1,6.511528E0,1.0601528E2,1.3003138E-1,1.1690166E1,-1.5042281E0,1.092E2,9.18E1,9.45E1,-1.238131E0,5E-1,1.71E1,-4.808873E-1,4.6E0,3.07E1,3.51E1,2.9732969E0,1.894967E1,7.78E1,7.49766E-1,8.5E0,5.32E1,1.1803813E1,-1.662251E-2,8E1,3.46E1,2.3E1,1.0351729E0,-1.5707964E0,7.51E1,4.8754487E0,6.442684E-2,-1.1575447E-2,3E0,1.9822116E-1,-1.0558535E-1,5.382685E1,6.56E1,-2.2174704E-1,9.54E1,-1.0541818E0,-4.621595E-1,3.5E1,3.59E1,3.0440105E1,4.4930725E1,3.43E1,2.21E1,4.63E1,3.18E1,2.34E1,9.202531E-1,-3.0203776E-3,-1.2507345E-1,-1.1554401E-1,9.560335E0,2.6523024E-1,-3.943806E-1,1.7867569E1,3.4498116E1,1.56E1,7.9E0,2.9516945E1,8.635306E-1,6.3305054E1,2.2E1,-1.6307063E-1,7.162784E-2,1.46102705E1,1.3329666E1,2.87E1,-1.4050324E-1,-1.4686558E-1,8.99E1,6.6994026E1,8.2E1,-5.073556E-2,-1.9890207E0,2.22E1,4.4065335E-1,2.2727076E1,7.18E1,4.37E1,1.0480935E1,3.469654E1,1.069E2,6.16E1,4.546086E1,-1.5662698E-1,9.3345344E-2,-3.6066826E-2,6.83E1,8.98E1,4.8836052E1,9.78137E1,1.434288E0,1.012197E0,7.55E1,1.8326084E-1,7.59052E-1,-1.450417E-1,9E0,1.8069311E1,1.127E2,5E1,2.300978E1,-1.6312321E0,-2.3633373E0,-1.0070349E-1,1.3809055E1,-4.7096484E-3,6.568002E-1,6.2412627E-2,5.9537965E-1,2.4252465E-1,-8.638624E-2,2.1768356E-2,-8.189931E-2,-1.6171208E-1,-1.6691333E-2,-9.261999E-2,3.236466E-1,3.7435506E-2,-8.140053E-2,-1.8367348E-3,-1.5332244E-1,4.1903144E-1,-1.2512137E-1,6.623649E-1,-1.0985986E-1,-1.5609862E-1,2.7468005E-1,5.357588E-1,-6.292767E-2,-4.619771E-2,-1.8515947E-1,-5.9934687E-3,5.5624527E-1,-5.5969205E-2,3.9065176E-1,-1.4002763E-1,1.5774001E-1,-3.827001E-2,-1.3371967E-1,-8.1724204E-2,-1.9359756E-1,-2.2225382E-2,1.501727E-1,6.573907E-2,3.4213465E-1,2.589093E-1,5.145806E-1,-4.252055E-2,2.3602338E-1,-1.5260106E-1,1.7151192E-1,7.788702E-1,2.5044578E-1,-1.3301444E-1,7.9201244E-2,1.5442944E-1,5.415221E-1,7.742543E-1,1.4797142E-1,-9.804562E-2,3.897694E-1,2.8728983E-1,-1.5829836E-1,8.187804E-1,-7.944554E-2,7.226915E-2,-7.9464585E-2,4.457849E-1,2.8377185E-2,2.8790964E-2,2.568663E-1,-1.1658467E-3,-1.12495415E-1,1.4281867E-1,5.859887E-1,-1.6156678E-1,9.8434724E-2,-3.536606E-2,6.1718386E-1,-1.4141785E-1,2.3046377E-1,-9.735156E-2,-4.9855616E-2,-3.3989314E-2,3.1973135E-1,3.513565E-2,6.9859946E-1,-1.4069448E-1,9.419345E-2,-4.795986E-2,5.2032392E-2,1.22387245E-1,-5.3681917E-2,-2.787503E-2,5.6171733E-1,1.9817874E-1,-1.3838053E-1],"split_indices":[0,8,9,26,8,16,9,1,1,5,16,9,12,52,33,12,33,26,24,24,20,17,28,11,51,29,48,1,34,25,31,2,49,2,31,26,36,17,42,11,46,2,22,0,25,0,0,41,35,31,48,33,53,47,29,23,19,25,47,5,17,8,31,0,0,0,2,10,31,34,23,50,7,41,22,41,4,0,0,34,45,16,0,0,24,34,5,0,1,39,1,23,35,36,23,41,37,6,19,0,0,11,26,26,30,41,33,22,25,0,0,10,51,12,46,26,2,44,11,10,2,0,0,0,0,0,0,0,0,0,0,0,0,0,0,0,0,0,0,0,0,0,0,0,0,0,0,0,0,0,0,0,0,0,0,0,0,0,0,0,0,0,0,0,0,0,0,0,0,0,0,0,0,0,0,0,0,0,0,0,0,0,0,0,0,0,0,0,0,0,0,0,0,0,0,0,0,0,0,0,0,0,0,0,0,0,0,0,0,0,0,0,0],"split_type":[0,0,0,0,0,0,0,0,0,0,0,0,0,0,0,0,0,0,0,0,0,0,0,0,0,0,0,0,0,0,0,0,0,0,0,0,0,0,0,0,0,0,0,0,0,0,0,0,0,0,0,0,0,0,0,0,0,0,0,0,0,0,0,0,0,0,0,0,0,0,0,0,0,0,0,0,0,0,0,0,0,0,0,0,0,0,0,0,0,0,0,0,0,0,0,0,0,0,0,0,0,0,0,0,0,0,0,0,0,0,0,0,0,0,0,0,0,0,0,0,0,0,0,0,0,0,0,0,0,0,0,0,0,0,0,0,0,0,0,0,0,0,0,0,0,0,0,0,0,0,0,0,0,0,0,0,0,0,0,0,0,0,0,0,0,0,0,0,0,0,0,0,0,0,0,0,0,0,0,0,0,0,0,0,0,0,0,0,0,0,0,0,0,0,0,0,0,0,0,0,0,0,0,0,0,0,0,0,0,0,0,0,0],"sum_hessian":[5.1249985E3,1.00993774E3,4.115061E3,4.0484213E2,6.050956E2,8.595907E2,3.2554702E3,2.7402798E2,1.3081415E2,5.0978046E2,9.531511E1,5.3792224E2,3.2166846E2,1.0958429E3,2.1596274E3,6.762347E0,2.6726566E2,1.13617325E2,1.7196827E1,5.7654625E1,4.5212585E2,9.322511E1,2.0899959E0,2.7747974E2,2.6044247E2,1.3758228E1,3.0791025E2,1.0819164E3,1.3926468E1,1.6712277E3,4.883997E2,2.6160774E0,4.14627E0,2.8324434E1,2.3894121E2,1.00910866E2,1.2706459E1,1.1210004E1,5.9868217E0,5.247286E1,5.181767E0,6.3780775E0,4.4574777E2,1.1076578E0,9.2117455E1,1.0019814E0,1.0880145E0,1.3085326E2,1.4662648E2,1.9264753E1,2.4117772E2,9.941835E0,3.816393E0,9.592359E0,2.9831787E2,1.0596874E3,2.2229067E1,2.1599844E0,1.1766483E1,1.6650204E3,6.2072983E0,4.8076898E2,7.630708E0,1.0142289E0,1.6018486E0,1.3194118E0,2.826858E0,5.295012E0,2.3029423E1,1.7019733E2,6.874389E1,1.1356818E1,8.955405E1,4.07216E0,8.634299E0,5.958663E0,5.251341E0,4.0632987E0,1.9235232E0,6.1761312E0,4.6296726E1,2.9469466E0,2.2348206E0,2.601599E0,3.7764785E0,2.9683258E2,1.4891518E2,1.6508979E0,9.046656E1,9.489472E1,3.5958534E1,4.549729E1,1.01129196E2,4.675073E0,1.4589681E1,2.2100772E2,2.0169996E1,6.0765505E0,3.8652847E0,2.8109624E0,1.0054305E0,4.270318E0,5.3220406E0,2.8186786E2,1.6450027E1,6.8122125E2,3.784661E2,1.734861E1,4.8804584E0,1.0782516E0,1.0817327E0,3.088076E0,8.678408E0,7.7814514E2,8.868752E2,2.9663246E0,3.2409737E0,2.741653E2,2.0660368E2,4.4885583E0,3.1421494E0,1.032492E0,1.794366E0,4.287195E0,1.0078168E0,1.6996989E0,2.1329723E1,2.5711521E1,1.444858E2,6.220934E1,6.5345545E0,6.275488E0,5.081331E0,2.1467024E1,6.808703E1,1.0009907E0,3.0711694E0,7.0383844E0,1.5959146E0,4.780059E0,1.1786041E0,3.3149102E0,1.9364309E0,1.4404535E0,4.7356777E0,3.603037E1,1.0266358E1,1.046196E0,1.9007508E0,1.741639E0,2.0348396E0,2.9560602E2,1.2265855E0,6.588295E1,8.303222E1,2.330649E0,8.813591E1,3.412308E1,6.0771645E1,1.54496E1,2.0508934E1,2.9212736E1,1.6284554E1,1.02589655E1,9.087023E1,2.9989898E0,1.6760833E0,3.6860402E0,1.0903641E1,1.892975E1,2.0207797E2,1.6332798E1,3.8371975E0,4.2205725E0,1.8559781E0,2.5160851E0,1.3491997E0,1.043062E0,3.2272558E0,3.2878015E0,2.0342393E0,2.3638956E2,4.547829E1,7.4881907E0,8.961837E0,6.7047754E2,1.0743713E1,3.4857025E2,2.9895828E1,1.4036647E1,3.3119621E0,3.8803823E0,1.000076E0,1.4024947E0,1.6855813E0,5.520729E0,3.1576784E0,2.8514355E2,4.9300162E2,8.8519586E2,1.6793222E0,1.5244929E0,1.4418317E0,2.2170162E0,1.0239575E0,8.932214E1,1.8484317E2,1.7447098E1,1.8915659E2,1.3002267E0,3.1883318E0,1.0016013E0,2.1405482E0],"tree_param":{"num_deleted":"0","num_feature":"55","num_nodes":"213","size_leaf_vector":"1"}},{"base_weights":[-3.608773E-2,-4.044297E-1,4.613862E-2,-2.7552226E-1,-6.6930693E-1,4.052006E-1,-8.066924E-2,-4.0223002E-1,-3.1652186E-2,-6.0340244E-1,-9.7239983E-1,5.0175583E-1,2.1189307E-1,-2.9387528E-3,-2.3656265E-1,-4.1394922E-1,2.74675E-1,-8.3723195E-2,1.1326847E0,3.7808487E-1,-6.237247E-1,-4.27488E-3,-1.9819997E-1,4.8239747E-1,2.3284476E0,1.3198127E-1,6.141462E-1,-8.404949E-2,1.00538164E-1,1.12423524E-1,-2.5815156E-1,-4.728278E-1,-4.6865087E-2,2.4037799E-1,-2.835303E-1,5.5640757E-2,2.6968818E0,1.0709658E0,-1.337053E-1,-6.3347214E-1,1.1162018E-1,9.6461314E-1,4.273395E-1,-4.0254917E-2,2.9282403E0,3.6090514E-1,-8.894237E-2,4.5929602E-1,2.2793143E0,1.335702E0,-9.0821825E-2,1.5229083E0,9.3572624E-2,4.6026364E-1,-3.6221382E-1,-4.2681485E-1,-2.0138931E-1,-3.9953122E-1,-7.761252E-1,2.3913233E-1,-4.2296094E-1,1.004713E0,6.398804E-2,4.397728E-1,-3.482667E-1,-1.5710501E-1,1.184988E0,5.4849524E-2,7.810405E-1,3.9016077E-1,-1.0813605E-1,-2.9362035E-1,-6.643935E-1,1.4527771E0,4.1906023E-1,7.036469E-1,3.3337224E-1,3.6913118E0,9.78257E-2,1.0697919E0,2.2122703E-1,-3.8233978E-1,8.4338106E-2,-9.4143525E-2,7.3299426E-1,-1.09773695E-1,3.3153014E0,2.2071314E0,-1.21808805E-1,-3.2662463E-1,-5.1419117E-2,4.661366E-1,-3.1499498E-2,-4.0737578E-1,1.1144531E-1,-2.686243E-1,9.3972427E-1,-5.1889265E-1,2.2015558E-1,-4.4530374E-1,8.941097E-1,-2.1750781E-1,8.2494766E-1,-1.5525869E-1,-6.8104595E-2,-1.6323309E-1,1.23741284E-1,2.1364926E-1,9.491794E-3,-3.8422544E-2,-1.7797023E-1,5.9774864E-1,7.223954E-2,-1.3296305E-1,4.2744514E-2,2.2879134E-1,-9.364483E-2,5.931291E-2,-8.677157E-2,-1.0597662E-1,4.6633872E-1,2.394863E-2,-1.6220935E-1,4.1719545E-2,-1.3551807E-1,3.4279498E-1,2.8302718E-2,2.7223317E-2,3.3158472E-1,3.94274E-2,1.831519E-1,7.4193785E-3,8.940722E-2,9.871289E-1,1.2081834E-1,1.2197395E-1,5.338938E-1,2.9243613E-2,2.5425842E-1,-1.1438797E-1,2.5119415E-2,-3.4311134E-3,2.4927965E-1,-6.613826E-2,2.6012197E-1,3.0358982E-1,9.073164E-2,8.422474E-1,9.561651E-2,-1.0178681E-1,6.548189E-1,-7.398305E-2,1.3944522E-1,-1.4881283E-2,6.691493E-2,4.621732E-2,-1.2049305E-1,2.4943589E-1,2.0402454E-2,-1.1009585E-1,2.2628608E-1,3.7680915E-1,3.10487E-2,8.531441E-2,-1.3627934E-1,-1.442113E-1,-6.3407205E-2,4.1462848E-1,-1.184994E-1,-4.7831148E-2,7.1671896E-2,-2.913921E-2,4.8509035E-1],"categories":[],"categories_nodes":[],"categories_segments":[],"categories_sizes":[],"default_left":[0,0,0,1,0,0,0,1,0,0,0,1,0,1,0,0,0,0,0,0,1,0,0,0,0,0,1,0,0,0,0,0,0,0,0,0,0,1,0,0,0,0,0,0,0,0,0,0,0,0,0,0,0,0,0,1,1,0,0,0,1,0,0,0,0,0,1,0,0,0,0,0,0,1,1,0,0,0,0,0,1,0,1,0,0,0,0,0,0,1,1,0,0,0,0,0,0,0,0,0,0,1,1,0,0,0,0,0,0,0,0,0,0,0,0,0,0,0,0,0,0,0,0,0,0,0,0,0,0,0,0,0,0,0,0,0,0,0,0,0,0,0,0,0,0,0,0,0,0,0,0,0,0,0,0,0,0,0,0,0,0,0,0,0,0,0,0,0,0,0,0,0,0],"id":2,"left_children":[1,3,5,7,9,11,13,15,17,19,21,23,25,27,29,31,-1,33,35,37,39,-1,-1,41,43,45,47,49,51,53,55,57,59,61,63,65,67,69,-1,71,-1,73,75,-1,77,79,81,83,85,87,89,91,93,95,97,99,101,103,105,107,109,111,113,115,117,-1,119,-1,-1,-1,-1,121,123,125,127,129,131,133,-1,135,137,139,141,143,145,-1,147,149,-1,151,153,-1,-1,155,157,159,161,163,-1,165,167,169,171,-1,-1,-1,-1,-1,-1,-1,-1,-1,-1,-1,-1,-1,-1,-1,-1,-1,-1,-1,-1,-1,-1,-1,-1,-1,-1,-1,-1,-1,-1,-1,-1,-1,-1,-1,-1,-1,-1,-1,-1,-1,-1,-1,-1,-1,-1,-1,-1,-1,-1,-1,-1,-1,-1,-1,-1,-1,-1,-1,-1,-1,-1,-1,-1,-1,-1,-1,-1,-1,-1],"loss_changes":[1.542438E2,3.1548767E1,1.8961275E2,1.9356747E1,5.4764404E0,2.0179596E1,3.729541E1,9.150536E0,1.3154989E1,5.2613907E0,9.0886307E-1,2.4481628E1,1.1612186E1,1.7254541E1,7.7443047E0,8.849915E0,0E0,1.348102E1,1.5501048E1,4.873921E0,3.2015305E0,0E0,0E0,1.8643906E1,1.171381E1,1.5444872E1,1.4428223E1,1.120198E1,8.80766E0,1.013111E1,9.149582E0,7.551544E0,6.32361E0,1.065852E1,6.1742706E0,7.1273384E0,9.95693E0,6.4915504E0,0E0,2.386589E0,0E0,1.8767853E1,1.6537888E1,0E0,9.344719E0,1.4602272E1,7.9576254E0,8.576121E0,1.6041292E1,1.0724058E1,1.0648621E1,6.25391E0,8.1036215E0,1.2578312E1,6.5502863E0,6.3086853E0,1.2151007E1,6.113407E0,4.289776E0,5.2730675E0,2.561284E0,1.787373E1,7.3105054E0,7.5724783E0,6.6735744E0,0E0,7.4949236E0,0E0,0E0,0E0,0E0,4.862499E0,2.726509E0,1.2769974E1,1.2310764E1,1.7335808E1,1.6280998E1,1.3961437E1,0E0,1.6329369E1,9.774366E0,5.6635933E0,1.1677022E1,6.8537455E0,7.575886E0,0E0,7.37817E0,1.3369257E1,0E0,7.534174E0,8.762381E0,0E0,0E0,4.027848E0,9.191406E0,6.452213E0,1.5632881E1,4.0150843E0,0E0,8.236877E0,7.6664476E0,8.977512E0,1.8060349E1,0E0,0E0,0E0,0E0,0E0,0E0,0E0,0E0,0E0,0E0,0E0,0E0,0E0,0E0,0E0,0E0,0E0,0E0,0E0,0E0,0E0,0E0,0E0,0E0,0E0,0E0,0E0,0E0,0E0,0E0,0E0,0E0,0E0,0E0,0E0,0E0,0E0,0E0,0E0,0E0,0E0,0E0,0E0,0E0,0E0,0E0,0E0,0E0,0E0,0E0,0E0,0E0,0E0,0E0,0E0,0E0,0E0,0E0,0E0,0E0,0E0,0E0,0E0,0E0,0E0,0E0,0E0,0E0,0E0,0E0],"parents":[2147483647,0,0,1,1,2,2,3,3,4,4,5,5,6,6,7,7,8,8,9,9,10,10,11,11,12,12,13,13,14,14,15,15,17,17,18,18,19,19,20,20,23,23,24,24,25,25,26,26,27,27,28,28,29,29,30,30,31,31,32,32,33,33,34,34,35,35,36,36,37,37,39,39,41,41,42,42,44,44,45,45,46,46,47,47,48,48,49,49,50,50,51,51,52,52,53,53,54,54,55,55,56,56,57,57,58,58,59,59,60,60,61,61,62,62,63,63,64,64,66,66,71,71,72,72,73,73,74,74,75,75,76,76,77,77,79,79,80,80,81,81,82,82,83,83,84,84,86,86,87,87,89,89,90,90,93,93,94,94,95,95,96,96,97,97,99,99,100,100,101,101,102,102],"right_children":[2,4,6,8,10,12,14,16,18,20,22,24,26,28,30,32,-1,34,36,38,40,-1,-1,42,44,46,48,50,52,54,56,58,60,62,64,66,68,70,-1,72,-1,74,76,-1,78,80,82,84,86,88,90,92,94,96,98,100,102,104,106,108,110,112,114,116,118,-1,120,-1,-1,-1,-1,122,124,126,128,130,132,134,-1,136,138,140,142,144,146,-1,148,150,-1,152,154,-1,-1,156,158,160,162,164,-1,166,168,170,172,-1,-1,-1,-1,-1,-1,-1,-1,-1,-1,-1,-1,-1,-1,-1,-1,-1,-1,-1,-1,-1,-1,-1,-1,-1,-1,-1,-1,-1,-1,-1,-1,-1,-1,-1,-1,-1,-1,-1,-1,-1,-1,-1,-1,-1,-1,-1,-1,-1,-1,-1,-1,-1,-1,-1,-1,-1,-1,-1,-1,-1,-1,-1,-1,-1,-1,-1,-1,-1,-1],"split_conditions":[1E0,2.49E1,4.0540844E1,7.42E1,3.89E1,1.88E1,7.4962524E1,7.78E1,8.8528694E1,-1.238131E0,1.22E1,3.0053453E0,1.049E2,1.15E1,1.79E1,9.89E1,2.74675E-1,6.8E0,4.99E1,3.2E1,1.1790963E0,-4.27488E-3,-1.9819997E-1,-6.7526865E-1,9.6E0,2.37E1,6.4417465E1,1.5554099E1,-3.100571E0,2.34E1,1.37186E1,3.621697E-1,2.1004047E1,1E0,3.4E0,4.38E1,2.12E1,7.8E0,-1.337053E-1,1.34E1,1.1162018E-1,1.992787E1,6.32E1,-4.0254917E-2,2.74E1,1.1108555E1,7.39E1,9.91E1,-9.3504035E-1,1.8420097E1,-1.7714492E0,1.7344164E1,5.7271285E0,1.5641611E1,7.54E1,7.891156E-1,3.76E1,3.7E0,2.46E1,2.8E0,1.19E1,9.654015E0,1.54E1,1.41E1,2.64E1,-1.5710501E-1,1.92E1,5.4849524E-2,7.810405E-1,3.9016077E-1,-1.0813605E-1,8.3E1,1.2E0,2.727123E1,7.351803E1,1.3652839E1,1.239758E1,5.566633E1,9.78257E-2,2.09E1,2.2869413E0,5.6E1,1.5191182E0,7.18E1,2.9026884E1,-1.09773695E-1,4.87E1,6.5E0,-1.21808805E-1,3.81E1,6.85E1,4.661366E-1,-3.1499498E-2,9.2E0,6.0926185E0,2.1610662E-1,1.7428999E1,9.6E0,2.2015558E-1,1.37E1,1.6178999E1,1.0861059E2,9.585915E-2,-1.5525869E-1,-6.8104595E-2,-1.6323309E-1,1.23741284E-1,2.1364926E-1,9.491794E-3,-3.8422544E-2,-1.7797023E-1,5.9774864E-1,7.223954E-2,-1.3296305E-1,4.2744514E-2,2.2879134E-1,-9.364483E-2,5.931291E-2,-8.677157E-2,-1.0597662E-1,4.6633872E-1,2.394863E-2,-1.6220935E-1,4.1719545E-2,-1.3551807E-1,3.4279498E-1,2.8302718E-2,2.7223317E-2,3.3158472E-1,3.94274E-2,1.831519E-1,7.4193785E-3,8.940722E-2,9.871289E-1,1.2081834E-1,1.2197395E-1,5.338938E-1,2.9243613E-2,2.5425842E-1,-1.1438797E-1,2.5119415E-2,-3.4311134E-3,2.4927965E-1,-6.613826E-2,2.6012197E-1,3.0358982E-1,9.073164E-2,8.422474E-1,9.561651E-2,-1.0178681E-1,6.548189E-1,-7.398305E-2,1.3944522E-1,-1.4881283E-2,6.691493E-2,4.621732E-2,-1.2049305E-1,2.4943589E-1,2.0402454E-2,-1.1009585E-1,2.2628608E-1,3.7680915E-1,3.10487E-2,8.531441E-2,-1.3627934E-1,-1.442113E-1,-6.3407205E-2,4.1462848E-1,-1.184994E-1,-4.7831148E-2,7.1671896E-2,-2.913921E-2,4.8509035E-1],"split_indices":[0,8,9,26,8,8,9,36,9,20,37,44,3,49,24,3,0,8,16,8,31,0,0,10,29,7,30,41,11,8,12,10,2,21,18,4,17,50,0,36,0,12,46,0,28,45,35,26,10,2,1,23,23,2,16,31,28,7,8,8,39,2,38,17,13,0,50,0,0,0,0,5,40,23,41,45,9,41,0,7,22,38,44,6,23,0,25,28,0,18,27,0,0,50,23,10,12,14,0,23,34,19,44,0,0,0,0,0,0,0,0,0,0,0,0,0,0,0,0,0,0,0,0,0,0,0,0,0,0,0,0,0,0,0,0,0,0,0,0,0,0,0,0,0,0,0,0,0,0,0,0,0,0,0,0,0,0,0,0,0,0,0,0,0,0,0,0,0,0,0,0,0,0],"split_type":[0,0,0,0,0,0,0,0,0,0,0,0,0,0,0,0,0,0,0,0,0,0,0,0,0,0,0,0,0,0,0,0,0,0,0,0,0,0,0,0,0,0,0,0,0,0,0,0,0,0,0,0,0,0,0,0,0,0,0,0,0,0,0,0,0,0,0,0,0,0,0,0,0,0,0,0,0,0,0,0,0,0,0,0,0,0,0,0,0,0,0,0,0,0,0,0,0,0,0,0,0,0,0,0,0,0,0,0,0,0,0,0,0,0,0,0,0,0,0,0,0,0,0,0,0,0,0,0,0,0,0,0,0,0,0,0,0,0,0,0,0,0,0,0,0,0,0,0,0,0,0,0,0,0,0,0,0,0,0,0,0,0,0,0,0,0,0,0,0,0,0,0,0],"sum_hessian":[5.091053E3,9.2837524E2,4.1626777E3,6.258392E2,3.025361E2,1.0858502E3,3.0768276E3,4.1142523E2,2.1441391E2,2.5095851E2,5.1577595E1,7.2308203E2,3.6276816E2,2.0537969E3,1.0230309E3,4.0948944E2,1.9358095E0,2.0612381E2,8.290094E0,4.7337065E0,2.4622481E2,1.0306212E0,5.0546974E1,7.167503E2,6.331688E0,3.0375262E2,5.901554E1,1.1514313E3,9.023656E2,5.9354465E1,9.6367645E2,3.5263962E2,5.68498E1,7.853365E1,1.27590164E2,5.5228505E0,2.7672436E0,2.8341587E0,1.8995479E0,2.4467079E2,1.5540109E0,7.175725E1,6.449931E2,1.3408529E0,4.990835E0,1.4886412E2,1.5488852E2,5.516168E1,3.8538632E0,4.534766E0,1.1468965E3,3.3368788E0,8.9902875E2,3.42699E1,2.5084568E1,2.410126E2,7.226638E2,2.8587158E2,6.676807E1,3.249986E1,2.4349941E1,1.384488E1,6.4688774E1,1.0005452E1,1.1758471E2,3.3397586E0,2.1830916E0,1.3292058E0,1.4380379E0,1.6971822E0,1.1369764E0,2.1280094E1,2.233907E2,3.6992867E1,3.476438E1,1.6203793E2,4.8295517E2,3.4104872E0,1.5803478E0,2.3407692E1,1.2545643E2,5.7063118E1,9.782539E1,1.8469969E1,3.6691708E1,1.1592842E0,2.6945791E0,3.0383701E0,1.4963964E0,1.6316393E2,9.8373254E2,1.9922324E0,1.3446463E0,3.0219578E1,8.6880914E2,1.3772436E1,2.0497463E1,2.3240908E1,1.8436596E0,2.3833946E2,2.6731358E0,7.1226587E2,1.0397971E1,3.706423E1,2.4880733E2,6.530818E1,1.4598812E0,5.2437806E0,2.7256079E1,1.7238195E1,7.1117454E0,2.4982116E0,1.1346669E1,1.0439007E1,5.4249763E1,5.488814E0,4.516638E0,1.3489775E1,1.0409493E2,1.090373E0,1.0927186E0,1.2256865E1,9.023231E0,3.1061838E0,2.2028452E2,3.0591969E1,6.4008975E0,2.9204294E1,5.560088E0,4.8397503E1,1.1364042E2,1.3427675E2,3.486784E2,2.0040157E0,1.4064715E0,1.9253405E1,4.1542883E0,1.1815551E2,7.30092E0,4.146083E1,1.5602289E1,9.0873764E1,6.951627E0,1.6443998E1,2.0259705E0,8.466392E0,2.8225317E1,1.6798375E0,1.0147417E0,1.0044485E0,2.0339215E0,1.5715765E2,6.0062656E0,9.2920245E2,5.4530067E1,7.0295854E0,2.3189993E1,6.0757627E0,8.627334E2,1.1969573E1,1.8028632E0,8.6651325E0,1.1832331E1,3.1703737E0,2.0070534E1,7.420038E1,1.6413908E2,1.2707518E0,1.402384E0,6.8702405E2,2.5241821E1,7.0384145E0,3.3595567E0],"tree_param":{"num_deleted":"0","num_feature":"55","num_nodes":"173","size_leaf_vector":"1"}},{"base_weights":[-3.1603996E-2,-3.556591E-1,3.485081E-2,-2.5510362E-1,-6.7493147E-1,2.371875E-1,-1.0613631E-1,-3.6305413E-1,-5.266666E-2,-5.937275E-1,-9.627579E-1,3.7354475E-1,1.2713622E-1,-1.5004303E-1,4.337768E-2,1.2727235E-1,-4.1665465E-1,2.0250797E-2,-8.132883E-1,-3.5304222E-1,-6.8134654E-1,-1.97023E-1,-2.3155857E-3,3.5568318E-1,1.6019386E0,-1.3203524E-1,1.8363638E-1,-2.4395679E-1,-9.2481144E-2,-3.2029182E-1,9.04522E-2,1.4569151E0,-5.6936905E-2,-5.2268225E-1,-1.8127675E-1,1.7215301E0,-1.5920985E-2,-9.0709454E-1,9.00198E-2,-5.565981E-1,1.67192E-1,-7.0671695E-1,1.6156529E-1,1.2891353E0,3.3819968E-1,4.291653E-1,3.5513012E0,1.1602477E0,-1.9997448E-1,6.565698E-2,3.472903E-1,-2.0801179E-1,-6.432745E-1,-6.6145375E-2,-4.1004816E-1,-4.7880995E-1,3.1319693E-1,1.79759E-1,-1.0180895E-1,5.718151E-1,-1.3363954E-1,1.1827625E0,-2.1611096E-1,2.586029E-1,-5.386375E-1,1.3685051E0,-2.6368275E-1,-6.1054833E-2,6.604153E-1,3.492007E-1,-4.0750574E-2,-1.4660632E-3,-1.9132258E-1,-6.569526E-1,1.3883899E-1,1.277001E0,-3.9590508E-1,-5.848653E-1,-8.7921643E-1,1.9101451E-1,-1.2797438E-1,2.847017E0,4.5286486E-1,4.1240963E-1,1.0013435E-1,1.8462784E0,-5.419677E-1,8.568228E-1,1.7466448E-1,2.1247041E0,-1.5128876E-1,1.0071082E0,-2.4376775E-1,8.859575E-1,2.5098048E-2,1.9659135E0,3.21168E-1,-1.6060637E-1,-4.7480482E-1,1.9160818E-1,-6.880087E-1,-1.2515265E-1,5.3253554E-2,4.087534E-1,-4.8680475E-1,-8.1356496E-1,-2.653408E-1,-2.5784826E-1,1.7532587E0,3.0159256E-1,-2.3139006E-2,9.8871395E-2,-4.6648917E-1,9.828436E-2,-1.190808E-1,6.014104E-1,-8.144826E-2,-1.54521E-1,1.7593665E-2,-1.761177E-1,-9.57959E-2,-5.993296E-2,6.4147544E-1,-7.034048E-2,9.5711246E-2,7.955798E-3,-1.10304855E-1,9.463223E-2,-1.4228016E-1,-1.1536348E-1,4.2927346E-1,-1.521174E-1,1.6375859E-1,-1.3483049E-1,1.912937E-2,-1.8419926E-1,9.658853E-2,8.734118E-1,-1.22061625E-1,-8.436655E-2,3.7066373E-1,6.9973856E-2,1.5285335E-1,9.2094645E-2,-2.81346E-2,6.397497E-1,-1.1378642E-1,-1.7240134E-1,8.48423E-2,6.0689604E-1,-1.086633E-1,1.9637513E-1,-1.4762817E-1,-1.3512132E-1,4.0339166E-1,2.4469145E-1,-5.5155557E-2,7.885232E-2,3.4506068E-1,-6.0990173E-2,1.909779E-2,-2.2701433E-2,7.592613E-1,5.5874605E-2,2.3105708E-1,-5.894127E-2,-9.023833E-3,1.0358528E-1,-1.09121285E-1,-1.4335346E-1,8.82363E-2,-1.2883072E-1,-2.0224057E-2,1.9455586E-2,-1.5033159E-1,-6.024375E-2,-1.5995823E-1,7.196567E-4,-1.8067347E-1,-1.794632E-1,-8.938399E-3,1.1543542E-1,-1.4692925E-1,-1.0889798E-1,5.7726115E-1,8.102463E-2,-7.684732E-2,-4.3849897E-2,7.393168E-2,-1.0639005E-2,1.4687279E-1,-1.269105E-1,1.4214754E-1],"categories":[],"categories_nodes":[],"categories_segments":[],"categories_sizes":[],"default_left":[0,0,0,1,0,0,1,0,0,0,1,1,0,0,0,0,0,0,0,1,1,0,0,0,0,0,0,0,1,0,0,0,0,0,0,0,0,0,0,0,0,1,1,0,1,0,0,0,0,0,0,1,0,1,0,0,0,0,0,0,0,0,0,0,0,0,1,0,0,0,1,0,0,0,0,0,1,1,1,0,0,0,0,1,1,0,0,0,0,0,0,0,0,0,0,0,1,0,0,0,1,0,1,0,0,0,0,0,0,0,0,0,0,0,0,0,0,0,0,0,0,0,0,0,0,0,0,0,0,0,0,0,0,0,0,0,0,0,0,0,0,0,0,0,0,0,0,0,0,0,0,0,0,0,0,0,0,0,0,0,0,0,0,0,0,0,0,0,0,0,0,0,0,0,0,0,0,0,0,0,0,0,0,0,0,0,0,0,0,0,0,0,0],"id":3,"left_children":[1,3,5,7,9,11,13,15,17,19,21,23,25,27,29,31,33,35,37,39,41,-1,-1,43,45,47,49,51,53,55,57,59,61,63,65,67,69,71,-1,73,75,77,79,81,83,85,87,89,91,93,95,97,99,101,103,105,107,109,111,-1,113,115,117,-1,119,121,123,-1,-1,-1,125,-1,-1,127,-1,129,131,133,135,-1,-1,137,139,141,143,145,147,-1,-1,149,151,153,155,157,159,161,163,165,167,-1,169,171,173,-1,175,177,179,181,183,185,187,189,191,-1,-1,-1,-1,-1,-1,-1,-1,-1,-1,-1,-1,-1,-1,-1,-1,-1,-1,-1,-1,-1,-1,-1,-1,-1,-1,-1,-1,-1,-1,-1,-1,-1,-1,-1,-1,-1,-1,-1,-1,-1,-1,-1,-1,-1,-1,-1,-1,-1,-1,-1,-1,-1,-1,-1,-1,-1,-1,-1,-1,-1,-1,-1,-1,-1,-1,-1,-1,-1,-1,-1,-1,-1,-1,-1,-1,-1,-1,-1,-1],"loss_changes":[1.0897222E2,2.7473518E1,1.19825005E2,1.4326851E1,4.2348022E0,2.5836365E1,1.6258512E1,1.1301231E1,1.2744327E1,3.196907E0,9.1667557E-1,1.632148E1,1.4023475E1,1.0323807E1,9.663132E0,1.06006565E1,9.539589E0,1.2974201E1,2.7903519E0,4.9195747E0,2.6466637E0,0E0,0E0,1.1968819E1,2.3048004E1,1.5306197E1,1.5140114E1,1.0296764E1,9.9104595E0,6.648775E0,8.586941E0,1.2119259E1,7.8879433E0,8.391518E0,1.5867776E1,1.5068534E1,9.126815E0,8.4139824E-1,0E0,4.59711E0,8.996535E0,1.9061394E0,3.329248E0,1.6453909E1,1.3164276E1,1.1801482E1,3.9119797E0,1.13548975E1,8.913376E0,1.5201595E1,1.3268833E1,8.374245E0,4.923788E0,7.7455196E0,1.8096975E1,3.5114193E0,1.1600894E1,8.439347E0,1.1676728E1,0E0,1.2800299E0,1.4438704E1,6.0113897E0,0E0,4.964142E0,2.0261848E1,7.755254E0,0E0,0E0,0E0,8.458085E0,0E0,0E0,2.2474403E0,0E0,8.990144E0,4.953773E0,4.3461895E0,3.0445251E0,0E0,0E0,2.6671314E1,1.3094244E1,1.226516E1,1.5592979E1,1.2985691E1,2.0447128E0,0E0,0E0,1.4010641E1,3.8035588E0,1.1448858E1,7.806673E0,8.205006E0,1.018281E1,1.9560707E1,1.0997707E1,8.796548E0,7.3322964E0,0E0,2.215889E0,9.107668E0,1.2971802E1,0E0,4.9202824E0,1.4581394E0,4.6080465E0,4.636183E0,1.1927559E1,1.529434E1,1.0011223E1,1.0025199E1,1.16464615E1,0E0,0E0,0E0,0E0,0E0,0E0,0E0,0E0,0E0,0E0,0E0,0E0,0E0,0E0,0E0,0E0,0E0,0E0,0E0,0E0,0E0,0E0,0E0,0E0,0E0,0E0,0E0,0E0,0E0,0E0,0E0,0E0,0E0,0E0,0E0,0E0,0E0,0E0,0E0,0E0,0E0,0E0,0E0,0E0,0E0,0E0,0E0,0E0,0E0,0E0,0E0,0E0,0E0,0E0,0E0,0E0,0E0,0E0,0E0,0E0,0E0,0E0,0E0,0E0,0E0,0E0,0E0,0E0,0E0,0E0,0E0,0E0,0E0,0E0,0E0,0E0,0E0,0E0,0E0,0E0],"parents":[2147483647,0,0,1,1,2,2,3,3,4,4,5,5,6,6,7,7,8,8,9,9,10,10,11,11,12,12,13,13,14,14,15,15,16,16,17,17,18,18,19,19,20,20,23,23,24,24,25,25,26,26,27,27,28,28,29,29,30,30,31,31,32,32,33,33,34,34,35,35,36,36,37,37,39,39,40,40,41,41,42,42,43,43,44,44,45,45,46,46,47,47,48,48,49,49,50,50,51,51,52,52,53,53,54,54,55,55,56,56,57,57,58,58,60,60,61,61,62,62,64,64,65,65,66,66,70,70,73,73,75,75,76,76,77,77,78,78,81,81,82,82,83,83,84,84,85,85,86,86,89,89,90,90,91,91,92,92,93,93,94,94,95,95,96,96,97,97,98,98,100,100,101,101,102,102,104,104,105,105,106,106,107,107,108,108,109,109,110,110,111,111,112,112],"right_children":[2,4,6,8,10,12,14,16,18,20,22,24,26,28,30,32,34,36,38,40,42,-1,-1,44,46,48,50,52,54,56,58,60,62,64,66,68,70,72,-1,74,76,78,80,82,84,86,88,90,92,94,96,98,100,102,104,106,108,110,112,-1,114,116,118,-1,120,122,124,-1,-1,-1,126,-1,-1,128,-1,130,132,134,136,-1,-1,138,140,142,144,146,148,-1,-1,150,152,154,156,158,160,162,164,166,168,-1,170,172,174,-1,176,178,180,182,184,186,188,190,192,-1,-1,-1,-1,-1,-1,-1,-1,-1,-1,-1,-1,-1,-1,-1,-1,-1,-1,-1,-1,-1,-1,-1,-1,-1,-1,-1,-1,-1,-1,-1,-1,-1,-1,-1,-1,-1,-1,-1,-1,-1,-1,-1,-1,-1,-1,-1,-1,-1,-1,-1,-1,-1,-1,-1,-1,-1,-1,-1,-1,-1,-1,-1,-1,-1,-1,-1,-1,-1,-1,-1,-1,-1,-1,-1,-1,-1,-1,-1,-1],"split_conditions":[1E0,2.84E1,4.9927246E1,8.46E1,3.89E1,3.302378E1,-1.1555434E-1,-1.0990188E0,1.167E2,1.17652025E1,4.4734104E1,2.9648838E0,6.83E1,4.63E1,8.902246E0,-3.1917325E-1,5.4262787E1,7E-1,5.006116E1,2.914568E-1,3.81E1,-1.97023E-1,-2.3155857E-3,-1.1824776E0,3.59E1,2.12E1,1.4983324E1,3.444004E-1,-8.017901E-1,5.44E1,7.4962524E1,1.82E1,1.0214206E1,5E-1,9.5E0,1.7438463E1,-2.9983497E0,2.3843866E1,9.00198E-2,5.6396187E1,5.67E1,6.119673E1,-1.3796118E0,1.0640489E1,5.85E1,1.5147607E1,2.4335529E-1,0E0,5.5E0,6.576473E0,1.7E1,5.58E1,-2.8828218E0,4.89E1,-8.4381115E-1,-5.641976E-1,7.677189E-2,6.880465E1,5.46E1,5.718151E-1,1.3819551E1,1.124E2,5.918826E1,2.586029E-1,1.1E1,1.1784562E0,3.26E1,-6.1054833E-2,6.604153E-1,3.492007E-1,2.7694223E1,-1.4660632E-3,-1.9132258E-1,1.09E1,1.3883899E-1,3.2E1,4.44E1,5.3983795E1,9.1E1,1.9101451E-1,-1.2797438E-1,3.4436172E1,1.7613914E1,4.92E1,5.72E1,8.85E1,1.026E2,8.568228E-1,1.7466448E-1,4.33E1,1.1E1,6.89E1,7.13E1,5.770615E0,3.9669888E1,4.55E1,3.7E1,3.09E1,1.7608236E1,1.9160818E-1,3.3041187E1,6.4E0,7.11E1,4.087534E-1,2.0047194E1,6.9115844E0,1.0560303E1,3.57E1,1.224949E1,8.59E1,8.1986725E-1,3.2102493E1,8.93E1,9.828436E-2,-1.190808E-1,6.014104E-1,-8.144826E-2,-1.54521E-1,1.7593665E-2,-1.761177E-1,-9.57959E-2,-5.993296E-2,6.4147544E-1,-7.034048E-2,9.5711246E-2,7.955798E-3,-1.10304855E-1,9.463223E-2,-1.4228016E-1,-1.1536348E-1,4.2927346E-1,-1.521174E-1,1.6375859E-1,-1.3483049E-1,1.912937E-2,-1.8419926E-1,9.658853E-2,8.734118E-1,-1.22061625E-1,-8.436655E-2,3.7066373E-1,6.9973856E-2,1.5285335E-1,9.2094645E-2,-2.81346E-2,6.397497E-1,-1.1378642E-1,-1.7240134E-1,8.48423E-2,6.0689604E-1,-1.086633E-1,1.9637513E-1,-1.4762817E-1,-1.3512132E-1,4.0339166E-1,2.4469145E-1,-5.5155557E-2,7.885232E-2,3.4506068E-1,-6.0990173E-2,1.909779E-2,-2.2701433E-2,7.592613E-1,5.5874605E-2,2.3105708E-1,-5.894127E-2,-9.023833E-3,1.0358528E-1,-1.09121285E-1,-1.4335346E-1,8.82363E-2,-1.2883072E-1,-2.0224057E-2,1.9455586E-2,-1.5033159E-1,-6.024375E-2,-1.5995823E-1,7.196567E-4,-1.8067347E-1,-1.794632E-1,-8.938399E-3,1.1543542E-1,-1.4692925E-1,-1.0889798E-1,5.7726115E-1,8.102463E-2,-7.684732E-2,-4.3849897E-2,7.393168E-2,-1.0639005E-2,1.4687279E-1,-1.269105E-1,1.4214754E-1],"split_indices":[0,8,9,15,8,9,44,1,5,12,45,22,3,5,2,53,9,39,12,31,18,0,0,31,40,46,2,10,44,47,9,7,9,40,49,34,22,41,0,2,5,19,33,23,16,12,10,1,14,34,48,13,11,24,53,11,33,30,24,0,45,5,19,0,39,22,17,0,0,0,34,0,0,36,0,8,36,19,46,0,0,19,2,16,24,26,46,0,0,48,28,46,5,34,30,36,29,5,19,0,45,40,36,0,23,12,23,14,12,35,33,23,24,0,0,0,0,0,0,0,0,0,0,0,0,0,0,0,0,0,0,0,0,0,0,0,0,0,0,0,0,0,0,0,0,0,0,0,0,0,0,0,0,0,0,0,0,0,0,0,0,0,0,0,0,0,0,0,0,0,0,0,0,0,0,0,0,0,0,0,0,0,0,0,0,0,0,0,0,0,0,0,0],"split_type":[0,0,0,0,0,0,0,0,0,0,0,0,0,0,0,0,0,0,0,0,0,0,0,0,0,0,0,0,0,0,0,0,0,0,0,0,0,0,0,0,0,0,0,0,0,0,0,0,0,0,0,0,0,0,0,0,0,0,0,0,0,0,0,0,0,0,0,0,0,0,0,0,0,0,0,0,0,0,0,0,0,0,0,0,0,0,0,0,0,0,0,0,0,0,0,0,0,0,0,0,0,0,0,0,0,0,0,0,0,0,0,0,0,0,0,0,0,0,0,0,0,0,0,0,0,0,0,0,0,0,0,0,0,0,0,0,0,0,0,0,0,0,0,0,0,0,0,0,0,0,0,0,0,0,0,0,0,0,0,0,0,0,0,0,0,0,0,0,0,0,0,0,0,0,0,0,0,0,0,0,0,0,0,0,0,0,0,0,0,0,0,0,0],"sum_hessian":[5.0586577E3,8.6011365E2,4.198544E3,6.554708E2,2.0464284E2,1.7238666E3,2.4746777E3,4.2698538E2,2.2848544E2,1.6200069E2,4.264215E1,7.688461E2,9.5502045E2,1.9129204E3,5.6175726E2,4.194123E1,3.8504416E2,2.0938591E2,1.9099533E1,4.457756E1,1.17423134E2,4.162802E1,1.0141265E0,7.590979E2,9.748194E0,1.7069409E2,7.843263E2,7.256935E2,1.1872269E3,6.3716663E1,4.9804062E2,4.2628055E0,3.7678425E1,2.6462247E2,1.20421684E2,3.389162E0,2.0599675E2,1.8041937E1,1.0575958E0,3.19905E1,1.258706E1,1.14148994E2,3.2741408E0,1.2619189E1,7.464787E2,6.8482904E0,2.8999035E0,7.7226505E0,1.6297145E2,4.565773E2,3.2774902E2,6.6715936E2,5.8534126E1,1.0974259E3,8.9801025E1,5.1159237E1,1.2557427E1,3.4011813E2,1.5792247E2,1.8417075E0,2.4210982E0,3.5556033E0,3.412282E1,1.6078713E0,2.6301462E2,5.291896E0,1.1512978E2,1.8384683E0,1.5506938E0,1.8993328E0,2.0409741E2,1.0010252E0,1.704091E1,3.005396E1,1.9365389E0,3.8100362E0,8.777024E0,6.9468056E1,4.468093E1,1.5488832E0,1.7252576E0,3.5679893E0,9.0512E0,5.6852515E2,1.7795357E2,2.4182832E0,4.430007E0,1.8059579E0,1.0939456E0,4.092881E0,3.6297688E0,4.935532E0,1.5803592E2,2.0529356E1,4.3604794E2,4.026014E0,3.23723E2,5.678604E2,9.929893E1,1.035918E0,5.7498207E1,7.3442365E2,3.6300226E2,1.9465214E0,8.78545E1,1.882592E1,3.2333317E1,9.579642E0,2.9777853E0,2.1220787E2,1.2791027E2,1.0233648E2,5.558599E1,1.0013747E0,1.4197236E0,1.2407765E0,2.3148267E0,1.1512693E1,2.2610128E1,3.702607E1,2.2598854E2,3.2136276E0,2.0782685E0,1.03394714E2,1.1735073E1,1.7709793E2,2.699948E1,1.0279508E0,2.902601E1,1.3237684E0,2.4862678E0,7.037917E0,1.739107E0,6.1418884E1,8.049173E0,4.3665504E1,1.0154281E0,2.2955842E0,1.2724051E0,6.0015383E0,3.0496616E0,4.8441742E2,8.410772E1,7.091929E1,1.0703428E2,1.3422383E0,1.0760449E0,3.4087167E0,1.0212905E0,2.9497015E0,1.1431798E0,1.0087775E0,2.6209915E0,1.975214E0,2.9603183E0,2.579508E0,1.554564E2,1.3872471E1,6.6568856E0,7.606448E1,3.5998346E2,2.3239148E0,1.7020991E0,3.095475E2,1.4175508E1,2.620383E2,3.058221E2,6.1901255E0,9.31088E1,5.642636E1,1.071847E0,3.1360525E1,7.030631E2,3.4501114E2,1.7991125E1,5.6383923E1,3.1470581E1,1.9590764E0,1.6866842E1,7.573844E0,2.4759474E1,3.4053173E0,6.1743245E0,1.1549879E0,1.8227974E0,1.8473079E2,2.7477077E1,8.560994E1,4.2300327E1,8.331613E1,1.9020348E1,4.9045177E1,6.540812E0],"tree_param":{"num_deleted":"0","num_feature":"55","num_nodes":"193","size_leaf_vector":"1"}},{"base_weights":[-2.7763193E-2,-3.097557E-1,2.5986334E-2,-1.9720894E-1,-5.7514924E-1,1.5453942E-1,-1.1378874E-1,-3.123667E-1,3.363276E-3,-5.052691E-1,-9.519694E-1,2.795493E-1,8.055068E-2,-1.758347E-1,-2.7512262E-2,-2.5870734E-1,-6.800879E-1,6.6612214E-2,-6.7541546E-1,3.7455145E-1,-5.280631E-1,-1.9573386E-1,-2.0850578E-3,3.3693075E-1,4.85856E-2,7.285353E-2,1.0875347E0,-1.8890375E-1,5.931474E-1,-4.9332503E-2,6.282657E-1,4.1720566E-1,-3.0061814E-1,-7.1739995E-1,9.0898536E-2,1.509327E-1,-4.379504E-1,-8.2548046E-1,8.9265786E-2,-3.058047E-1,2.7136E-1,-4.7546783E-1,-8.317212E-1,3.9016172E-1,6.7105524E-2,1.4796893E-1,-4.836295E-1,4.996146E-2,4.0927562E-1,-1.6448358E-1,2.205512E0,-4.2587075E-1,-1.4843439E-1,1.6108892E0,-8.366577E-2,-4.0260863E-1,-1.2004043E-2,1.24805294E-1,1.2913269E0,1.3535135E0,-5.2012086E-1,-5.51019E-1,-2.1056348E-1,-8.354522E-1,-2.8959203E-1,1.040821E-1,1.6749226E0,2.257667E-1,-5.607739E-1,8.5750096E-2,-1.8907174E-1,-1.3053727E-1,4.0784985E-2,-3.0212555E-2,-5.2526724E-1,3.0339826E-3,-8.949437E-1,1.9994727E-1,4.8645392E-1,1.0616297E0,-8.4847525E-2,1.2844858E0,7.9019554E-2,7.127763E-1,-6.728973E-1,-5.033369E-1,6.2774725E-2,-2.154293E-1,6.1524063E-1,-1.6180886E-1,2.8422594E-1,-1.0456089E-1,2.9597905E0,-5.7318556E-1,-2.5006178E-1,-7.7099025E-2,-2.6911423E-1,2.442055E0,-3.8738358E-1,-6.688108E-1,9.230229E-1,-4.583983E-1,7.801011E-1,-4.103873E-2,4.8169413E-1,4.7375804E-1,-3.3487374E-1,2.3430521E0,7.170131E-2,4.1766468E-1,-1.413164E-1,5.595065E-2,-1.7491798E-1,-2.6252056E-2,-1.3142934E-1,3.5784468E-1,-4.714186E-2,-1.8160716E-1,-7.111495E-2,-1.5344407E-1,1.6022997E-1,1.3048986E-2,3.5995433E-1,-3.9471805E-2,5.095784E-1,1.674169E-1,-1.3790236E-1,3.6331925E-1,-5.121091E-2,-9.2101656E-2,-1.757413E-1,-4.3789174E-2,-1.9335549E-1,4.004363E-1,2.8761974E-2,1.0910573E-1,-1.8772839E-2,3.277303E-1,2.313619E-2,-3.4326024E-2,1.5072754E-1,4.8916468E-1,-8.914963E-3,4.8605796E-2,-6.0780454E-2,-7.11096E-2,3.918157E-1,-1.5720446E-1,9.514383E-2,-4.723091E-2,-1.7040502E-1,3.6149836E-1,1.17579615E-2,-8.560235E-2,2.5058654E-1,1.02037944E-1,5.297762E-1,5.9579678E-2,7.8534025E-1,1.5521803E-1,-1.2010373E-1,1.0405792E-1,-9.298002E-2,1.6650717E-1,-1.8437212E-2,3.4545743E-1,-5.686313E-2,-2.7279893E-2,6.4268154E-1,-1.7396568E-3,-1.1104405E-1,-1.739355E-1,2.1419516E-2,-8.2871705E-2,4.377999E-1,5.8061566E-2,-1.05211735E-1,-1.2661742E-1,4.206322E-1,1.2878165E-1,-1.2176587E-2,3.7355375E-1,5.7911098E-2,-1.00636244E-1,1.948956E-1,4.0037606E-2,7.0841956E-1,-1.2002336E-1,2.601437E-1],"categories":[],"categories_nodes":[],"categories_segments":[],"categories_sizes":[],"default_left":[0,0,0,1,0,0,1,1,0,0,1,1,1,0,1,0,1,0,0,1,1,0,0,0,0,1,0,0,0,0,0,0,0,0,0,0,0,0,0,0,0,0,0,0,0,0,0,0,0,1,0,0,0,0,0,1,1,0,1,0,0,0,0,0,0,1,0,0,0,0,0,0,0,0,1,0,0,0,0,0,1,0,0,0,1,0,0,0,0,0,0,0,0,0,0,0,0,0,0,1,0,0,0,0,0,0,0,0,0,0,0,0,0,0,0,0,0,0,0,0,0,0,0,0,0,0,0,0,0,0,0,0,0,0,0,0,0,0,0,0,0,0,0,0,0,0,0,0,0,0,0,0,0,0,0,0,0,0,0,0,0,0,0,0,0,0,0,0,0,0,0,0,0,0,0,0,0,0,0,0,0,0,0,0,0,0,0,0,0],"id":4,"left_children":[1,3,5,7,9,11,13,15,17,19,21,23,25,27,29,31,33,35,37,39,41,-1,-1,43,45,47,49,51,53,55,57,59,61,63,-1,65,67,69,-1,71,-1,73,75,77,79,81,83,85,87,89,91,93,95,97,99,101,103,105,107,109,111,113,115,117,119,121,123,-1,125,-1,-1,-1,-1,127,129,-1,131,133,135,137,139,141,143,145,147,149,151,153,155,-1,-1,-1,157,159,161,163,165,167,169,171,173,175,177,179,181,-1,183,185,187,-1,-1,-1,-1,-1,-1,-1,-1,-1,-1,-1,-1,-1,-1,-1,-1,-1,-1,-1,-1,-1,-1,-1,-1,-1,-1,-1,-1,-1,-1,-1,-1,-1,-1,-1,-1,-1,-1,-1,-1,-1,-1,-1,-1,-1,-1,-1,-1,-1,-1,-1,-1,-1,-1,-1,-1,-1,-1,-1,-1,-1,-1,-1,-1,-1,-1,-1,-1,-1,-1,-1,-1,-1,-1,-1,-1,-1,-1,-1,-1],"loss_changes":[7.6243835E1,2.3940216E1,7.594274E1,1.3097559E1,5.819992E0,2.033995E1,1.0834908E1,6.9316635E0,8.966188E0,4.2886505E0,9.02401E-1,1.0826313E1,1.0650977E1,1.1947662E1,1.2168894E1,9.075859E0,2.2419071E0,8.192022E0,3.36514E0,4.2484007E0,2.7867584E0,0E0,0E0,9.383766E0,8.744912E0,1.05686E1,1.4961674E1,1.1049244E1,1.3857609E1,1.0833346E1,8.98185E0,1.7261473E1,6.60585E0,1.9904804E0,0E0,1.1563204E1,5.945169E0,2.8188934E0,0E0,8.7661755E-1,0E0,3.8016891E0,1.5171299E0,9.921532E0,1.658626E1,1.0786261E1,6.3753786E0,9.166432E0,1.1385752E1,7.1291723E0,1.302899E1,4.2205124E0,8.512865E0,1.4243795E1,8.225499E0,5.5380383E0,1.0689643E1,1.7993654E1,1.4857296E1,1.6183195E1,3.1226127E0,3.3987389E0,1.1527992E1,8.653202E-1,6.39234E0,1.0456039E1,8.408249E0,0E0,5.3039255E0,0E0,0E0,0E0,0E0,8.131236E0,3.1381912E0,0E0,1.0580349E0,1.84833E1,1.2476929E1,7.747843E0,7.0870028E0,1.2274067E1,8.367599E0,6.078184E0,3.3617916E0,2.5260868E0,8.65546E0,7.5366044E0,1.2755669E1,0E0,0E0,0E0,1.0466412E1,3.8184986E0,1.3248815E1,8.645928E0,1.1655119E1,1.1956764E1,1.9950828E-1,1.4565389E0,9.656761E0,3.9826956E0,8.636121E0,9.607219E0,1.0490896E1,0E0,3.7333558E0,1.5370762E1,6.110714E0,0E0,0E0,0E0,0E0,0E0,0E0,0E0,0E0,0E0,0E0,0E0,0E0,0E0,0E0,0E0,0E0,0E0,0E0,0E0,0E0,0E0,0E0,0E0,0E0,0E0,0E0,0E0,0E0,0E0,0E0,0E0,0E0,0E0,0E0,0E0,0E0,0E0,0E0,0E0,0E0,0E0,0E0,0E0,0E0,0E0,0E0,0E0,0E0,0E0,0E0,0E0,0E0,0E0,0E0,0E0,0E0,0E0,0E0,0E0,0E0,0E0,0E0,0E0,0E0,0E0,0E0,0E0,0E0,0E0,0E0,0E0,0E0,0E0,0E0,0E0,0E0,0E0,0E0,0E0,0E0],"parents":[2147483647,0,0,1,1,2,2,3,3,4,4,5,5,6,6,7,7,8,8,9,9,10,10,11,11,12,12,13,13,14,14,15,15,16,16,17,17,18,18,19,19,20,20,23,23,24,24,25,25,26,26,27,27,28,28,29,29,30,30,31,31,32,32,33,33,35,35,36,36,37,37,39,39,41,41,42,42,43,43,44,44,45,45,46,46,47,47,48,48,49,49,50,50,51,51,52,52,53,53,54,54,55,55,56,56,57,57,58,58,59,59,60,60,61,61,62,62,63,63,64,64,65,65,66,66,68,68,73,73,74,74,76,76,77,77,78,78,79,79,80,80,81,81,82,82,83,83,84,84,85,85,86,86,87,87,88,88,92,92,93,93,94,94,95,95,96,96,97,97,98,98,99,99,100,100,101,101,102,102,103,103,104,104,106,106,107,107,108,108],"right_children":[2,4,6,8,10,12,14,16,18,20,22,24,26,28,30,32,34,36,38,40,42,-1,-1,44,46,48,50,52,54,56,58,60,62,64,-1,66,68,70,-1,72,-1,74,76,78,80,82,84,86,88,90,92,94,96,98,100,102,104,106,108,110,112,114,116,118,120,122,124,-1,126,-1,-1,-1,-1,128,130,-1,132,134,136,138,140,142,144,146,148,150,152,154,156,-1,-1,-1,158,160,162,164,166,168,170,172,174,176,178,180,182,-1,184,186,188,-1,-1,-1,-1,-1,-1,-1,-1,-1,-1,-1,-1,-1,-1,-1,-1,-1,-1,-1,-1,-1,-1,-1,-1,-1,-1,-1,-1,-1,-1,-1,-1,-1,-1,-1,-1,-1,-1,-1,-1,-1,-1,-1,-1,-1,-1,-1,-1,-1,-1,-1,-1,-1,-1,-1,-1,-1,-1,-1,-1,-1,-1,-1,-1,-1,-1,-1,-1,-1,-1,-1,-1,-1,-1,-1,-1,-1,-1,-1,-1],"split_conditions":[1E0,2.49E1,5.6428715E1,7.42E1,3.89E1,3.302378E1,-1.6514868E-1,9.090566E1,1.158E2,-1.238131E0,4.4734104E1,2.6888102E1,3.102287E0,3.8E1,1.0780376E2,-4.1184214E-1,3.69E1,3.41E1,4.9644436E1,6.75E1,2.1213203E1,-1.9573386E-1,-2.0850578E-3,1.098E2,2.8977232E1,8.535133E1,3.26E1,-1.8290485E0,2.8782102E-1,1.36E1,2.6208586E1,4.21E1,4.13E1,2.3501222E-1,9.0898536E-2,3.69E1,2.8E0,1.7029974E1,8.9265786E-2,6.86E1,2.7136E-1,1.09E1,5.5E0,2.3E1,1.86E1,6.718631E0,9.7E0,3.85E1,2.26E1,1.4947528E0,7.69E1,1.7613914E1,2.59E1,7.87E1,6.34E1,2.5021036E0,6.88E1,1.89E1,-1.835888E-1,6.53E1,6.52E1,6.51E1,-2.8872247E0,3.109983E-1,5.5032536E1,3.64E1,3.74E1,2.257667E-1,3.29E1,8.5750096E-2,-1.8907174E-1,-1.3053727E-1,4.0784985E-2,2.98E1,-2.3454063E-1,3.0339826E-3,6.5E0,7.922752E0,3.36E1,6.5E0,9.11E1,7.25E1,7.853982E-1,2.76E1,6.467321E-1,2.02E1,2.2E0,1.9413615E0,2.894416E0,-1.6180886E-1,2.8422594E-1,-1.0456089E-1,4.6764946E1,1.8E0,2.030394E1,1.01E1,-3.100571E0,3.2917982E-1,-4.3069252E-1,-6.9473827E-1,7.34E1,3.8E0,1.7734148E1,1.29E1,3.9339546E1,4.7375804E-1,3.57E1,-1.6990697E-1,2.5569913E0,4.1766468E-1,-1.413164E-1,5.595065E-2,-1.7491798E-1,-2.6252056E-2,-1.3142934E-1,3.5784468E-1,-4.714186E-2,-1.8160716E-1,-7.111495E-2,-1.5344407E-1,1.6022997E-1,1.3048986E-2,3.5995433E-1,-3.9471805E-2,5.095784E-1,1.674169E-1,-1.3790236E-1,3.6331925E-1,-5.121091E-2,-9.2101656E-2,-1.757413E-1,-4.3789174E-2,-1.9335549E-1,4.004363E-1,2.8761974E-2,1.0910573E-1,-1.8772839E-2,3.277303E-1,2.313619E-2,-3.4326024E-2,1.5072754E-1,4.8916468E-1,-8.914963E-3,4.8605796E-2,-6.0780454E-2,-7.11096E-2,3.918157E-1,-1.5720446E-1,9.514383E-2,-4.723091E-2,-1.7040502E-1,3.6149836E-1,1.17579615E-2,-8.560235E-2,2.5058654E-1,1.02037944E-1,5.297762E-1,5.9579678E-2,7.8534025E-1,1.5521803E-1,-1.2010373E-1,1.0405792E-1,-9.298002E-2,1.6650717E-1,-1.8437212E-2,3.4545743E-1,-5.686313E-2,-2.7279893E-2,6.4268154E-1,-1.7396568E-3,-1.1104405E-1,-1.739355E-1,2.1419516E-2,-8.2871705E-2,4.377999E-1,5.8061566E-2,-1.05211735E-1,-1.2661742E-1,4.206322E-1,1.2878165E-1,-1.2176587E-2,3.7355375E-1,5.7911098E-2,-1.00636244E-1,1.948956E-1,4.0037606E-2,7.0841956E-1,-1.2002336E-1,2.601437E-1],"split_indices":[0,8,9,26,8,9,11,30,5,20,45,12,11,7,30,53,50,28,30,27,45,0,0,3,9,41,29,1,10,16,23,16,27,20,0,18,18,30,0,6,0,39,38,51,36,34,51,3,38,33,5,2,8,4,5,33,49,49,42,24,48,5,22,10,12,40,36,0,5,0,0,0,0,49,44,0,17,9,7,8,48,35,11,7,31,8,2,11,33,0,0,0,19,51,2,24,11,31,10,11,24,25,2,35,30,0,18,10,22,0,0,0,0,0,0,0,0,0,0,0,0,0,0,0,0,0,0,0,0,0,0,0,0,0,0,0,0,0,0,0,0,0,0,0,0,0,0,0,0,0,0,0,0,0,0,0,0,0,0,0,0,0,0,0,0,0,0,0,0,0,0,0,0,0,0,0,0,0,0,0,0,0,0,0,0,0,0,0,0],"split_type":[0,0,0,0,0,0,0,0,0,0,0,0,0,0,0,0,0,0,0,0,0,0,0,0,0,0,0,0,0,0,0,0,0,0,0,0,0,0,0,0,0,0,0,0,0,0,0,0,0,0,0,0,0,0,0,0,0,0,0,0,0,0,0,0,0,0,0,0,0,0,0,0,0,0,0,0,0,0,0,0,0,0,0,0,0,0,0,0,0,0,0,0,0,0,0,0,0,0,0,0,0,0,0,0,0,0,0,0,0,0,0,0,0,0,0,0,0,0,0,0,0,0,0,0,0,0,0,0,0,0,0,0,0,0,0,0,0,0,0,0,0,0,0,0,0,0,0,0,0,0,0,0,0,0,0,0,0,0,0,0,0,0,0,0,0,0,0,0,0,0,0,0,0,0,0,0,0,0,0,0,0,0,0,0,0,0,0,0,0],"sum_hessian":[5.0287534E3,8.042994E2,4.224454E3,5.6601117E2,2.3828816E2,2.2005093E3,2.0239447E3,3.5921304E2,2.0679816E2,2.0298593E2,3.530223E1,8.171281E2,1.3833811E3,1.1766884E3,8.472565E2,3.1495682E2,4.425621E1,1.899961E2,1.6802067E1,4.736355E0,1.9824957E2,3.429041E1,1.011823E0,6.541499E2,1.6297821E2,1.3739513E3,9.429814E0,1.1577661E3,1.8922201E1,8.208678E2,2.638864E1,1.7866213E1,2.970906E2,4.320312E1,1.0530896E0,1.633916E2,2.6604485E1,1.5052482E1,1.7495843E0,3.2050443E0,1.5313108E0,1.7116809E2,2.708148E1,5.4599115E2,1.0815878E2,1.3794162E2,2.5036589E1,1.2874916E3,8.6459724E1,4.8505626E0,4.5792513E0,1.6749303E2,9.902731E2,7.0063934E0,1.1915809E1,7.7511765E1,7.43356E2,1.5674934E1,1.0713705E1,8.715836E0,9.150378E0,7.723014E1,2.1986047E2,3.3112865E1,1.0090258E1,1.5955486E2,3.8367498E0,1.3385628E0,2.526592E1,1.0884093E0,1.3964072E1,1.7402867E0,1.4647576E0,1.7380072E1,1.5378802E2,1.9340564E0,2.5147425E1,1.8453647E2,3.6145465E2,1.3541813E1,9.461697E1,6.88153E0,1.3106009E2,3.0419226E0,2.1994667E1,2.8274364E1,1.2592172E3,2.1426336E1,6.5033394E1,3.7968721E0,1.0536904E0,1.058264E0,3.5209875E0,8.9901764E1,7.7591255E1,6.234078E2,3.668653E2,4.7913756E0,2.215018E0,7.747912E0,4.1678963E0,7.460499E1,2.906781E0,7.02933E2,4.042304E1,1.9589444E0,1.371599E1,5.2582293E0,5.4554763E0,6.4142513E0,2.3015842E0,2.8745713E0,6.2758064E0,1.6037008E1,6.119314E1,1.8590721E0,2.180014E2,2.798742E1,5.125445E0,7.2236695E0,2.8665876E0,1.5699754E2,2.5573113E0,1.4661595E0,2.3705902E0,1.6666714E0,2.3599249E1,1.1262851E0,1.6253786E1,1.3191989E2,2.1868128E1,2.8043933E0,2.234303E1,4.5272717E0,1.800092E2,3.2811356E2,3.3341095E1,7.956266E0,5.5855474E0,8.646339E1,8.153585E0,3.2240655E0,3.657464E0,9.2014595E1,3.9045486E1,2.0227492E0,1.0191735E0,2.0310047E1,1.6846186E0,1.695775E1,1.1316614E1,1.8381444E0,1.257379E3,1.9335539E1,2.0907962E0,6.302843E1,2.0049586E0,1.28673E0,2.2342575E0,1.2411163E0,8.866065E1,1.6610125E1,6.0981133E1,9.287036E0,6.141208E2,1.9212466E0,3.6494403E2,1.2928486E0,3.498527E0,1.0032463E0,1.2117716E0,6.0586114E0,1.6893005E0,2.3539124E0,1.8139839E0,5.9105206E0,6.8694466E1,1.657678E0,1.249103E0,1.8906427E1,6.8402655E2,3.8595524E0,3.6563484E1,1.2699292E1,1.0166979E0,2.305296E0,2.9529333E0,3.858185E0,1.5972912E0],"tree_param":{"num_deleted":"0","num_feature":"55","num_nodes":"189","size_leaf_vector":"1"}},{"base_weights":[-2.3905443E-2,-2.679771E-1,1.984599E-2,-8.098509E-2,-4.1368362E-1,1.4130007E-1,-7.414138E-2,2.4557239E-1,-1.5920618E-1,-3.591856E-1,-8.101398E-1,1.3130188E-1,9.0349823E-1,-1.3237666E-1,-1.4778476E-3,9.280146E-1,-1.0382203E-1,1.399873E-1,-2.7874354E-1,5.1248614E-2,-4.0714076E-1,-8.6475635E-1,1.1426623E-1,2.4717112E-1,8.9054786E-2,1.3404247E0,-6.7954145E-2,-4.795701E-1,-1.0762997E-1,-7.243516E-3,1.2664704E0,-5.0948113E-1,1.3695918E0,3.6736023E-1,-5.397105E-1,1.7191145E0,3.665749E-2,1.9581752E-2,-3.6797914E-1,4.3506747E-1,-8.7453835E-2,2.8072962E-1,-4.3869367E-1,-2.1670677E-1,-8.9921093E-1,6.7181274E-2,3.87115E-1,8.124874E-2,8.216454E-1,2.4120185E0,2.6982027E-1,1.0097189E0,-1.6728365E-1,1.7278592E-1,-5.1553357E-1,3.9771718E-1,-1.2084577E-1,9.291029E-2,-7.665413E-2,4.97475E-1,-6.720921E-2,9.683683E-2,-1.6228703E-1,-4.1353106E-1,1.94348E0,9.768102E-1,-1.931114E-1,-6.49645E-1,1.5744533E-1,-5.228412E-2,2.8761826E0,-2.879484E-2,4.445481E-1,-2.178214E-1,1.5386242E0,1.8560657E-1,-3.8818148E-1,-2.2011451E-1,4.8005524E-1,-3.8666066E-2,4.6562204E-1,-4.0008476E-1,-8.071279E-1,-1.2954478E-1,9.917837E-2,-8.027085E-3,-9.186174E-1,1.194698E0,-1.5091695E-2,3.43364E-1,1.4888911E0,9.135712E-2,-6.4225006E-1,-3.239557E-1,2.202968E0,1.0909765E0,3.8456976E0,-3.7974358E-1,1.4289804E0,-1.1942194E-1,4.1662413E-1,-5.662514E-1,5.071926E-1,1.8653221E-1,1.9446635E0,-3.0295017E-1,-8.4768824E-2,-6.834028E-1,1.2641618E-1,-2.0672442E-2,-3.4075922E-1,9.7354524E-2,-1.5232126E-1,7.080509E-1,1.9385056E-1,-1.2849234E-1,2.7370596E-1,7.669509E-2,-1.4355892E-1,3.1802185E-2,-1.6917236E-1,9.459885E-2,7.6855415E-1,5.177341E-2,-7.34614E-2,-8.41026E-2,1.462241E-1,-1.0062784E-2,4.7292447E-1,-8.995859E-2,2.3651352E-2,2.193537E-1,-7.127959E-2,3.919496E-1,-6.780472E-2,3.9049634E-3,-8.657819E-2,8.8418655E-2,-1.7387378E-1,-2.87557E-2,-1.87725E-1,3.2672715E-1,-1.2946334E-1,-3.2811474E-2,8.8987455E-2,7.972684E-2,-6.781747E-2,4.140974E-1,-1.3767484E-1,1.6283702E-2,1.403253E-1,-1.5821838E-1,1.9298522E-1,2.0456591E-1,-1.4860289E-1,6.3310903E-1,4.5501396E-2,3.9419267E-1,-7.2067685E-2,2.327299E-1,9.790856E-1,6.4698726E-2,-1.6508918E-1,5.217627E-1,-1.1043548E-1,-6.2916994E-2,-1.3932496E-1,-1.3174956E-1,3.0544284E-1,3.8488114E-1,1.3709391E-3,-2.8309664E-2,6.265617E-1,-6.4782016E-2,1.8457298E-1,5.9117097E-2,-2.054341E-2,-1.7936163E-1,2.8039506E-1,1.4084013E-2,1.004257E-1,-1.4159724E-1,3.3379692E-4,-1.1335178E-3,-1.0040861E-1],"categories":[],"categories_nodes":[],"categories_segments":[],"categories_sizes":[],"default_left":[0,0,0,0,0,1,1,0,0,0,1,0,0,0,0,0,0,0,0,0,0,0,0,0,1,0,0,0,0,0,0,0,0,1,0,0,0,0,0,0,0,0,0,0,0,0,1,1,0,1,0,0,0,0,1,0,0,0,0,0,0,0,0,0,0,0,0,0,0,0,1,1,0,1,0,0,1,0,0,0,0,0,0,0,0,0,0,0,1,1,0,1,1,0,0,1,0,0,0,0,0,0,0,0,0,1,0,0,0,0,0,0,0,0,0,0,0,0,0,0,0,0,0,0,0,0,0,0,0,0,0,0,0,0,0,0,0,0,0,0,0,0,0,0,0,0,0,0,0,0,0,0,0,0,0,0,0,0,0,0,0,0,0,0,0,0,0,0,0,0,0,0,0,0,0,0,0,0,0,0,0,0,0,0,0],"id":5,"left_children":[1,3,5,7,9,11,13,15,17,19,21,23,25,27,29,31,33,35,37,39,41,43,-1,45,47,49,51,53,55,57,59,61,63,65,67,69,71,73,75,-1,77,79,81,83,85,87,89,91,93,95,97,99,-1,-1,101,103,105,107,109,-1,-1,-1,-1,111,113,115,117,119,-1,-1,121,123,-1,125,127,-1,129,131,-1,133,-1,135,137,-1,-1,-1,139,141,143,145,147,149,151,153,155,157,159,161,163,-1,-1,165,167,169,171,173,175,177,179,181,183,-1,-1,-1,-1,-1,-1,-1,-1,-1,-1,-1,-1,-1,-1,-1,-1,-1,-1,-1,-1,-1,-1,-1,-1,-1,-1,-1,-1,-1,-1,-1,-1,-1,-1,-1,-1,-1,-1,-1,-1,-1,-1,-1,-1,-1,-1,-1,-1,-1,-1,-1,-1,-1,-1,-1,-1,-1,-1,-1,-1,-1,-1,-1,-1,-1,-1,-1,-1,-1,-1,-1,-1,-1,-1],"loss_changes":[5.3412586E1,2.068216E1,4.843434E1,8.576527E0,8.936798E0,1.3986866E1,1.0122178E1,1.5590527E1,9.704372E0,7.446537E0,4.3283234E0,8.927141E0,1.0191294E1,1.13573265E1,7.7965984E0,1.4728704E1,9.20984E0,1.2634083E1,5.1566296E0,1.2080176E1,7.4574127E0,9.0553284E-1,0E0,1.2263596E1,7.6034603E0,1.823504E1,7.7463837E0,4.7001457E0,8.334928E0,7.3856997E0,1.0281191E1,2.1701102E0,1.838507E1,7.5940247E0,3.895317E0,1.165375E1,1.0660456E1,1.6739006E1,4.2600117E0,0E0,1.3348091E1,1.0180315E1,4.2786293E0,1.4900138E0,7.379875E-1,1.9927755E1,1.2710037E1,9.772587E0,2.2917458E1,1.1147602E1,7.5907397E0,8.008648E0,0E0,0E0,4.7682858E0,1.0044266E1,7.9234695E0,1.1399455E1,9.270098E0,0E0,0E0,0E0,0E0,1.9400302E0,1.706091E1,7.571847E0,3.944488E0,3.6205492E0,0E0,0E0,5.351385E0,7.1930714E0,0E0,8.042526E0,8.35088E0,0E0,4.6513157E0,7.173814E0,0E0,9.266845E0,0E0,4.0664177E0,2.6936398E0,0E0,0E0,0E0,5.6894684E-1,1.2868835E1,1.3848528E1,1.013463E1,1.4310699E1,7.8932285E0,5.171192E0,5.580878E0,1.16196575E1,7.8778105E0,4.126213E0,2.394942E0,9.788974E0,0E0,0E0,2.4969406E0,6.487751E0,9.08452E0,9.6652355E0,5.4293385E0,6.934028E0,9.335166E0,8.754107E0,7.967517E0,5.924611E0,0E0,0E0,0E0,0E0,0E0,0E0,0E0,0E0,0E0,0E0,0E0,0E0,0E0,0E0,0E0,0E0,0E0,0E0,0E0,0E0,0E0,0E0,0E0,0E0,0E0,0E0,0E0,0E0,0E0,0E0,0E0,0E0,0E0,0E0,0E0,0E0,0E0,0E0,0E0,0E0,0E0,0E0,0E0,0E0,0E0,0E0,0E0,0E0,0E0,0E0,0E0,0E0,0E0,0E0,0E0,0E0,0E0,0E0,0E0,0E0,0E0,0E0,0E0,0E0,0E0,0E0,0E0,0E0,0E0,0E0,0E0,0E0,0E0,0E0],"parents":[2147483647,0,0,1,1,2,2,3,3,4,4,5,5,6,6,7,7,8,8,9,9,10,10,11,11,12,12,13,13,14,14,15,15,16,16,17,17,18,18,19,19,20,20,21,21,23,23,24,24,25,25,26,26,27,27,28,28,29,29,30,30,31,31,32,32,33,33,34,34,35,35,36,36,37,37,38,38,40,40,41,41,42,42,43,43,44,44,45,45,46,46,47,47,48,48,49,49,50,50,51,51,54,54,55,55,56,56,57,57,58,58,63,63,64,64,65,65,66,66,67,67,70,70,71,71,73,73,74,74,76,76,77,77,79,79,81,81,82,82,86,86,87,87,88,88,89,89,90,90,91,91,92,92,93,93,94,94,95,95,96,96,97,97,98,98,101,101,102,102,103,103,104,104,105,105,106,106,107,107,108,108,109,109,110,110],"right_children":[2,4,6,8,10,12,14,16,18,20,22,24,26,28,30,32,34,36,38,40,42,44,-1,46,48,50,52,54,56,58,60,62,64,66,68,70,72,74,76,-1,78,80,82,84,86,88,90,92,94,96,98,100,-1,-1,102,104,106,108,110,-1,-1,-1,-1,112,114,116,118,120,-1,-1,122,124,-1,126,128,-1,130,132,-1,134,-1,136,138,-1,-1,-1,140,142,144,146,148,150,152,154,156,158,160,162,164,-1,-1,166,168,170,172,174,176,178,180,182,184,-1,-1,-1,-1,-1,-1,-1,-1,-1,-1,-1,-1,-1,-1,-1,-1,-1,-1,-1,-1,-1,-1,-1,-1,-1,-1,-1,-1,-1,-1,-1,-1,-1,-1,-1,-1,-1,-1,-1,-1,-1,-1,-1,-1,-1,-1,-1,-1,-1,-1,-1,-1,-1,-1,-1,-1,-1,-1,-1,-1,-1,-1,-1,-1,-1,-1,-1,-1,-1,-1,-1,-1,-1,-1],"split_conditions":[1E0,1.38E1,4.9927246E1,1E0,3.65E1,3.00314E0,9.305912E0,1.5446683E1,3.6706947E1,3.0727837E1,7.83E1,2.2860008E1,4.9709656E1,7.02282E0,3.9E1,3.1E1,2.2280035E1,6E-1,1.5061541E1,2.7E0,7.6E0,-1.1362264E0,1.1426623E-1,1.239758E1,1.0883602E2,9.11E1,6.84E1,-2.99735E0,1.42E1,1.63E1,4.31E1,-1.1160771E0,5.83E1,3.2675983E1,7.254578E1,-2.0788993E-1,7.32E1,3.3929262E-1,-2.9983497E0,4.3506747E-1,6.75E1,1.4019644E0,8.6927956E-1,1.092E2,3E0,4.34E1,3.67E1,5.4115616E1,7.805447E1,9.23E1,3.63E1,1.98E1,-1.6728365E-1,1.7278592E-1,2.0905776E0,7.25E1,1.4426711E1,-2.8163168E0,3.128466E1,4.97475E-1,-6.720921E-2,9.683683E-2,-1.6228703E-1,2.9E0,5.76E1,2.69E1,-3.9978687E-2,2.88E1,1.5744533E-1,-5.228412E-2,1.45E1,1.83E1,4.445481E-1,2.55E1,1.344061E1,1.8560657E-1,7.74E1,-1.6659733E0,4.8005524E-1,2.8E0,4.6562204E-1,5.9E0,1.9E0,-1.2954478E-1,9.917837E-2,-8.027085E-3,-1.9890207E0,3.598055E1,2.21E1,3.3490295E1,3.29E1,1.1611812E0,1.073777E2,-1.3306253E0,2.45E1,7.93E1,4.6453526E1,-2.3317981E-1,2.21E1,-1.1942194E-1,4.1662413E-1,3E1,5.6859474E0,8.8E0,1.12E1,7.71E1,1.41E1,4.9138477E-1,3.52847E1,5.920304E0,1.6E1,9.7354524E-2,-1.5232126E-1,7.080509E-1,1.9385056E-1,-1.2849234E-1,2.7370596E-1,7.669509E-2,-1.4355892E-1,3.1802185E-2,-1.6917236E-1,9.459885E-2,7.6855415E-1,5.177341E-2,-7.34614E-2,-8.41026E-2,1.462241E-1,-1.0062784E-2,4.7292447E-1,-8.995859E-2,2.3651352E-2,2.193537E-1,-7.127959E-2,3.919496E-1,-6.780472E-2,3.9049634E-3,-8.657819E-2,8.8418655E-2,-1.7387378E-1,-2.87557E-2,-1.87725E-1,3.2672715E-1,-1.2946334E-1,-3.2811474E-2,8.8987455E-2,7.972684E-2,-6.781747E-2,4.140974E-1,-1.3767484E-1,1.6283702E-2,1.403253E-1,-1.5821838E-1,1.9298522E-1,2.0456591E-1,-1.4860289E-1,6.3310903E-1,4.5501396E-2,3.9419267E-1,-7.2067685E-2,2.327299E-1,9.790856E-1,6.4698726E-2,-1.6508918E-1,5.217627E-1,-1.1043548E-1,-6.2916994E-2,-1.3932496E-1,-1.3174956E-1,3.0544284E-1,3.8488114E-1,1.3709391E-3,-2.8309664E-2,6.265617E-1,-6.4782016E-2,1.8457298E-1,5.9117097E-2,-2.054341E-2,-1.7936163E-1,2.8039506E-1,1.4084013E-2,1.004257E-1,-1.4159724E-1,3.3379692E-4,-1.1335178E-3,-1.0040861E-1],"split_indices":[0,8,9,21,8,22,34,23,19,19,16,9,19,12,17,3,12,8,2,50,49,10,0,9,52,3,48,11,24,17,47,33,15,41,12,20,4,10,22,0,16,1,10,26,25,35,28,34,41,37,40,7,0,0,22,16,23,33,34,0,0,0,0,8,13,16,22,4,0,0,28,29,0,39,9,0,46,11,0,29,0,40,39,0,0,0,1,12,50,34,18,20,52,22,7,37,30,53,8,0,0,14,12,12,28,49,13,42,34,23,7,0,0,0,0,0,0,0,0,0,0,0,0,0,0,0,0,0,0,0,0,0,0,0,0,0,0,0,0,0,0,0,0,0,0,0,0,0,0,0,0,0,0,0,0,0,0,0,0,0,0,0,0,0,0,0,0,0,0,0,0,0,0,0,0,0,0,0,0,0,0,0,0,0,0],"split_type":[0,0,0,0,0,0,0,0,0,0,0,0,0,0,0,0,0,0,0,0,0,0,0,0,0,0,0,0,0,0,0,0,0,0,0,0,0,0,0,0,0,0,0,0,0,0,0,0,0,0,0,0,0,0,0,0,0,0,0,0,0,0,0,0,0,0,0,0,0,0,0,0,0,0,0,0,0,0,0,0,0,0,0,0,0,0,0,0,0,0,0,0,0,0,0,0,0,0,0,0,0,0,0,0,0,0,0,0,0,0,0,0,0,0,0,0,0,0,0,0,0,0,0,0,0,0,0,0,0,0,0,0,0,0,0,0,0,0,0,0,0,0,0,0,0,0,0,0,0,0,0,0,0,0,0,0,0,0,0,0,0,0,0,0,0,0,0,0,0,0,0,0,0,0,0,0,0,0,0,0,0,0,0,0,0],"sum_hessian":[5.00039E3,7.593207E2,4.2410693E3,3.3322864E2,4.2609207E2,1.8499674E3,2.391102E3,6.398104E1,2.692476E2,3.7627432E2,4.9817757E1,1.8271716E3,2.279581E1,1.3268739E3,1.0642283E3,2.1104115E1,4.2876926E1,7.681473E1,1.9243286E2,3.935736E1,3.3691696E2,4.8282917E1,1.534838E0,4.8690576E2,1.3402659E3,1.5461802E1,7.3340106E0,8.705948E1,1.2398145E3,1.0604006E3,3.8276114E0,4.9232745E0,1.6180841E1,2.067985E1,2.2197077E1,3.7572827E0,7.305744E1,4.4487247E1,1.4794562E2,1.5124363E0,3.7844925E1,1.4430366E1,3.224866E2,2.805445E0,4.5477474E1,2.1362741E2,2.7327835E2,1.3272345E3,1.30313225E1,7.101144E0,8.360658E0,2.9221387E0,4.411872E0,1.6694853E0,8.538999E1,3.0855734E1,1.2089587E3,4.3393277E2,6.2646783E2,1.8590751E0,1.9685363E0,1.0067558E0,3.9165187E0,4.007767E0,1.2173074E1,9.551179E0,1.1128671E1,2.0970154E1,1.2269237E0,1.671046E0,2.0862367E0,7.18918E1,1.1656452E0,3.9215126E1,5.27212E0,1.5810628E0,1.4636455E2,3.679435E1,1.0505755E0,1.3331706E1,1.0986599E0,2.937861E2,2.8700506E1,1.804829E0,1.0006161E0,1.0724192E0,4.4405056E1,1.3608429E1,2.0001898E2,2.641026E2,9.175744E0,1.3098082E3,1.7426289E1,7.5419087E0,5.489414E0,4.6122336E0,2.4889104E0,5.7890296E0,2.5716274E0,1.3479888E0,1.5741498E0,8.178075E1,3.6092448E0,2.8135353E1,2.720382E0,1.9868181E2,1.01027686E3,1.7151249E1,4.1678152E2,5.1779126E2,1.0867662E2,1.0063509E0,3.0014162E0,3.6146665E0,8.558408E0,1.7357813E0,7.8153977E0,5.4303064E0,5.6983643E0,4.13177E0,1.6838383E1,1.025621E0,1.0606158E0,3.899218E1,3.2899616E1,3.2771976E1,6.443151E0,2.124464E0,3.147656E0,1.3058937E2,1.5775183E1,2.789753E0,3.4004597E1,1.0200614E0,1.2311645E1,2.1332788E1,2.724533E2,1.0724642E0,2.7628042E1,1.3238035E0,4.308125E1,1.108103E1,2.5273983E0,1.515785E2,4.8440475E1,2.4470074E2,1.9401876E1,7.2801075E0,1.8956361E0,1.2899342E3,1.9873957E1,1.6413954E1,1.0123339E0,1.4478809E0,6.094028E0,3.2858796E0,2.2035346E0,2.6483724E0,1.963861E0,1.2932347E0,1.1956758E0,2.3520753E0,3.4369543E0,1.41321E0,1.1584173E0,2.9072863E1,5.2707886E1,1.849429E0,1.7598158E0,1.7264533E0,2.64089E1,1.306762E0,1.4136201E0,1.9606511E2,2.6167057E0,4.4827816E1,9.6544904E2,1.6076073E1,1.0751765E0,3.6375494E2,5.3026566E1,1.5334985E1,5.0245627E2,3.564788E1,7.302874E1],"tree_param":{"num_deleted":"0","num_feature":"55","num_nodes":"185","size_leaf_vector":"1"}},{"base_weights":[-2.0195832E-2,-2.287964E-1,1.5214318E-2,-1.509614E-1,-5.351587E-1,9.661354E-2,-8.072439E-2,-1.2196699E-1,-8.042715E-1,-4.4707844E-1,-9.2751944E-1,7.422223E-1,9.087428E-2,-1.1901096E-1,3.7473485E-2,-1.9645885E-1,1.675168E-1,-1.9187075E-1,-6.1330665E-2,-1.6899909E-1,-5.567296E-1,-1.9292909E-1,-1.1312306E-3,5.8523434E-1,3.8156515E-1,1.1012346E-1,-7.592093E-2,-6.3162255E-1,-1.0780445E-1,-6.57482E-2,2.0505667E-1,3.900825E-1,-2.4253756E-1,3.5223356E-1,-3.3888578E-1,-1.4580058E-1,1.7126565E-1,1.778204E-1,-5.4714E-1,-5.8895594E-1,2.7962518E-1,1.3983359E0,-7.095355E-2,-1.1047205E-1,1.2514836E-1,4.836753E-1,-1.3522471E-1,-8.1773686E-1,1.508206E-1,-1.3563974E-1,7.7471144E-2,-1.09804906E-1,7.573086E-1,5.360519E-1,1.3109197E-2,1.1406164E0,4.7683373E-2,3.1408966E-1,-2.540073E-1,1.2309608E0,1.9641593E-1,7.8119653E-1,-4.5749712E-1,-2.9400125E-1,1.1837397E0,1.0023818E-1,-6.892977E-1,-4.3809485E-1,-8.192908E-1,-1.16578035E-1,1.9535664E-1,-7.369847E-2,4.0597874E-1,-6.814744E-1,4.1554025E-1,-1.3978702E-1,3.2786065E-1,5.8264184E-1,1.1431042E-1,1.4644623E0,3.136061E-2,-4.1985947E-1,-2.1244641E-3,-4.1066638E-1,-1.9174951E-1,2.4967861E-1,-4.375262E-1,-4.421416E-1,-1.1114391E-1,3.1828918E-2,1.4534798E0,-2.1999994E-1,1.6047741E-1,-6.296796E-1,1.3438237E0,3.2860708E-1,2.7838652E0,-4.182717E-1,1.9681422E-1,-4.29735E-2,5.231927E-1,3.215687E-1,-2.3050288E-2,2.0352177E-1,-5.3154655E-2,3.6802718E-1,-1.478439E-1,1.0448544E-2,2.2017045E-1,3.1477115E-1,-1.03270374E-1,-1.2418347E-1,1.2015766E-1,-1.0081462E-1,1.2087357E-1,4.112588E-1,-1.302446E-1,4.1695774E-2,-1.5935732E-1,-1.1011241E-1,5.7452597E-2,-1.7556475E-1,9.897762E-2,-1.8407154E-1,6.202094E-2,1.8420266E-1,-1.2566867E-1,4.3845147E-2,-5.1292475E-2,2.576174E-1,2.513567E-2,7.106106E-2,1.9780237E-2,-2.1968961E-4,4.8406073E-1,9.120906E-2,-1.4535598E-1,1.8392996E-1,-9.9600606E-2,-5.134636E-2,6.805945E-2,7.571143E-2,-1.6732721E-1,9.826537E-2,-1.5491043E-1,-1.04397394E-1,1.4841396E-1,1.0830694E-1,-2.4330484E-2,3.2931574E-2,-7.759517E-2,-5.0005462E-2,4.2656168E-1,-6.089359E-2,2.7904198E-2,6.638208E-3,1.9673374E-1,-1.9867711E-3,-1.5511706E-1,5.2761972E-2,4.5670232E-1,2.0347571E-2,2.4636486E-1,-1.2117093E-2,7.0274544E-1,-1.18047E-1,1.2036546E-1,1.4710352E-1,-1.2361053E-2],"categories":[],"categories_nodes":[],"categories_segments":[],"categories_sizes":[],"default_left":[0,0,0,0,0,0,1,0,0,0,1,0,0,0,0,0,1,0,0,0,1,0,0,0,0,0,0,0,1,1,0,0,0,0,0,0,0,1,0,1,0,0,0,0,0,0,0,0,0,0,0,1,0,0,0,0,0,0,0,1,1,0,0,0,0,0,0,1,1,0,0,0,0,1,1,0,0,0,0,0,0,0,0,0,0,0,0,0,0,0,0,0,0,0,0,0,0,0,0,0,0,0,0,0,0,0,0,0,0,0,0,0,0,0,0,0,0,0,0,0,0,0,0,0,0,0,0,0,0,0,0,0,0,0,0,0,0,0,0,0,0,0,0,0,0,0,0,0,0,0,0,0,0,0,0,0,0,0,0,0,0,0,0,0,0,0,0,0,0],"id":6,"left_children":[1,3,5,7,9,11,13,15,17,19,21,23,25,27,29,31,33,-1,35,37,39,-1,-1,-1,41,43,45,47,49,51,53,55,57,59,61,-1,-1,63,65,67,69,71,73,75,77,79,81,83,85,87,89,91,93,95,97,99,101,-1,103,105,107,109,111,113,115,-1,117,119,121,-1,-1,-1,-1,123,125,127,-1,129,131,133,135,137,139,141,-1,-1,143,145,147,149,151,153,155,157,159,161,163,165,167,-1,-1,-1,-1,-1,-1,-1,-1,-1,-1,-1,-1,-1,-1,-1,-1,-1,-1,-1,-1,-1,-1,-1,-1,-1,-1,-1,-1,-1,-1,-1,-1,-1,-1,-1,-1,-1,-1,-1,-1,-1,-1,-1,-1,-1,-1,-1,-1,-1,-1,-1,-1,-1,-1,-1,-1,-1,-1,-1,-1,-1,-1,-1,-1,-1,-1,-1,-1,-1,-1],"loss_changes":[3.676485E1,1.7142464E1,3.3240444E1,1.08381605E1,4.6287003E0,8.464617E0,8.846381E0,1.1979231E1,2.7473145E0,3.5987816E0,8.783684E-1,1.4754769E1,7.339943E0,8.411179E0,8.295909E0,1.2015409E1,1.0775567E1,0E0,3.8558033E0,4.77742E0,2.4940472E0,0E0,0E0,0E0,8.585452E0,6.800606E0,7.9257474E0,4.691925E0,7.4661293E0,1.085476E1,1.1603506E1,8.300081E0,8.91548E0,1.1254505E1,4.4702086E0,0E0,0E0,9.540698E0,2.9262657E0,2.5439587E0,2.9052062E0,7.1404676E0,4.35681E0,6.9541E0,9.441132E0,1.0119427E1,8.142163E0,1.0699978E0,4.9842834E0,9.39002E0,1.1852708E1,8.459245E0,1.3227165E1,3.0351534E1,9.329931E0,2.0842606E1,6.12573E0,0E0,6.3725414E0,1.6309967E1,9.397022E0,4.241377E0,5.3233585E0,2.9440393E0,1.1559138E1,0E0,1.6783414E0,4.4514503E0,2.8891964E0,0E0,0E0,0E0,0E0,1.8158596E0,4.9340553E0,5.4960217E0,0E0,1.4064296E1,6.925583E0,1.0103192E1,5.7096443E0,7.6261034E0,1.294349E1,3.1103795E0,0E0,0E0,2.013032E0,9.153E0,8.059702E0,1.0346512E1,7.546482E0,6.156849E0,8.611181E0,4.6287513E-1,1.0576935E1,1.2685976E1,1.1696419E1,6.525143E0,1.1542264E1,0E0,0E0,0E0,0E0,0E0,0E0,0E0,0E0,0E0,0E0,0E0,0E0,0E0,0E0,0E0,0E0,0E0,0E0,0E0,0E0,0E0,0E0,0E0,0E0,0E0,0E0,0E0,0E0,0E0,0E0,0E0,0E0,0E0,0E0,0E0,0E0,0E0,0E0,0E0,0E0,0E0,0E0,0E0,0E0,0E0,0E0,0E0,0E0,0E0,0E0,0E0,0E0,0E0,0E0,0E0,0E0,0E0,0E0,0E0,0E0,0E0,0E0,0E0,0E0,0E0,0E0,0E0,0E0,0E0,0E0],"parents":[2147483647,0,0,1,1,2,2,3,3,4,4,5,5,6,6,7,7,8,8,9,9,10,10,11,11,12,12,13,13,14,14,15,15,16,16,18,18,19,19,20,20,24,24,25,25,26,26,27,27,28,28,29,29,30,30,31,31,32,32,33,33,34,34,37,37,38,38,39,39,40,40,41,41,42,42,43,43,44,44,45,45,46,46,47,47,48,48,49,49,50,50,51,51,52,52,53,53,54,54,55,55,56,56,58,58,59,59,60,60,61,61,62,62,63,63,64,64,66,66,67,67,68,68,73,73,74,74,75,75,77,77,78,78,79,79,80,80,81,81,82,82,83,83,86,86,87,87,88,88,89,89,90,90,91,91,92,92,93,93,94,94,95,95,96,96,97,97,98,98],"right_children":[2,4,6,8,10,12,14,16,18,20,22,24,26,28,30,32,34,-1,36,38,40,-1,-1,-1,42,44,46,48,50,52,54,56,58,60,62,-1,-1,64,66,68,70,72,74,76,78,80,82,84,86,88,90,92,94,96,98,100,102,-1,104,106,108,110,112,114,116,-1,118,120,122,-1,-1,-1,-1,124,126,128,-1,130,132,134,136,138,140,142,-1,-1,144,146,148,150,152,154,156,158,160,162,164,166,168,-1,-1,-1,-1,-1,-1,-1,-1,-1,-1,-1,-1,-1,-1,-1,-1,-1,-1,-1,-1,-1,-1,-1,-1,-1,-1,-1,-1,-1,-1,-1,-1,-1,-1,-1,-1,-1,-1,-1,-1,-1,-1,-1,-1,-1,-1,-1,-1,-1,-1,-1,-1,-1,-1,-1,-1,-1,-1,-1,-1,-1,-1,-1,-1,-1,-1,-1,-1,-1,-1],"split_conditions":[1E0,2.84E1,5.6428715E1,1.167E2,3.89E1,5.9841456E0,1.3003138E-1,9.89E1,1.2291808E0,1.17652025E1,2.7610862E0,2.06E1,3.48E1,6.8883963E0,2.38E1,3.81E1,2.07E1,-1.9187075E-1,3.14E1,3.39E1,3.81E1,-1.9292909E-1,-1.1312306E-3,5.8523434E-1,4.6E1,3.9E0,4.01E1,3.16E1,2.1214375E-1,9.81E1,1.94E1,1.49E1,3E-1,8.9E0,1.4787157E1,-1.4580058E-1,1.7126565E-1,3.399777E-1,-1.1823578E0,6.119673E1,-2.438541E-2,1.2448293E1,1.13E2,7.78E1,3.9E0,-9.107873E-1,8.09E1,1.0084641E1,3.39E1,4.91E1,3.76E1,2.0402206E1,1.34E1,5.65E1,-1.9305034E0,4.38E1,-8.798049E-1,3.1408966E-1,3E-1,1.64E1,3.649928E-1,5.2E0,2.109171E0,6.2521046E-1,1.2845407E0,1.0023818E-1,8.8E0,5.3983795E1,8.88E1,-1.16578035E-1,1.9535664E-1,-7.369847E-2,4.0597874E-1,9.5449936E-1,-1.6594522E0,9.1E0,3.2786065E-1,7.87E1,6.6483083E0,2.51E1,2.54E1,3.8E0,7.59E1,5.58E1,-1.9174951E-1,2.4967861E-1,3.81E1,7.16E1,5.41E1,6.34E1,2.77E1,2.8546453E1,3.41E1,1.0040419E1,8.14E1,4.3756658E-1,2.76E1,3.31E1,1.48E1,-4.29735E-2,5.231927E-1,3.215687E-1,-2.3050288E-2,2.0352177E-1,-5.3154655E-2,3.6802718E-1,-1.478439E-1,1.0448544E-2,2.2017045E-1,3.1477115E-1,-1.03270374E-1,-1.2418347E-1,1.2015766E-1,-1.0081462E-1,1.2087357E-1,4.112588E-1,-1.302446E-1,4.1695774E-2,-1.5935732E-1,-1.1011241E-1,5.7452597E-2,-1.7556475E-1,9.897762E-2,-1.8407154E-1,6.202094E-2,1.8420266E-1,-1.2566867E-1,4.3845147E-2,-5.1292475E-2,2.576174E-1,2.513567E-2,7.106106E-2,1.9780237E-2,-2.1968961E-4,4.8406073E-1,9.120906E-2,-1.4535598E-1,1.8392996E-1,-9.9600606E-2,-5.134636E-2,6.805945E-2,7.571143E-2,-1.6732721E-1,9.826537E-2,-1.5491043E-1,-1.04397394E-1,1.4841396E-1,1.0830694E-1,-2.4330484E-2,3.2931574E-2,-7.759517E-2,-5.0005462E-2,4.2656168E-1,-6.089359E-2,2.7904198E-2,6.638208E-3,1.9673374E-1,-1.9867711E-3,-1.5511706E-1,5.2761972E-2,4.5670232E-1,2.0347571E-2,2.4636486E-1,-1.2117093E-2,7.0274544E-1,-1.18047E-1,1.2036546E-1,1.4710352E-1,-1.2361053E-2],"split_indices":[0,8,9,5,8,9,33,3,1,12,11,4,7,45,29,5,51,0,14,7,18,0,0,0,49,39,46,7,44,48,28,29,40,17,19,0,0,31,10,19,1,45,3,14,51,33,3,34,7,46,28,45,36,38,11,4,42,0,7,39,42,8,33,1,11,0,36,19,46,0,0,0,0,11,33,18,0,3,12,8,40,27,16,35,0,0,24,3,46,3,6,12,51,45,37,31,29,7,8,0,0,0,0,0,0,0,0,0,0,0,0,0,0,0,0,0,0,0,0,0,0,0,0,0,0,0,0,0,0,0,0,0,0,0,0,0,0,0,0,0,0,0,0,0,0,0,0,0,0,0,0,0,0,0,0,0,0,0,0,0,0,0,0,0,0,0,0,0,0],"split_type":[0,0,0,0,0,0,0,0,0,0,0,0,0,0,0,0,0,0,0,0,0,0,0,0,0,0,0,0,0,0,0,0,0,0,0,0,0,0,0,0,0,0,0,0,0,0,0,0,0,0,0,0,0,0,0,0,0,0,0,0,0,0,0,0,0,0,0,0,0,0,0,0,0,0,0,0,0,0,0,0,0,0,0,0,0,0,0,0,0,0,0,0,0,0,0,0,0,0,0,0,0,0,0,0,0,0,0,0,0,0,0,0,0,0,0,0,0,0,0,0,0,0,0,0,0,0,0,0,0,0,0,0,0,0,0,0,0,0,0,0,0,0,0,0,0,0,0,0,0,0,0,0,0,0,0,0,0,0,0,0,0,0,0,0,0,0,0,0,0],"sum_hessian":[4.97578E3,7.2127875E2,4.254501E3,5.7634436E2,1.4493439E2,2.3016545E3,1.9528466E3,5.5298895E2,2.3355389E1,1.201105E2,2.48239E1,1.9150007E1,2.2825046E3,1.4750443E3,4.7780228E2,4.400689E2,1.1292006E2,1.908109E1,4.2742977E0,3.468622E1,8.542427E1,2.3818264E1,1.0056368E0,1.7059895E0,1.7444017E1,2.0466487E3,2.3585596E2,3.0372559E1,1.4446718E3,2.9605618E2,1.8174606E2,3.1509918E1,4.08559E2,8.2962776E1,2.9957283E1,2.5931516E0,1.6811464E0,1.8368727E1,1.6317493E1,8.253967E1,2.8846035E0,4.728767E0,1.2715251E1,1.3010437E2,1.9165443E3,2.1914328E1,2.1394162E2,2.4499844E1,5.872716E0,1.2562101E3,1.8846169E2,2.818366E2,1.4219601E1,6.6052345E1,1.1569372E2,9.141229E0,2.236869E1,1.7139859E0,4.06845E2,1.1456166E1,7.150661E1,2.333659E0,2.7623625E1,1.2985614E1,5.383112E0,1.6469067E0,1.4670587E1,5.16275E1,3.0912172E1,1.3626521E0,1.5219514E0,1.3548923E0,3.3738747E0,5.461103E0,7.254148E0,1.2886552E2,1.2388451E0,4.3130974E1,1.8734133E3,6.210323E0,1.5704004E1,6.748039E1,1.4646123E2,7.309896E0,1.7189947E1,1.6579366E0,4.2147794E0,9.17054E1,1.1645046E3,1.8340138E2,5.060295E0,2.0034236E2,8.149424E1,4.2041206E0,1.001548E1,6.1520927E1,4.531417E0,3.4172382E1,8.152134E1,5.209412E0,3.931817E0,1.2766153E0,2.1092073E1,2.9461823E0,4.0389883E2,8.800942E0,2.655224E0,6.2587505E1,8.919105E0,1.3164855E0,1.0171735E0,2.4286577E1,3.3370476E0,1.08803005E1,2.1053138E0,3.5665436E0,1.8165684E0,1.4682053E0,1.3202381E1,4.4905807E1,6.721692E0,2.9911943E1,1.0002283E0,4.4587603E0,1.0023426E0,4.9668074E0,2.2873404E0,3.1392162E1,9.7473366E1,1.624055E1,2.6890425E1,1.1126177E2,1.7621516E3,2.8457997E0,3.3645232E0,1.0320999E1,5.3830056E0,3.1260471E0,6.435435E1,8.414531E1,6.2315918E1,2.6014023E0,4.7084937E0,1.0002449E0,3.2145345E0,8.643663E1,5.268775E0,1.765141E1,1.1468533E3,1.3978142E2,4.3619972E1,1.6228164E0,3.4374788E0,1.6235162E2,3.799074E1,7.148167E1,1.0012569E1,1.004693E0,3.1994276E0,5.2556887E0,4.7597914E0,5.0059635E1,1.1461292E1,1.1125454E0,3.4188716E0,2.9603384E1,4.5689983E0,2.5844124E1,5.5677216E1],"tree_param":{"num_deleted":"0","num_feature":"55","num_nodes":"169","size_leaf_vector":"1"}},{"base_weights":[-1.7544087E-2,-1.9512372E-1,1.1272553E-2,-1.2635136E-1,-4.8559365E-1,-1.234089E-1,5.17564E-2,-1.0106463E-1,-7.7073663E-1,-3.983519E-1,-9.11858E-1,2.9764184E-1,-1.4299138E-1,1.307886E-1,1.1299813E-2,-1.3184044E-1,4.865604E-1,-8.578233E-1,9.050987E-2,7.5981854E-3,-4.8005098E-1,-1.9113378E-1,-1.018436E-3,7.822247E-1,-2.0926954E-1,-2.830026E-1,-7.950603E-2,-8.039207E-1,1.4001426E-1,1.4883383E-1,-1.4804431E-2,1.7472768E-1,-1.9324176E-1,5.9473807E-1,2.7708593E-1,-1.3804735E-1,-1.9008307E-1,-4.4673404E-1,6.940591E-1,-2.7490262E-4,-5.865355E-1,1.391735E0,-6.214467E-1,2.0791511E-1,-3.4496748E-1,2.5934622E-1,-2.960831E-1,3.5594833E-1,-1.258098E-1,4.4656705E-2,-1.932705E-1,-2.4772823E-1,1.5979728E-1,-1.8068041E-1,2.3068495E-1,-1.2817939E-1,3.445984E-2,6.3585114E-1,-3.636317E-2,-2.9567552E-1,-4.4531103E-2,4.5141467E-1,7.000996E-2,9.8840676E-2,-1.1966187E-1,3.8292605E-1,-7.893307E-1,1.5195763E0,-3.3682653E-1,-2.8812405E-1,1.2310349E0,1.9334547E-1,-6.723782E-1,3.0074307E-1,2.4547398E0,-1.7273253E-1,9.678171E-2,-1.810864E-1,9.5583536E-2,-4.6905166E-1,-1.5622206E-1,5.1639277E-1,-6.756429E-1,-6.0406845E-2,-3.9192852E-1,-6.222622E-1,1.1260819E-1,1.0375686E0,1.4955792E-1,9.560881E-1,-2.7566868E-1,-3.7808833E-1,2.9849708E-1,-1.3912718E-1,5.7250744E-1,1.3362983E-1,-4.4577368E-2,4.9203023E-2,2.752572E-1,-1.3381688E-1,4.2937286E-2,-1.5576111E-1,-4.3833006E-2,-2.9169723E-2,1.2857825E-1,-1.03742614E-1,8.756336E-2,2.4119368E-1,-1.241452E-1,-1.6877648E-3,-1.7703454E-1,4.7685167E-1,-4.1200843E-2,-1.436329E-1,9.820545E-2,-1.0022753E-1,2.0430641E-1,4.608949E-1,-1.0835188E-1,3.9596623E-1,-6.5066E-2,-1.3937439E-1,9.603682E-2,-1.09307684E-1,1.7448731E-1,6.2952703E-1,-4.7701936E-2,-8.4428884E-2,1.8539256E-1,8.668076E-2,-1.04144074E-1,-1.1114931E-1,-1.271514E-2,7.4758224E-2,5.289409E-1,9.522577E-2,-1.772013E-1,-1.4421456E-2,4.2672703E-1,1.1339863E-2,-1.0964946E-1,-1.6133605E-1,8.8353336E-2,1.8446584E-1,-4.919998E-2,-1.0124296E-1,3.938449E-1,2.8069628E-2,1.9983333E-1,-6.484276E-2,3.4254155E-1,2.517883E-1,-6.709243E-2,-9.95579E-2,2.565577E-1,1.567735E-1,3.7624072E-2,-1.680621E-2,-1.0343986E-1,-4.3673262E-2,3.6797736E-2,4.393612E-2,-1.7433533E-2],"categories":[],"categories_nodes":[],"categories_segments":[],"categories_sizes":[],"default_left":[0,0,0,0,0,0,0,1,1,0,1,0,0,0,0,0,0,0,0,0,0,0,0,0,0,0,0,0,0,0,1,1,1,0,0,0,0,0,0,0,0,1,0,0,0,0,0,0,1,0,0,0,0,0,0,1,0,1,1,0,1,0,0,0,0,0,0,0,1,0,0,0,1,0,0,0,0,0,0,0,0,0,0,1,0,0,0,0,1,1,0,0,0,1,0,0,0,0,0,0,0,0,0,0,0,0,0,0,0,0,0,0,0,0,0,0,0,0,0,0,0,0,0,0,0,0,0,0,0,0,0,0,0,0,0,0,0,0,0,0,0,0,0,0,0,0,0,0,0,0,0,0,0,0,0,0,0,0,0,0,0,0,0],"id":7,"left_children":[1,3,5,7,9,11,13,15,17,19,21,23,25,27,29,31,33,35,-1,37,39,-1,-1,41,43,45,47,49,51,53,55,57,59,-1,61,63,-1,65,67,69,71,73,75,-1,77,-1,79,81,83,-1,-1,85,87,89,91,93,95,97,99,101,103,-1,105,-1,-1,107,109,111,113,115,117,119,121,123,125,-1,-1,-1,127,129,131,133,135,137,139,141,143,145,147,149,151,153,155,157,-1,159,161,-1,-1,-1,-1,-1,-1,-1,-1,-1,-1,-1,-1,-1,-1,-1,-1,-1,-1,-1,-1,-1,-1,-1,-1,-1,-1,-1,-1,-1,-1,-1,-1,-1,-1,-1,-1,-1,-1,-1,-1,-1,-1,-1,-1,-1,-1,-1,-1,-1,-1,-1,-1,-1,-1,-1,-1,-1,-1,-1,-1,-1,-1,-1,-1,-1,-1],"loss_changes":[2.5372E1,1.3767029E1,2.3268955E1,9.064412E0,4.551853E0,8.175249E0,1.0489463E1,9.848579E0,2.6291075E0,3.7012882E0,8.5635567E-1,1.1011099E1,8.361216E0,9.691559E0,7.7976003E0,9.726021E0,1.3315073E1,1.2005358E0,0E0,6.4425907E0,4.742241E0,0E0,0E0,2.0361324E1,4.149827E0,6.456171E0,1.315756E1,2.0519824E0,8.483675E0,9.386169E0,1.0202249E1,8.437448E0,6.5286884E0,0E0,1.0556869E1,1.2989081E0,0E0,3.8383086E0,7.5093756E0,6.685159E0,5.2156906E0,1.8046469E1,2.4502106E0,0E0,5.2543774E0,0E0,6.996958E0,1.0737715E1,1.022028E1,0E0,0E0,7.334963E0,9.263971E0,7.767933E0,1.1587865E1,1.8513046E1,9.98827E0,7.5124626E0,9.713096E0,9.222576E0,1.2375308E1,0E0,5.5736046E0,0E0,0E0,4.3081074E0,6.759391E-1,7.5748997E0,1.765372E0,4.7766066E0,8.049623E0,8.343472E0,2.2728424E0,4.9007783E0,1.5799957E1,0E0,0E0,0E0,5.824607E0,6.29513E0,6.0015407E0,1.5669327E1,2.573759E0,1.2312644E1,8.161179E0,5.5658875E0,8.439236E0,1.8134785E1,7.974575E0,5.9637504E0,6.378882E0,6.265003E0,1.3281513E1,1.1459014E1,0E0,1.0057038E1,8.004102E0,0E0,0E0,0E0,0E0,0E0,0E0,0E0,0E0,0E0,0E0,0E0,0E0,0E0,0E0,0E0,0E0,0E0,0E0,0E0,0E0,0E0,0E0,0E0,0E0,0E0,0E0,0E0,0E0,0E0,0E0,0E0,0E0,0E0,0E0,0E0,0E0,0E0,0E0,0E0,0E0,0E0,0E0,0E0,0E0,0E0,0E0,0E0,0E0,0E0,0E0,0E0,0E0,0E0,0E0,0E0,0E0,0E0,0E0,0E0,0E0,0E0,0E0,0E0,0E0,0E0,0E0],"parents":[2147483647,0,0,1,1,2,2,3,3,4,4,5,5,6,6,7,7,8,8,9,9,10,10,11,11,12,12,13,13,14,14,15,15,16,16,17,17,19,19,20,20,23,23,24,24,25,25,26,26,27,27,28,28,29,29,30,30,31,31,32,32,34,34,35,35,37,37,38,38,39,39,40,40,41,41,42,42,44,44,46,46,47,47,48,48,51,51,52,52,53,53,54,54,55,55,56,56,57,57,58,58,59,59,60,60,62,62,65,65,66,66,67,67,68,68,69,69,70,70,71,71,72,72,73,73,74,74,78,78,79,79,80,80,81,81,82,82,83,83,84,84,85,85,86,86,87,87,88,88,89,89,90,90,91,91,92,92,93,93,95,95,96,96],"right_children":[2,4,6,8,10,12,14,16,18,20,22,24,26,28,30,32,34,36,-1,38,40,-1,-1,42,44,46,48,50,52,54,56,58,60,-1,62,64,-1,66,68,70,72,74,76,-1,78,-1,80,82,84,-1,-1,86,88,90,92,94,96,98,100,102,104,-1,106,-1,-1,108,110,112,114,116,118,120,122,124,126,-1,-1,-1,128,130,132,134,136,138,140,142,144,146,148,150,152,154,156,158,-1,160,162,-1,-1,-1,-1,-1,-1,-1,-1,-1,-1,-1,-1,-1,-1,-1,-1,-1,-1,-1,-1,-1,-1,-1,-1,-1,-1,-1,-1,-1,-1,-1,-1,-1,-1,-1,-1,-1,-1,-1,-1,-1,-1,-1,-1,-1,-1,-1,-1,-1,-1,-1,-1,-1,-1,-1,-1,-1,-1,-1,-1,-1,-1,-1,-1,-1,-1],"split_conditions":[1E0,2.84E1,4.69E1,1.167E2,3.89E1,1.84E1,3.7304825E1,1.086E2,5.1583427E1,4.59E1,2.7610862E0,8.2530785E1,4.6756148E-1,6E-1,5.41E1,-1.0990188E0,2.7E0,2E0,9.050987E-2,1.002E2,-3.4137613E-1,-1.9113378E-1,-1.018436E-3,2.47E1,-2.578804E0,-1.1636717E0,1.240417E0,1.31E1,-2.2571816E0,1.4E1,5.71E1,4.44E1,-2.1109334E-1,5.9473807E-1,-1.5818762E0,-2.3949927E-1,-1.9008307E-1,-1.0449191E0,9.813037E1,8.1569195E-1,-1.1362264E0,-2.0344439E0,3.54E1,2.0791511E-1,-5.4272443E-1,2.5934622E-1,7.935281E-1,7.45E1,4.04E1,4.4656705E-2,-1.932705E-1,6.3274884E-1,-1.1636717E0,-2.6135182E0,1.44E1,1.159E2,1.8179659E1,9.6E0,2.45E1,4.6E0,5.1226866E-1,4.5141467E-1,5.75E1,9.8840676E-2,-1.1966187E-1,1.053945E1,1.22E1,2.74E1,-9.7253196E-2,6.58E1,2.59E1,1.067E2,9.36E1,7.070007E1,5.35E1,-1.7273253E-1,9.678171E-2,-1.810864E-1,4.8E1,7.3E0,-1.9004208E0,3.54E1,1.1473884E1,3.77E1,-2.1870933E0,1.118E2,8.508819E0,1.7678236E1,3.0055952E0,4.8E0,7E-1,5.241194E-1,2.3E1,6.65E1,5.7250744E-1,3.874119E1,5.2E1,4.9203023E-2,2.752572E-1,-1.3381688E-1,4.2937286E-2,-1.5576111E-1,-4.3833006E-2,-2.9169723E-2,1.2857825E-1,-1.03742614E-1,8.756336E-2,2.4119368E-1,-1.241452E-1,-1.6877648E-3,-1.7703454E-1,4.7685167E-1,-4.1200843E-2,-1.436329E-1,9.820545E-2,-1.0022753E-1,2.0430641E-1,4.608949E-1,-1.0835188E-1,3.9596623E-1,-6.5066E-2,-1.3937439E-1,9.603682E-2,-1.09307684E-1,1.7448731E-1,6.2952703E-1,-4.7701936E-2,-8.4428884E-2,1.8539256E-1,8.668076E-2,-1.04144074E-1,-1.1114931E-1,-1.271514E-2,7.4758224E-2,5.289409E-1,9.522577E-2,-1.772013E-1,-1.4421456E-2,4.2672703E-1,1.1339863E-2,-1.0964946E-1,-1.6133605E-1,8.8353336E-2,1.8446584E-1,-4.919998E-2,-1.0124296E-1,3.938449E-1,2.8069628E-2,1.9983333E-1,-6.484276E-2,3.4254155E-1,2.517883E-1,-6.709243E-2,-9.95579E-2,2.565577E-1,1.567735E-1,3.7624072E-2,-1.680621E-2,-1.0343986E-1,-4.3673262E-2,3.6797736E-2,4.393612E-2,-1.7433533E-2],"split_indices":[0,8,3,5,8,35,9,13,12,5,11,9,22,40,3,1,50,8,0,15,44,0,0,18,1,42,22,47,11,39,15,16,22,0,22,10,0,11,9,1,10,44,29,0,1,0,33,14,13,0,0,22,42,11,27,35,34,40,25,7,53,0,47,0,0,12,51,3,11,49,17,5,46,9,24,0,0,0,38,38,11,18,34,39,11,13,12,9,33,51,28,20,50,26,0,41,13,0,0,0,0,0,0,0,0,0,0,0,0,0,0,0,0,0,0,0,0,0,0,0,0,0,0,0,0,0,0,0,0,0,0,0,0,0,0,0,0,0,0,0,0,0,0,0,0,0,0,0,0,0,0,0,0,0,0,0,0,0,0,0,0,0,0],"split_type":[0,0,0,0,0,0,0,0,0,0,0,0,0,0,0,0,0,0,0,0,0,0,0,0,0,0,0,0,0,0,0,0,0,0,0,0,0,0,0,0,0,0,0,0,0,0,0,0,0,0,0,0,0,0,0,0,0,0,0,0,0,0,0,0,0,0,0,0,0,0,0,0,0,0,0,0,0,0,0,0,0,0,0,0,0,0,0,0,0,0,0,0,0,0,0,0,0,0,0,0,0,0,0,0,0,0,0,0,0,0,0,0,0,0,0,0,0,0,0,0,0,0,0,0,0,0,0,0,0,0,0,0,0,0,0,0,0,0,0,0,0,0,0,0,0,0,0,0,0,0,0,0,0,0,0,0,0,0,0,0,0,0,0],"sum_hessian":[4.9567036E3,6.912394E2,4.2654644E3,5.600707E2,1.3116872E2,9.85352E2,3.2801123E3,5.4003564E2,2.0035034E1,1.1048976E2,2.0678955E1,4.3159657E1,9.421923E2,1.1098264E3,2.1702856E3,5.1389685E2,2.6138783E1,1.8982416E1,1.0526178E0,1.8663029E1,9.182673E1,1.9674442E1,1.0045128E0,2.1788132E1,2.1371525E1,2.9285947E2,6.493328E2,1.0005122E1,1.0998213E3,3.4546286E2,1.8248229E3,8.5443565E1,4.2845328E2,1.0054097E0,2.5133373E1,2.4474852E0,1.6534931E1,1.1440433E1,7.222596E0,1.686091E1,7.496582E1,1.5197494E1,6.5906386E0,1.4417711E0,1.9929752E1,1.5991205E0,2.9126035E2,6.1767338E1,5.875655E2,1.3149389E0,8.690184E0,5.2830666E1,1.0469907E3,6.849798E1,2.7696487E2,5.522632E2,1.2725597E3,2.6199373E1,5.924419E1,2.5311575E2,1.7533754E2,1.4423541E0,2.369102E1,1.0000278E0,1.4474576E0,3.3091085E0,8.131324E0,3.7475595E0,3.4750369E0,1.4286978E1,2.5739326E0,7.3092175E0,6.76566E1,8.133141E0,7.064353E0,5.5853744E0,1.005264E0,8.306756E0,1.1622997E1,1.2916548E2,1.6209488E2,5.3885838E1,7.8815E0,4.7263486E2,1.1493064E2,2.5548569E1,2.7282097E1,1.0915618E1,1.0360751E3,4.583214E0,6.391476E1,2.7300777E1,2.4966411E2,5.511989E2,1.0642325E0,5.6409045E2,7.084693E2,1.8035835E1,8.163539E0,1.6356272E1,4.288792E1,3.3349464E1,2.1976628E2,1.535012E2,2.1836336E1,8.951955E0,1.4739064E1,1.7073885E0,1.60172E0,1.0078349E0,7.123489E0,2.2422583E0,1.5053012E0,2.469841E0,1.0051957E0,1.2819291E1,1.4676865E0,1.4163884E0,1.1575444E0,1.0107564E0,6.298461E0,6.663586E1,1.0207449E0,3.2945035E0,4.838637E0,5.4846087E0,1.5797445E0,7.46594E0,4.157057E0,6.594609E0,1.2257087E2,2.9571842E1,1.3252303E2,5.160389E1,2.2819483E0,1.0220828E0,6.8594165E0,4.7108975E2,1.5451026E0,2.9862854E1,8.506779E1,2.198072E1,3.5678482E0,7.8914914E0,1.9390606E1,4.280065E0,6.635553E0,1.0261171E3,9.957935E0,1.9147302E0,2.6684835E0,1.6448382E0,6.2269924E1,2.6118662E1,1.1821145E0,4.5125893E1,2.0453822E2,4.821569E2,6.9042046E1,7.018415E1,4.939063E2,9.775786E1,6.107114E2],"tree_param":{"num_deleted":"0","num_feature":"55","num_nodes":"163","size_leaf_vector":"1"}},{"base_weights":[-1.5393224E-2,-1.0346823E-2,-7.904379E-1,-1.0811398E-1,2.028491E-2,-8.751483E-1,2.8326833E-1,-7.2138466E-2,-3.2564083E-1,-1.4939879E-1,4.303666E-2,-1.3585939E-3,-9.051275E-1,1.9651005E-1,-1.0551894E-1,1.2463808E0,-8.022283E-2,-1.9995561E-1,-7.147665E-1,7.2114825E-2,-2.4482973E-1,-1.2067528E-1,5.739534E-2,-1.8743181E-1,-1.4363664E-3,2.7579494E0,-4.7759497E-1,-8.864124E-2,9.730547E-1,1.3909185E0,-2.4639891E-1,-7.8348184E-1,1.9382815E-1,1.647974E0,7.5867693E-3,5.749749E-1,-2.7502137E-1,1.5655999E0,-1.4303471E-1,-1.5040077E-1,7.0460066E-2,-1.6379036E-3,7.7907014E-1,-1.292629E-1,-1.4728549E-3,-1.0381568E-1,3.8210002E-1,-1.3527237E-1,1.6246272E0,-1.17511235E-1,5.6032556E-1,-3.2341653E-1,6.3218975E-1,-8.7221044E-1,4.2112596E-2,1.4744824E-1,5.818785E-1,-6.317891E-2,1.08355E0,1.7071817E0,-4.598246E-2,-1.3176712E-2,-3.7440488E-1,-4.7887117E-2,4.9996224E-1,5.402183E-2,-3.0468684E-1,-1.8180054E-1,4.0807763E-1,5.4492757E-2,2.4157996E-1,-6.496981E-2,-1.2198856E-2,3.0199593E-1,-4.5669815E-3,-6.0190678E-2,5.033569E-1,-1.4295442E-1,-3.6207955E-2,3.672845E-1,-1.4986536E-2,-5.0026752E-2,-1.8421319E-1,2.0165674E-1,-1.405611E-1,1.9890344E-1,-1.2037481E-1,1.3975325E-1,-3.3771574E-2,3.268908E-1,-7.3075585E-2,5.58695E-1,2.1347003E-2,-1.3699462E-1,2.4042253E-1,-5.740432E-2,1.0263053E-1,-6.1146893E-2,-1.5672909E-1,-8.956688E-3,2.0565663E-1,1.2900047E-1,-7.07274E-2,-4.724626E-2,1.709634E-1,-4.5018557E-2,1.511846E-2,1.3178128E-1,1.6765436E-2],"categories":[],"categories_nodes":[],"categories_segments":[],"categories_sizes":[],"default_left":[0,0,0,0,0,0,0,0,1,0,0,0,0,0,0,0,1,0,0,0,0,0,0,0,0,0,0,1,0,0,1,0,0,0,1,0,0,0,0,1,1,0,0,0,0,0,0,0,0,0,0,0,0,0,0,1,0,0,1,0,0,1,1,0,0,0,0,1,0,0,0,0,0,0,0,0,0,0,0,0,0,0,0,0,0,0,0,0,0,0,0,0,0,0,0,0,0,0,0,0,0,0,0,0,0,0,0,0,0],"id":8,"left_children":[1,3,5,7,9,11,13,15,17,19,21,-1,23,-1,-1,25,27,29,31,33,35,37,39,-1,-1,41,43,45,47,49,51,53,-1,55,57,59,61,63,65,67,69,-1,-1,-1,-1,71,73,-1,75,-1,-1,77,79,81,83,85,-1,87,89,91,93,95,97,-1,-1,99,101,103,-1,105,107,-1,-1,-1,-1,-1,-1,-1,-1,-1,-1,-1,-1,-1,-1,-1,-1,-1,-1,-1,-1,-1,-1,-1,-1,-1,-1,-1,-1,-1,-1,-1,-1,-1,-1,-1,-1,-1,-1],"loss_changes":[1.9320347E1,1.4709254E1,3.1543903E0,9.146102E0,1.4445719E1,7.7127075E-1,2.271764E0,1.08311825E1,7.9757576E0,9.370201E0,7.761232E0,0E0,8.2333374E-1,0E0,0E0,1.7462223E1,8.966833E0,9.716E0,5.4037914E0,1.3612076E1,7.8171635E0,1.0265129E1,8.245739E0,0E0,0E0,1.0882391E1,2.925009E-1,7.1437254E0,9.723327E0,1.2109769E1,8.602813E0,2.9022846E0,0E0,9.538389E0,9.945452E0,8.03339E0,7.7792187E0,6.616474E0,8.418005E0,1.2736488E1,7.7867117E0,0E0,0E0,0E0,0E0,9.10672E0,1.4316465E1,0E0,1.11447315E1,0E0,0E0,6.2656803E0,8.943743E0,8.4451294E-1,4.1273475E0,2.7937326E0,0E0,9.9946995E0,7.031003E0,6.7148924E0,7.427648E0,1.2158411E1,5.8528423E0,0E0,0E0,1.1569291E1,6.970628E0,1.0253027E1,0E0,1.5427433E1,1.5965285E1,0E0,0E0,0E0,0E0,0E0,0E0,0E0,0E0,0E0,0E0,0E0,0E0,0E0,0E0,0E0,0E0,0E0,0E0,0E0,0E0,0E0,0E0,0E0,0E0,0E0,0E0,0E0,0E0,0E0,0E0,0E0,0E0,0E0,0E0,0E0,0E0,0E0,0E0],"parents":[2147483647,0,0,1,1,2,2,3,3,4,4,5,5,6,6,7,7,8,8,9,9,10,10,12,12,15,15,16,16,17,17,18,18,19,19,20,20,21,21,22,22,25,25,26,26,27,27,28,28,29,29,30,30,31,31,33,33,34,34,35,35,36,36,37,37,38,38,39,39,40,40,45,45,46,46,48,48,51,51,52,52,53,53,54,54,55,55,57,57,58,58,59,59,60,60,61,61,62,62,65,65,66,66,67,67,69,69,70,70],"right_children":[2,4,6,8,10,12,14,16,18,20,22,-1,24,-1,-1,26,28,30,32,34,36,38,40,-1,-1,42,44,46,48,50,52,54,-1,56,58,60,62,64,66,68,70,-1,-1,-1,-1,72,74,-1,76,-1,-1,78,80,82,84,86,-1,88,90,92,94,96,98,-1,-1,100,102,104,-1,106,108,-1,-1,-1,-1,-1,-1,-1,-1,-1,-1,-1,-1,-1,-1,-1,-1,-1,-1,-1,-1,-1,-1,-1,-1,-1,-1,-1,-1,-1,-1,-1,-1,-1,-1,-1,-1,-1,-1],"split_conditions":[3.92E1,4.69E1,7.78E1,3.444004E-1,1E0,1.5E0,9E0,6E-1,1.3009612E1,6.5E0,1E0,-1.3585939E-3,2.176341E0,1.9651005E-1,-1.0551894E-1,6.456725E1,3.81E1,8.4E0,5.41E1,5.1E1,-9.287211E-1,7.922752E0,4.79E1,-1.8743181E-1,-1.4363664E-3,3.7E1,1.82E1,1.044E2,8.8E0,2.79E1,9.070832E0,1.0601528E2,1.9382815E-1,1.5150356E-2,1.059E2,-2.3109066E-1,6.34E1,2.9E1,2.55E1,5.8063156E1,6.95E1,-1.6379036E-3,7.7907014E-1,-1.292629E-1,-1.4728549E-3,6.714715E1,-9.2968756E-1,-1.3527237E-1,1.33764715E1,-1.17511235E-1,5.6032556E-1,2.2512567E-1,1.41E1,3.621697E-1,3.56E1,3.41E1,5.818785E-1,8.5E0,5.191461E-1,1.33E1,3.9920547E1,5.72E1,9.23E1,-4.7887117E-2,4.9996224E-1,3.0565504E1,-9.05638E-1,3.3700443E1,4.0807763E-1,-4.0727764E-1,5.46E1,-6.496981E-2,-1.2198856E-2,3.0199593E-1,-4.5669815E-3,-6.0190678E-2,5.033569E-1,-1.4295442E-1,-3.6207955E-2,3.672845E-1,-1.4986536E-2,-5.0026752E-2,-1.8421319E-1,2.0165674E-1,-1.405611E-1,1.9890344E-1,-1.2037481E-1,1.3975325E-1,-3.3771574E-2,3.268908E-1,-7.3075585E-2,5.58695E-1,2.1347003E-2,-1.3699462E-1,2.4042253E-1,-5.740432E-2,1.0263053E-1,-6.1146893E-2,-1.5672909E-1,-8.956688E-3,2.0565663E-1,1.2900047E-1,-7.07274E-2,-4.724626E-2,1.709634E-1,-4.5018557E-2,1.511846E-2,1.3178128E-1,1.6765436E-2],"split_indices":[8,3,4,10,0,17,2,51,45,8,21,0,1,0,0,52,51,13,4,3,31,9,5,0,0,25,7,26,8,3,45,19,0,10,24,22,3,25,39,45,38,0,0,0,0,41,44,0,23,0,0,22,28,10,27,26,0,50,44,8,19,26,26,0,0,2,53,12,0,42,35,0,0,0,0,0,0,0,0,0,0,0,0,0,0,0,0,0,0,0,0,0,0,0,0,0,0,0,0,0,0,0,0,0,0,0,0,0,0],"split_type":[0,0,0,0,0,0,0,0,0,0,0,0,0,0,0,0,0,0,0,0,0,0,0,0,0,0,0,0,0,0,0,0,0,0,0,0,0,0,0,0,0,0,0,0,0,0,0,0,0,0,0,0,0,0,0,0,0,0,0,0,0,0,0,0,0,0,0,0,0,0,0,0,0,0,0,0,0,0,0,0,0,0,0,0,0,0,0,0,0,0,0,0,0,0,0,0,0,0,0,0,0,0,0,0,0,0,0,0,0],"sum_hessian":[4.9408584E3,4.909903E3,3.0955564E1,1.170737E3,3.7391658E3,2.8863312E1,2.0922542E0,1.0057359E3,1.6500124E2,4.414255E2,3.2977402E3,1.0041596E0,2.7859152E1,1.0097338E0,1.0825204E0,5.195554E0,1.00054034E3,1.2586233E2,3.9138912E1,1.329853E2,3.084402E2,2.653154E2,3.0324248E3,2.6857422E1,1.0017297E0,2.448749E0,2.746805E0,9.9351544E2,7.024914E0,2.7490008E0,1.2311333E2,3.8118145E1,1.0207673E0,4.2659664E0,1.2871933E2,1.0314793E1,2.981254E2,2.5687525E0,2.6274664E2,1.7875723E2,2.8536675E3,1.0027877E0,1.4459612E0,1.7459079E0,1.0008969E0,9.632445E2,3.0270922E1,1.978476E0,5.0464377E0,1.3871168E0,1.361884E0,1.137719E2,9.341424E0,3.4368065E1,3.7500813E0,2.458426E0,1.8075404E0,1.2165914E2,7.060193E0,3.0338411E0,7.2809515E0,8.2333855E1,2.1579155E2,1.1297021E0,1.4390503E0,1.1870686E2,1.4403976E2,1.7713542E2,1.6218007E0,2.6113218E3,2.423457E2,1.552576E2,8.079869E2,7.2759676E0,2.2994953E1,1.807627E0,3.2388108E0,2.9276997E1,8.44949E1,2.8651035E0,6.4763203E0,2.9482205E0,3.1419844E1,1.478671E0,2.2714105E0,1.0003554E0,1.4580706E0,1.4134835E1,