{"learner":{"attributes":{"scikit_learn":"{\"_estimator_type\": \"classifier\"}"},"feature_names":["outcome","pass_angle","pass_length","pass_cross","pass_cut_back","pass_switch","pass_through_ball","pass_height","x1","y1","x2","y2","start_distance_from_center","end_distance_from_center","end_distance_from_goal","end_angle_to_goal","pass_corner","pass_free_kick","pass_goal_kick","pass_throw-in","prev_pass1_angle","prev_pass1_length","prev_pass1_x1","prev_pass1_y1","prev_pass1_x2","prev_pass1_y2","prev_pass1_start_distance_from_center","prev_pass1_end_distance_from_center","prev_pass1_end_distance_from_goal","prev_pass1_end_angle_to_goal","prev_pass1_outcome","prev_pass1_cross","prev_pass1_cut_back","prev_pass1_switch","prev_pass1_through_ball","prev_pass1_height","prev_pass1_pass_corner","prev_pass1_pass_free_kick","prev_pass1_pass_goal_kick","prev_pass1_pass_throw-in","prev_pass2_angle","prev_pass2_length","prev_pass2_x1","prev_pass2_y1","prev_pass2_x2","prev_pass2_y2","prev_pass2_start_distance_from_center","prev_pass2_end_distance_from_center","prev_pass2_end_distance_from_goal","prev_pass2_end_angle_to_goal","prev_pass2_outcome","prev_pass2_cross","prev_pass2_cut_back","prev_pass2_switch","prev_pass2_through_ball","prev_pass2_height","prev_pass2_pass_corner","prev_pass2_pass_free_kick","prev_pass2_pass_goal_kick","prev_pass2_pass_throw-in","prev_pass3_angle","prev_pass3_length","prev_pass3_x1","prev_pass3_y1","prev_pass3_x2","prev_pass3_y2","prev_pass3_start_distance_from_center","prev_pass3_end_distance_from_center","prev_pass3_end_distance_from_goal","prev_pass3_end_angle_to_goal","prev_pass3_outcome","prev_pass3_cross","prev_pass3_cut_back","prev_pass3_switch","prev_pass3_through_ball","prev_pass3_height","prev_pass3_pass_corner","prev_pass3_pass_free_kick","prev_pass3_pass_goal_kick","prev_pass3_pass_throw-in","prev_pass4_angle","prev_pass4_length","prev_pass4_x1","prev_pass4_y1","prev_pass4_x2","prev_pass4_y2","prev_pass4_start_distance_from_center","prev_pass4_end_distance_from_center","prev_pass4_end_distance_from_goal","prev_pass4_end_angle_to_goal","prev_pass4_outcome","prev_pass4_cross","prev_pass4_cut_back","prev_pass4_switch","prev_pass4_through_ball","prev_pass4_height","prev_pass4_pass_corner","prev_pass4_pass_free_kick","prev_pass4_pass_goal_kick","prev_pass4_pass_throw-in"],"feature_types":["float","float","float","int","int","int","int","int","float","float","float","float","float","float","float","float","int","int","int","int","float","float","float","float","float","float","float","float","float","float","float","float","float","float","float","float","float","float","float","float","float","float","float","float","float","float","float","float","float","float","float","float","float","float","float","float","float","float","float","float","float","float","float","float","float","float","float","float","float","float","float","float","float","float","float","float","float","float","float","float","float","float","float","float","float","float","float","float","float","float","float","float","float","float","float","float","float","float","float","float"],"gradient_booster":{"model":{"gbtree_model_param":{"num_parallel_tree":"1","num_trees":"50"},"iteration_indptr":[0,1,2,3,4,5,6,7,8,9,10,11,12,13,14,15,16,17,18,19,20,21,22,23,24,25,26,27,28,29,30,31,32,33,34,35,36,37,38,39,40,41,42,43,44,45,46,47,48,49,50],"tree_info":[0,0,0,0,0,0,0,0,0,0,0,0,0,0,0,0,0,0,0,0,0,0,0,0,0,0,0,0,0,0,0,0,0,0,0,0,0,0,0,0,0,0,0,0,0,0,0,0,0,0],"trees":[{"base_weights":[-4.456433E-1,4.4836053E-1,-5.284892E-1,-6.0634875E-1,1.9115895E0,-8.568854E-1,-4.5157188E-1,-4.2459473E-2,-2.0888668E-2,1.4826375E-1,6.5304436E-2,-3.6923062E-2,-5.0456908E-2,-6.101984E-3,-2.7378265E-2],"categories":[],"categories_nodes":[],"categories_segments":[],"categories_sizes":[],"default_left":[0,0,0,0,0,0,0,0,0,0,0,0,0,0,0],"id":0,"left_children":[1,3,5,7,9,11,13,-1,-1,-1,-1,-1,-1,-1,-1],"loss_changes":[4.3279033E3,7.649706E3,1.3503818E3,1.3156873E2,1.3207666E3,1.8221191E2,1.370583E3,0E0,0E0,0E0,0E0,0E0,0E0,0E0,0E0],"parents":[2147483647,0,0,1,1,2,2,3,3,4,4,5,5,6,6],"right_children":[2,4,6,8,10,12,14,-1,-1,-1,-1,-1,-1,-1,-1],"split_conditions":[2.1804815E1,1E0,1E0,9.97E1,1.2401613E1,2.52E1,4.4686127E1,-4.2459473E-2,-2.0888668E-2,1.4826375E-1,6.5304436E-2,-3.6923062E-2,-5.0456908E-2,-6.101984E-3,-2.7378265E-2],"split_indices":[14,0,0,8,14,13,14,0,0,0,0,0,0,0,0],"split_type":[0,0,0,0,0,0,0,0,0,0,0,0,0,0,0],"sum_hessian":[5.843003E4,4.9550303E3,5.3475E4,2.8798167E3,2.0752134E3,1.0146149E4,4.332885E4,1.2572593E3,1.6225574E3,7.559028E2,1.3193107E3,5.7103867E3,4.4357627E3,9.774976E3,3.3553875E4],"tree_param":{"num_deleted":"0","num_feature":"100","num_nodes":"15","size_leaf_vector":"1"}},{"base_weights":[-4.2997512E-1,4.180553E-1,-5.111304E-1,-5.879824E-1,1.705142E0,-8.3799654E-1,-4.3559238E-1,-4.1512605E-2,-2.0125829E-2,1.2795879E-1,5.9422173E-2,-3.5963193E-2,-4.9601346E-2,-8.7679615E-3,-2.7577788E-2],"categories":[],"categories_nodes":[],"categories_segments":[],"categories_sizes":[],"default_left":[0,0,0,0,0,0,0,0,0,0,0,0,0,0,0],"id":1,"left_children":[1,3,5,7,9,11,13,-1,-1,-1,-1,-1,-1,-1,-1],"loss_changes":[3.9633525E3,6.51421E3,1.2972891E3,1.2655664E2,9.70876E2,1.7969434E2,1.2882593E3,0E0,0E0,0E0,0E0,0E0,0E0,0E0,0E0],"parents":[2147483647,0,0,1,1,2,2,3,3,4,4,5,5,6,6],"right_children":[2,4,6,8,10,12,14,-1,-1,-1,-1,-1,-1,-1,-1],"split_conditions":[2.1804815E1,1E0,1E0,9.97E1,1.2401613E1,2.52E1,4.996679E1,-4.1512605E-2,-2.0125829E-2,1.2795879E-1,5.9422173E-2,-3.5963193E-2,-4.9601346E-2,-8.7679615E-3,-2.7577788E-2],"split_indices":[14,0,0,8,14,13,14,0,0,0,0,0,0,0,0],"split_type":[0,0,0,0,0,0,0,0,0,0,0,0,0,0,0],"sum_hessian":[5.7584234E4,5.029056E3,5.255518E4,2.8230176E3,2.2060388E3,9.863594E3,4.2691586E4,1.2225514E3,1.6004663E3,8.300779E2,1.3759608E3,5.573212E3,4.290382E3,1.3160544E4,2.9531041E4],"tree_param":{"num_deleted":"0","num_feature":"100","num_nodes":"15","size_leaf_vector":"1"}},{"base_weights":[-4.147601E-1,3.7132606E-1,-4.9622524E-1,-5.798554E-1,1.4770097E0,-8.189944E-1,-4.2314556E-1,-4.073068E-2,-1.9732928E-2,1.02874875E-1,4.431475E-2,-3.4872323E-2,-4.876646E-2,-1.1181404E-2,-2.8094683E-2],"categories":[],"categories_nodes":[],"categories_segments":[],"categories_sizes":[],"default_left":[0,0,0,0,0,0,0,0,0,0,0,0,0,0,0],"id":2,"left_children":[1,3,5,7,9,11,13,-1,-1,-1,-1,-1,-1,-1,-1],"loss_changes":[3.6351172E3,5.607097E3,1.2128232E3,1.2429224E2,8.4356396E2,1.7972754E2,1.1608545E3,0E0,0E0,0E0,0E0,0E0,0E0,0E0,0E0],"parents":[2147483647,0,0,1,1,2,2,3,3,4,4,5,5,6,6],"right_children":[2,4,6,8,10,12,14,-1,-1,-1,-1,-1,-1,-1,-1],"split_conditions":[2.2638462E1,1E0,1E0,9.97E1,1.4921461E1,2.52E1,5.6240643E1,-4.073068E-2,-1.9732928E-2,1.02874875E-1,4.431475E-2,-3.4872323E-2,-4.876646E-2,-1.1181404E-2,-2.8094683E-2],"split_indices":[14,0,0,8,14,13,14,0,0,0,0,0,0,0,0],"split_type":[0,0,0,0,0,0,0,0,0,0,0,0,0,0,0],"sum_hessian":[5.6760582E4,5.3296177E3,5.1430965E4,2.8652324E3,2.4643853E3,9.493048E3,4.1937914E4,1.2620458E3,1.6031868E3,1.2416996E3,1.2226855E3,5.343792E3,4.149256E3,1.7202955E4,2.473496E4],"tree_param":{"num_deleted":"0","num_feature":"100","num_nodes":"15","size_leaf_vector":"1"}},{"base_weights":[-3.9997834E-1,2.479923E-1,-4.9230304E-1,-5.870155E-1,1.0459437E0,-8.074687E-1,-4.248754E-1,-3.9775897E-2,-1.994757E-2,9.209227E-2,2.9022938E-2,-3.49581E-2,-4.94001E-2,-1.2472584E-2,-2.7382676E-2],"categories":[],"categories_nodes":[],"categories_segments":[],"categories_sizes":[],"default_left":[0,0,0,0,0,0,0,0,0,0,0,0,0,0,0],"id":3,"left_children":[1,3,5,7,9,11,13,-1,-1,-1,-1,-1,-1,-1,-1],"loss_changes":[3.3479746E3,4.651272E3,1.0405918E3,1.334491E2,1.3213569E3,1.6808203E2,8.689839E2,0E0,0E0,0E0,0E0,0E0,0E0,0E0,0E0],"parents":[2147483647,0,0,1,1,2,2,3,3,4,4,5,5,6,6],"right_children":[2,4,6,8,10,12,14,-1,-1,-1,-1,-1,-1,-1,-1],"split_conditions":[2.7314648E1,1E0,1E0,9.86E1,1.4921461E1,2.83E1,5.694717E1,-3.9775897E-2,-1.994757E-2,9.209227E-2,2.9022938E-2,-3.49581E-2,-4.94001E-2,-1.2472584E-2,-2.7382676E-2],"split_indices":[14,0,0,8,14,13,14,0,0,0,0,0,0,0,0],"split_type":[0,0,0,0,0,0,0,0,0,0,0,0,0,0,0],"sum_hessian":[5.596098E4,6.9788706E3,4.898211E4,3.4103796E3,3.5684912E3,8.630595E3,4.0351516E4,1.6157759E3,1.7946036E3,1.3157764E3,2.2527148E3,5.3974146E3,3.2331802E3,1.6615104E4,2.373641E4],"tree_param":{"num_deleted":"0","num_feature":"100","num_nodes":"15","size_leaf_vector":"1"}},{"base_weights":[-3.8561594E-1,3.4926933E-1,-4.6167332E-1,-5.3468883E-1,1.2865335E0,-7.831891E-1,-3.9041758E-1,-3.878004E-2,-1.7896002E-2,1.0818999E-1,5.1211502E-2,-3.3152025E-2,-4.717217E-2,-4.581788E-3,-2.4075886E-2],"categories":[],"categories_nodes":[],"categories_segments":[],"categories_sizes":[],"default_left":[0,0,0,0,0,0,0,0,0,0,0,0,0,0,0],"id":4,"left_children":[1,3,5,7,9,11,13,-1,-1,-1,-1,-1,-1,-1,-1],"loss_changes":[3.0847627E3,4.289437E3,1.1454531E3,1.13201355E2,5.7600195E2,1.7404932E2,1.1143213E3,0E0,0E0,0E0,0E0,0E0,0E0,0E0,0E0],"parents":[2147483647,0,0,1,1,2,2,3,3,4,4,5,5,6,6],"right_children":[2,4,6,8,10,12,14,-1,-1,-1,-1,-1,-1,-1,-1],"split_conditions":[2.1804815E1,1E0,1E0,9.97E1,9.8234415E0,2.52E1,4.4686127E1,-3.878004E-2,-1.7896002E-2,1.0818999E-1,5.1211502E-2,-3.3152025E-2,-4.717217E-2,-4.581788E-3,-2.4075886E-2],"split_indices":[14,0,0,8,14,13,14,0,0,0,0,0,0,0,0],"split_type":[0,0,0,0,0,0,0,0,0,0,0,0,0,0,0],"sum_hessian":[5.5186145E4,5.175509E3,5.0010633E4,2.6637173E3,2.5117915E3,9.071007E3,4.093963E4,1.1258916E3,1.5378256E3,5.764896E2,1.9353019E3,5.1871465E3,3.8838606E3,9.566455E3,3.1373172E4],"tree_param":{"num_deleted":"0","num_feature":"100","num_nodes":"15","size_leaf_vector":"1"}},{"base_weights":[-3.716652E-1,2.2362696E-1,-4.6003664E-1,-5.521344E-1,9.0016466E-1,-7.716959E-1,-3.9519328E-1,-3.8014967E-2,-1.8462045E-2,7.651983E-2,2.5554836E-2,-3.3111386E-2,-4.7888834E-2,-1.1356363E-2,-2.5743907E-2],"categories":[],"categories_nodes":[],"categories_segments":[],"categories_sizes":[],"default_left":[0,0,0,0,0,0,0,0,0,0,0,0,0,0,0],"id":5,"left_children":[1,3,5,7,9,11,13,-1,-1,-1,-1,-1,-1,-1,-1],"loss_changes":[2.8638242E3,3.693841E3,9.5760645E2,1.245506E2,9.210283E2,1.6563428E2,7.891675E2,0E0,0E0,0E0,0E0,0E0,0E0,0E0,0E0],"parents":[2147483647,0,0,1,1,2,2,3,3,4,4,5,5,6,6],"right_children":[2,4,6,8,10,12,14,-1,-1,-1,-1,-1,-1,-1,-1],"split_conditions":[2.7314648E1,1E0,1E0,9.86E1,1.4921461E1,2.83E1,5.694717E1,-3.8014967E-2,-1.8462045E-2,7.651983E-2,2.5554836E-2,-3.3111386E-2,-4.7888834E-2,-1.1356363E-2,-2.5743907E-2],"split_indices":[14,0,0,8,14,13,14,0,0,0,0,0,0,0,0],"split_type":[0,0,0,0,0,0,0,0,0,0,0,0,0,0,0],"sum_hessian":[5.443532E4,7.036196E3,4.739912E4,3.2778208E3,3.758375E3,8.161461E3,3.923766E4,1.5315227E3,1.7462982E3,1.4334563E3,2.3249187E3,5.141412E3,3.020049E3,1.6321414E4,2.2916248E4],"tree_param":{"num_deleted":"0","num_feature":"100","num_nodes":"15","size_leaf_vector":"1"}},{"base_weights":[-3.5811156E-1,2.1117702E-1,-4.443032E-1,-5.3509194E-1,8.347842E-1,-7.541613E-1,-3.80728E-1,-3.7130114E-2,-1.7768621E-2,6.324854E-2,1.7614817E-2,-3.1152844E-2,-4.561089E-2,-1.0715189E-2,-2.480213E-2],"categories":[],"categories_nodes":[],"categories_segments":[],"categories_sizes":[],"default_left":[0,0,0,0,0,0,0,0,0,0,0,0,0,0,0],"id":6,"left_children":[1,3,5,7,9,11,13,-1,-1,-1,-1,-1,-1,-1,-1],"loss_changes":[2.6355625E3,3.2875544E3,9.1865234E2,1.1967352E2,7.9830054E2,1.6397656E2,7.427573E2,0E0,0E0,0E0,0E0,0E0,0E0,0E0,0E0],"parents":[2147483647,0,0,1,1,2,2,3,3,4,4,5,5,6,6],"right_children":[2,4,6,8,10,12,14,-1,-1,-1,-1,-1,-1,-1,-1],"split_conditions":[2.7314648E1,1E0,1E0,9.86E1,1.824637E1,2.52E1,5.6464592E1,-3.7130114E-2,-1.7768621E-2,6.324854E-2,1.7614817E-2,-3.1152844E-2,-4.561089E-2,-1.0715189E-2,-2.480213E-2],"split_indices":[14,0,0,8,14,13,14,0,0,0,0,0,0,0,0],"split_type":[0,0,0,0,0,0,0,0,0,0,0,0,0,0,0],"sum_hessian":[5.3709613E4,7.062297E3,4.6647316E4,3.2150264E3,3.8472708E3,7.9396313E3,3.8707684E4,1.4906908E3,1.7243354E3,2.0330134E3,1.8142574E3,4.342536E3,3.5970955E3,1.5844071E4,2.2863613E4],"tree_param":{"num_deleted":"0","num_feature":"100","num_nodes":"15","size_leaf_vector":"1"}},{"base_weights":[-3.449444E-1,1.9959433E-1,-4.2893428E-1,-5.1836675E-1,7.760907E-1,-7.3682517E-1,-3.6664578E-1,-4.103501E-2,-1.979787E-2,3.361705E-2,1.3216852E-1,-3.1318408E-2,-4.6429295E-2,-1.0402088E-2,-2.409425E-2],"categories":[],"categories_nodes":[],"categories_segments":[],"categories_sizes":[],"default_left":[0,0,0,0,0,0,0,0,0,0,0,0,0,0,0],"id":7,"left_children":[1,3,5,7,9,11,13,-1,-1,-1,-1,-1,-1,-1,-1],"loss_changes":[2.424538E3,2.93264E3,8.805137E2,1.16461914E2,7.595217E2,1.6308398E2,6.9811035E2,0E0,0E0,0E0,0E0,0E0,0E0,0E0,0E0],"parents":[2147483647,0,0,1,1,2,2,3,3,4,4,5,5,6,6],"right_children":[2,4,6,8,10,12,14,-1,-1,-1,-1,-1,-1,-1,-1],"split_conditions":[2.7314648E1,1E0,1E0,8.87E1,1E0,2.83E1,5.694717E1,-4.103501E-2,-1.979787E-2,3.361705E-2,1.3216852E-1,-3.1318408E-2,-4.6429295E-2,-1.0402088E-2,-2.409425E-2],"split_indices":[14,0,0,8,6,13,14,0,0,0,0,0,0,0,0],"split_type":[0,0,0,0,0,0,0,0,0,0,0,0,0,0,0],"sum_hessian":[5.3009008E4,7.083378E3,4.592563E4,3.1546804E3,3.9286975E3,7.7258857E3,3.8199746E4,9.075235E2,2.247157E3,3.72319E3,2.0550758E2,4.9048735E3,2.821012E3,1.6076465E4,2.212328E4],"tree_param":{"num_deleted":"0","num_feature":"100","num_nodes":"15","size_leaf_vector":"1"}},{"base_weights":[-3.3211833E-1,2.8730384E-1,-4.014244E-1,-4.682214E-1,9.586999E-1,-7.133841E-1,-3.3619466E-1,-1.802405E-2,-4.3339755E-2,8.2080476E-2,3.7449416E-2,-2.9571807E-2,-4.4136133E-2,-5.9300155E-4,-2.031885E-2],"categories":[],"categories_nodes":[],"categories_segments":[],"categories_sizes":[],"default_left":[0,0,0,0,0,0,0,0,0,0,0,0,0,0,0],"id":8,"left_children":[1,3,5,7,9,11,13,-1,-1,-1,-1,-1,-1,-1,-1],"loss_changes":[2.2470732E3,2.6724468E3,9.5766895E2,1.06148926E2,3.982495E2,1.6756982E2,8.862544E2,0E0,0E0,0E0,0E0,0E0,0E0,0E0,0E0],"parents":[2147483647,0,0,1,1,2,2,3,3,4,4,5,5,6,6],"right_children":[2,4,6,8,10,12,14,-1,-1,-1,-1,-1,-1,-1,-1],"split_conditions":[2.1804815E1,1E0,1E0,4.0312405E1,9.8234415E0,2.52E1,4.062142E1,-1.802405E-2,-4.3339755E-2,8.2080476E-2,3.7449416E-2,-2.9571807E-2,-4.4136133E-2,-5.9300155E-4,-2.031885E-2],"split_indices":[14,0,0,2,14,13,14,0,0,0,0,0,0,0,0],"split_type":[0,0,0,0,0,0,0,0,0,0,0,0,0,0,0],"sum_hessian":[5.233937E4,5.2665464E3,4.7072824E4,2.4781616E3,2.7883848E3,8.1388833E3,3.893394E4,1.9523239E3,5.258377E2,6.5349646E2,2.1348882E3,4.734128E3,3.4047554E3,6.926336E3,3.2007605E4],"tree_param":{"num_deleted":"0","num_feature":"100","num_nodes":"15","size_leaf_vector":"1"}},{"base_weights":[-3.1969678E-1,1.4937888E-1,-4.050282E-1,-5.023675E-1,6.127004E-1,-7.0302904E-1,-3.47658E-1,-3.5300594E-2,-1.5545142E-2,2.604501E-2,1.1759303E-1,-2.8417012E-2,-4.3716546E-2,-1.0029181E-2,-2.2608725E-2],"categories":[],"categories_nodes":[],"categories_segments":[],"categories_sizes":[],"default_left":[0,0,0,0,0,0,0,0,0,0,0,0,0,0,0],"id":9,"left_children":[1,3,5,7,9,11,13,-1,-1,-1,-1,-1,-1,-1,-1],"loss_changes":[2.0690093E3,2.4028943E3,7.4743994E2,1.2870404E2,7.4131604E2,1.623772E2,5.636709E2,0E0,0E0,0E0,0E0,0E0,0E0,0E0,0E0],"parents":[2147483647,0,0,1,1,2,2,3,3,4,4,5,5,6,6],"right_children":[2,4,6,8,10,12,14,-1,-1,-1,-1,-1,-1,-1,-1],"split_conditions":[2.9428728E1,1E0,1E0,9.86E1,1E0,2.57E1,5.694717E1,-3.5300594E-2,-1.5545142E-2,2.604501E-2,1.1759303E-1,-2.8417012E-2,-4.3716546E-2,-1.0029181E-2,-2.2608725E-2],"split_indices":[14,0,0,8,6,13,14,0,0,0,0,0,0,0,0],"split_type":[0,0,0,0,0,0,0,0,0,0,0,0,0,0,0],"sum_hessian":[5.1687973E4,7.9554233E3,4.373255E4,3.3055205E3,4.649903E3,7.058254E3,3.6674297E4,1.6005098E3,1.7050107E3,4.418002E3,2.3190128E2,3.9538196E3,3.1044346E3,1.5236539E4,2.1437758E4],"tree_param":{"num_deleted":"0","num_feature":"100","num_nodes":"15","size_leaf_vector":"1"}},{"base_weights":[-3.075979E-1,2.646769E-1,-3.7365663E-1,-4.3697572E-1,8.468448E-1,-6.7957145E-1,-3.1155932E-1,-1.6542453E-2,-4.1981798E-2,5.7324734E-2,2.1930842E-2,-2.7876599E-2,-4.264939E-2,-3.0959111E-3,-1.96498E-2],"categories":[],"categories_nodes":[],"categories_segments":[],"categories_sizes":[],"default_left":[0,0,0,0,0,0,0,0,0,0,0,0,0,0,0],"id":10,"left_children":[1,3,5,7,9,11,13,-1,-1,-1,-1,-1,-1,-1,-1],"loss_changes":[1.930709E3,2.1594106E3,8.695371E2,1.0217343E2,3.5290503E2,1.6300781E2,7.7375366E2,0E0,0E0,0E0,0E0,0E0,0E0,0E0,0E0],"parents":[2147483647,0,0,1,1,2,2,3,3,4,4,5,5,6,6],"right_children":[2,4,6,8,10,12,14,-1,-1,-1,-1,-1,-1,-1,-1],"split_conditions":[2.1804815E1,1E0,1E0,4.0312405E1,7.3E0,2.52E1,4.4686127E1,-1.6542453E-2,-4.1981798E-2,5.7324734E-2,2.1930842E-2,-2.7876599E-2,-4.264939E-2,-3.0959111E-3,-1.96498E-2],"split_indices":[14,0,0,2,13,13,14,0,0,0,0,0,0,0,0],"split_type":[0,0,0,0,0,0,0,0,0,0,0,0,0,0,0],"sum_hessian":[5.1068285E4,5.284553E3,4.5783734E4,2.3964739E3,2.888079E3,7.723738E3,3.8059996E4,1.8980405E3,4.9843326E2,1.6644911E3,1.2235881E3,4.535883E3,3.1878547E3,9.362218E3,2.869778E4],"tree_param":{"num_deleted":"0","num_feature":"100","num_nodes":"15","size_leaf_vector":"1"}},{"base_weights":[-2.9589605E-1,2.3746201E-1,-3.6159766E-1,-4.3234736E-1,7.648157E-1,-6.6204524E-1,-3.0187556E-1,-4.34277E-2,-1.7008528E-2,6.945219E-2,2.923205E-2,-2.4775054E-2,-3.981569E-2,-5.3520626E-3,-1.9852111E-2],"categories":[],"categories_nodes":[],"categories_segments":[],"categories_sizes":[],"default_left":[0,0,0,0,0,0,0,0,0,0,0,0,0,0,0],"id":11,"left_children":[1,3,5,7,9,11,13,-1,-1,-1,-1,-1,-1,-1,-1],"loss_changes":[1.7685347E3,1.9555889E3,8.060215E2,9.777252E1,3.4755444E2,1.6618945E2,6.949558E2,0E0,0E0,0E0,0E0,0E0,0E0,0E0,0E0],"parents":[2147483647,0,0,1,1,2,2,3,3,4,4,5,5,6,6],"right_children":[2,4,6,8,10,12,14,-1,-1,-1,-1,-1,-1,-1,-1],"split_conditions":[2.2638462E1,1E0,1E0,8.39E1,9.8234415E0,2.02E1,4.996679E1,-4.34277E-2,-1.7008528E-2,6.945219E-2,2.923205E-2,-2.4775054E-2,-3.981569E-2,-5.3520626E-3,-1.9852111E-2],"split_indices":[14,0,0,8,14,13,14,0,0,0,0,0,0,0,0],"split_type":[0,0,0,0,0,0,0,0,0,0,0,0,0,0,0],"sum_hessian":[5.046487E4,5.5344243E3,4.4930445E4,2.4380085E3,3.0964155E3,7.4485405E3,3.7481906E4,4.238427E2,2.0141659E3,6.920499E2,2.4043657E3,3.326769E3,4.1217715E3,1.2300754E4,2.518115E4],"tree_param":{"num_deleted":"0","num_feature":"100","num_nodes":"15","size_leaf_vector":"1"}},{"base_weights":[-2.8454575E-1,1.3206086E-1,-3.6347288E-1,-4.5551023E-1,5.1487887E-1,-6.52894E-1,-3.100994E-1,-3.3078037E-2,-1.3368474E-2,2.1609843E-2,1.0096677E-1,-2.6744312E-2,-4.292168E-2,-1.1562977E-2,-2.4890156E-2],"categories":[],"categories_nodes":[],"categories_segments":[],"categories_sizes":[],"default_left":[0,0,0,0,0,0,0,0,0,0,0,0,0,0,0],"id":12,"left_children":[1,3,5,7,9,11,13,-1,-1,-1,-1,-1,-1,-1,-1],"loss_changes":[1.6403364E3,1.787602E3,6.476548E2,1.21368225E2,5.976885E2,1.5790674E2,5.2392114E2,0E0,0E0,0E0,0E0,0E0,0E0,0E0,0E0],"parents":[2147483647,0,0,1,1,2,2,3,3,4,4,5,5,6,6],"right_children":[2,4,6,8,10,12,14,-1,-1,-1,-1,-1,-1,-1,-1],"split_conditions":[2.9428728E1,1E0,1E0,9.86E1,1E0,2.83E1,7.494665E1,-3.3078037E-2,-1.3368474E-2,2.1609843E-2,1.0096677E-1,-2.6744312E-2,-4.292168E-2,-1.1562977E-2,-2.4890156E-2],"split_indices":[14,0,0,8,6,13,14,0,0,0,0,0,0,0,0],"split_type":[0,0,0,0,0,0,0,0,0,0,0,0,0,0,0],"sum_hessian":[4.988375E4,7.945228E3,4.1938523E4,3.1343137E3,4.810914E3,6.5281245E3,3.54104E4,1.4947533E3,1.6395604E3,4.56151E3,2.4940453E2,4.149403E3,2.3787217E3,2.4938074E4,1.0472326E4],"tree_param":{"num_deleted":"0","num_feature":"100","num_nodes":"15","size_leaf_vector":"1"}},{"base_weights":[-2.7349332E-1,-3.9310986E-1,-1.4175056E-2,-6.323344E-1,-3.4022945E-1,-4.631018E-1,1.0829739E-1,-3.3405464E-2,1.4740584E-3,-1.745364E-2,9.5051736E-2,-1.486242E-2,-3.6939606E-2,4.1990887E-2,-2.5893694E-3],"categories":[],"categories_nodes":[],"categories_segments":[],"categories_sizes":[],"default_left":[0,0,0,1,0,0,0,0,0,0,0,0,0,0,0],"id":13,"left_children":[1,3,5,7,9,11,13,-1,-1,-1,-1,-1,-1,-1,-1],"loss_changes":[1.5303167E3,4.268828E2,8.5635443E2,1.447019E2,5.4873535E2,1.5242566E2,1.4330735E3,0E0,0E0,0E0,0E0,0E0,0E0,0E0,0E0],"parents":[2147483647,0,0,1,1,2,2,3,3,4,4,5,5,6,6],"right_children":[2,4,6,8,10,12,14,-1,-1,-1,-1,-1,-1,-1,-1],"split_conditions":[7.83E1,1E0,1E0,1.023E2,1E0,1.43E1,1.824637E1,-3.3405464E-2,1.4740584E-3,-1.745364E-2,9.5051736E-2,-1.486242E-2,-3.6939606E-2,4.1990887E-2,-2.5893694E-3],"split_indices":[8,0,0,44,6,13,14,0,0,0,0,0,0,0,0],"split_type":[0,0,0,0,0,0,0,0,0,0,0,0,0,0,0],"sum_hessian":[4.9334387E4,3.3760887E4,1.5573504E4,6.1098257E3,2.7651059E4,3.3373943E3,1.2236109E4,5.796483E3,3.1334232E2,2.7543227E4,1.0783304E2,2.085094E3,1.2523003E3,2.196191E3,1.0039918E4],"tree_param":{"num_deleted":"0","num_feature":"100","num_nodes":"15","size_leaf_vector":"1"}},{"base_weights":[-2.627979E-1,8.8021204E-2,-3.4568793E-1,-4.557136E-1,3.9923716E-1,-6.148226E-1,-2.988784E-1,-3.2497633E-2,-1.2628557E-2,5.1097162E-2,1.1914325E-2,-2.3064306E-2,-4.060601E-2,-1.1231858E-2,-2.352619E-2],"categories":[],"categories_nodes":[],"categories_segments":[],"categories_sizes":[],"default_left":[0,0,0,0,0,0,0,0,0,0,0,0,0,0,0],"id":14,"left_children":[1,3,5,7,9,11,13,-1,-1,-1,-1,-1,-1,-1,-1],"loss_changes":[1.4192095E3,1.5786705E3,4.9714404E2,1.3383746E2,5.9439545E2,1.7676855E2,4.284431E2,0E0,0E0,0E0,0E0,0E0,0E0,0E0,0E0],"parents":[2147483647,0,0,1,1,2,2,3,3,4,4,5,5,6,6],"right_children":[2,4,6,8,10,12,14,-1,-1,-1,-1,-1,-1,-1,-1],"split_conditions":[3.2560097E1,1E0,1E0,9.86E1,1.2401613E1,2.57E1,7.494665E1,-3.2497633E-2,-1.2628557E-2,5.1097162E-2,1.1914325E-2,-2.3064306E-2,-4.060601E-2,-1.1231858E-2,-2.352619E-2],"split_indices":[14,0,0,8,14,13,14,0,0,0,0,0,0,0,0],"split_type":[0,0,0,0,0,0,0,0,0,0,0,0,0,0,0],"sum_hessian":[4.8802574E4,9.327084E3,3.947549E4,3.395041E3,5.9320425E3,5.8467935E3,3.3628695E4,1.7344294E3,1.6606116E3,1.2172488E3,4.714794E3,3.2899216E3,2.556872E3,2.3476701E4,1.0151995E4],"tree_param":{"num_deleted":"0","num_feature":"100","num_nodes":"15","size_leaf_vector":"1"}},{"base_weights":[-2.5245363E-1,-3.6620563E-1,-1.0971525E-2,-6.0001945E-1,-3.1578636E-1,-4.3290782E-1,1.0015918E-1,-3.1831656E-2,2.925357E-3,-1.62183E-2,8.55968E-2,-1.3500452E-2,-3.55218E-2,3.5019144E-2,-2.8857081E-3],"categories":[],"categories_nodes":[],"categories_segments":[],"categories_sizes":[],"default_left":[0,0,0,1,0,0,0,0,0,0,0,0,0,0,0],"id":15,"left_children":[1,3,5,7,9,11,13,-1,-1,-1,-1,-1,-1,-1,-1],"loss_changes":[1.3264961E3,3.868003E2,7.2517633E2,1.4041162E2,4.7038428E2,1.4556842E2,1.1600258E3,0E0,0E0,0E0,0E0,0E0,0E0,0E0,0E0],"parents":[2147483647,0,0,1,1,2,2,3,3,4,4,5,5,6,6],"right_children":[2,4,6,8,10,12,14,-1,-1,-1,-1,-1,-1,-1,-1],"split_conditions":[7.83E1,1E0,1E0,1.023E2,1E0,1.43E1,2.004894E1,-3.1831656E-2,2.925357E-3,-1.62183E-2,8.55968E-2,-1.3500452E-2,-3.55218E-2,3.5019144E-2,-2.8857081E-3],"split_indices":[8,0,0,44,6,13,14,0,0,0,0,0,0,0,0],"split_type":[0,0,0,0,0,0,0,0,0,0,0,0,0,0,0],"sum_hessian":[4.8289668E4,3.282614E4,1.5463526E4,5.820998E3,2.7005145E4,3.2231423E3,1.2240384E4,5.5144326E3,3.0656534E2,2.68922E4,1.1294542E2,2.0322562E3,1.1908862E3,2.5483384E3,9.692046E3],"tree_param":{"num_deleted":"0","num_feature":"100","num_nodes":"15","size_leaf_vector":"1"}},{"base_weights":[-2.4242179E-1,-3.5287064E-1,-1.0535042E-2,-5.839999E-1,-3.0361968E-1,3.4509003E-1,-1.3409041E-1,-2.3992468E-2,-4.1004278E-2,-1.5596283E-2,7.8512505E-2,-9.059957E-3,3.033686E-2,-2.9373217E-2,-2.33207E-3],"categories":[],"categories_nodes":[],"categories_segments":[],"categories_sizes":[],"default_left":[0,0,0,0,0,0,0,0,0,0,0,0,0,0,0],"id":16,"left_children":[1,3,5,7,9,11,13,-1,-1,-1,-1,-1,-1,-1,-1],"loss_changes":[1.2242336E3,3.6839404E2,6.7772003E2,1.3942603E2,4.159441E2,5.4775635E2,4.538084E2,0E0,0E0,0E0,0E0,0E0,0E0,0E0,0E0],"parents":[2147483647,0,0,1,1,2,2,3,3,4,4,5,5,6,6],"right_children":[2,4,6,8,10,12,14,-1,-1,-1,-1,-1,-1,-1,-1],"split_conditions":[7.83E1,1E0,7.4E0,2.83E1,1E0,1E0,1E0,-2.3992468E-2,-4.1004278E-2,-1.5596283E-2,7.8512505E-2,-9.059957E-3,3.033686E-2,-2.9373217E-2,-2.33207E-3],"split_indices":[8,0,13,13,6,0,0,0,0,0,0,0,0,0,0],"split_type":[0,0,0,0,0,0,0,0,0,0,0,0,0,0,0],"sum_hessian":[4.7799066E4,3.2377143E4,1.5421924E4,5.6853916E3,2.6691752E4,3.9760386E3,1.1445885E4,3.9471267E3,1.7382648E3,2.6574791E4,1.16959816E2,1.3204108E3,2.6556277E3,1.8498314E3,9.596054E3],"tree_param":{"num_deleted":"0","num_feature":"100","num_nodes":"15","size_leaf_vector":"1"}},{"base_weights":[-2.3266512E-1,8.400919E-2,-3.0958882E-1,-4.1256353E-1,3.5062107E-1,-2.3548369E-1,-4.602632E-1,-3.0475983E-2,-1.05889775E-2,1.4383415E-2,8.1540965E-2,-7.714628E-3,-2.1114852E-2,-2.1902665E-2,-5.4395963E-2],"categories":[],"categories_nodes":[],"categories_segments":[],"categories_sizes":[],"default_left":[0,0,0,0,0,0,0,0,0,0,0,0,0,0,0],"id":17,"left_children":[1,3,5,7,9,11,13,-1,-1,-1,-1,-1,-1,-1,-1],"loss_changes":[1.1531946E3,1.2251173E3,4.25167E2,1.2771307E2,4.8476172E2,3.8720715E2,1.7455054E2,0E0,0E0,0E0,0E0,0E0,0E0,0E0,0E0],"parents":[2147483647,0,0,1,1,2,2,3,3,4,4,5,5,6,6],"right_children":[2,4,6,8,10,12,14,-1,-1,-1,-1,-1,-1,-1,-1],"split_conditions":[3.2560097E1,1E0,1E0,9.86E1,1E0,7.494665E1,3.89E1,-3.0475983E-2,-1.05889775E-2,1.4383415E-2,8.1540965E-2,-7.714628E-3,-2.1114852E-2,-2.1902665E-2,-5.4395963E-2],"split_indices":[14,0,7,8,6,14,13,0,0,0,0,0,0,0,0],"split_type":[0,0,0,0,0,0,0,0,0,0,0,0,0,0,0],"sum_hessian":[4.7338082E4,9.2516045E3,3.8086477E4,3.231776E3,6.0198286E3,2.5531875E4,1.2554602E4,1.6304117E3,1.6013641E3,5.7388496E3,2.809789E2,1.7798344E4,7.733531E3,1.2127174E4,4.2742764E2],"tree_param":{"num_deleted":"0","num_feature":"100","num_nodes":"15","size_leaf_vector":"1"}},{"base_weights":[-2.2323518E-1,3.491295E-2,-3.1157866E-1,-4.1731048E-1,2.4179246E-1,-1.8016051E-1,-3.892506E-1,-9.868637E-3,-2.9220296E-2,3.7804525E-2,5.129577E-3,-8.349277E-3,-5.3133722E-2,-1.6747773E-2,-2.9502658E-2],"categories":[],"categories_nodes":[],"categories_segments":[],"categories_sizes":[],"default_left":[0,0,0,0,0,0,0,0,0,0,0,0,0,0,0],"id":18,"left_children":[1,3,5,7,9,11,13,-1,-1,-1,-1,-1,-1,-1,-1],"loss_changes":[1.0695312E3,1.1188447E3,3.5658032E2,1.3783759E2,5.873446E2,1.5075662E2,2.3922144E2,0E0,0E0,0E0,0E0,0E0,0E0,0E0,0E0],"parents":[2147483647,0,0,1,1,2,2,3,3,4,4,5,5,6,6],"right_children":[2,4,6,8,10,12,14,-1,-1,-1,-1,-1,-1,-1,-1],"split_conditions":[3.7421383E1,1E0,2E0,7.8E0,1.4921461E1,3.92E1,2E0,-9.868637E-3,-2.9220296E-2,3.7804525E-2,5.129577E-3,-8.349277E-3,-5.3133722E-2,-1.6747773E-2,-2.9502658E-2],"split_indices":[14,0,95,13,14,13,7,0,0,0,0,0,0,0,0],"split_type":[0,0,0,0,0,0,0,0,0,0,0,0,0,0,0],"sum_hessian":[4.6896066E4,1.1957043E4,3.4939023E4,3.7527622E3,8.20428E3,1.298024E4,2.1958783E4,1.6211373E3,2.131625E3,1.7466387E3,6.457642E3,1.2790481E4,1.8975868E2,1.7287162E4,4.6716196E3],"tree_param":{"num_deleted":"0","num_feature":"100","num_nodes":"15","size_leaf_vector":"1"}},{"base_weights":[-2.1414755E-1,-3.165264E-1,-5.025616E-3,-5.4336417E-1,-2.694443E-1,3.1378603E-1,-1.1798684E-1,-5.762105E-3,-3.0312672E-2,-1.3860424E-2,6.699952E-2,-7.5017833E-3,2.6691139E-2,-2.7298102E-2,-1.9780959E-3],"categories":[],"categories_nodes":[],"categories_segments":[],"categories_sizes":[],"default_left":[0,0,0,0,0,0,0,0,0,0,0,0,0,0,0],"id":19,"left_children":[1,3,5,7,9,11,13,-1,-1,-1,-1,-1,-1,-1,-1],"loss_changes":[9.9483594E2,3.330144E2,5.500665E2,1.4426782E2,3.2320325E2,4.0790375E2,3.785098E2,0E0,0E0,0E0,0E0,0E0,0E0,0E0,0E0],"parents":[2147483647,0,0,1,1,2,2,3,3,4,4,5,5,6,6],"right_children":[2,4,6,8,10,12,14,-1,-1,-1,-1,-1,-1,-1,-1],"split_conditions":[7.83E1,1E0,7.4E0,4.109623E1,1E0,1E0,1E0,-5.762105E-3,-3.0312672E-2,-1.3860424E-2,6.699952E-2,-7.5017833E-3,2.6691139E-2,-2.7298102E-2,-1.9780959E-3],"split_indices":[8,0,13,48,6,0,0,0,0,0,0,0,0,0,0],"split_type":[0,0,0,0,0,0,0,0,0,0,0,0,0,0,0],"sum_hessian":[4.6465758E4,3.1193826E4,1.5271931E4,5.359869E3,2.5833957E4,3.995006E3,1.1276925E4,6.8686066E2,4.6730083E3,2.5710752E4,1.232051E2,1.2855265E3,2.7094797E3,1.745506E3,9.531419E3],"tree_param":{"num_deleted":"0","num_feature":"100","num_nodes":"15","size_leaf_vector":"1"}},{"base_weights":[-2.0532998E-1,3.557723E-2,-2.8909594E-1,-3.8895136E-1,2.2254191E-1,-1.6158432E-1,-3.6518326E-1,-8.946164E-3,-2.7653946E-2,2.828565E-2,2.3428923E-3,-7.4433773E-3,-5.261041E-2,-1.562897E-2,-2.814264E-2],"categories":[],"categories_nodes":[],"categories_segments":[],"categories_sizes":[],"default_left":[0,0,0,0,0,0,0,0,0,0,0,0,0,0,0],"id":20,"left_children":[1,3,5,7,9,11,13,-1,-1,-1,-1,-1,-1,-1,-1],"loss_changes":[9.2951953E2,9.4340137E2,3.315327E2,1.25174805E2,4.9746072E2,1.4452393E2,2.2238892E2,0E0,0E0,0E0,0E0,0E0,0E0,0E0,0E0],"parents":[2147483647,0,0,1,1,2,2,3,3,4,4,5,5,6,6],"right_children":[2,4,6,8,10,12,14,-1,-1,-1,-1,-1,-1,-1,-1],"split_conditions":[3.7421383E1,1E0,2E0,7.8E0,2.004894E1,3.92E1,2E0,-8.946164E-3,-2.7653946E-2,2.828565E-2,2.3428923E-3,-7.4433773E-3,-5.261041E-2,-1.562897E-2,-2.814264E-2],"split_indices":[14,0,95,13,14,13,7,0,0,0,0,0,0,0,0],"split_type":[0,0,0,0,0,0,0,0,0,0,0,0,0,0,0],"sum_hessian":[4.6060332E4,1.1883752E4,3.4176582E4,3.633139E3,8.250613E3,1.277336E4,2.1403219E4,1.5946337E3,2.0385052E3,2.7929014E3,5.457712E3,1.2594694E4,1.786661E2,1.690661E4,4.49661E3],"tree_param":{"num_deleted":"0","num_feature":"100","num_nodes":"15","size_leaf_vector":"1"}},{"base_weights":[-1.9685344E-1,-3.0687943E-1,-2.5859866E-2,-5.157543E-1,-2.631109E-1,1.8464823E-1,-1.532562E-1,-2.8862465E-2,5.48904E-4,-2.0117247E-2,-9.240028E-3,-9.5592495E-3,1.6654788E-2,-3.0786237E-2,-4.3838196E-3],"categories":[],"categories_nodes":[],"categories_segments":[],"categories_sizes":[],"default_left":[0,0,0,1,0,0,0,0,0,0,0,0,0,0,0],"id":21,"left_children":[1,3,5,7,9,11,13,-1,-1,-1,-1,-1,-1,-1,-1],"loss_changes":[8.591273E2,2.5388892E2,4.795379E2,1.5589636E2,2.5042676E2,3.7618848E2,3.3779306E2,0E0,0E0,0E0,0E0,0E0,0E0,0E0,0E0],"parents":[2147483647,0,0,1,1,2,2,3,3,4,4,5,5,6,6],"right_children":[2,4,6,8,10,12,14,-1,-1,-1,-1,-1,-1,-1,-1],"split_conditions":[7.32E1,1E0,1.3E1,9.18E1,4.64E1,1E0,1E0,-2.8862465E-2,5.48904E-4,-2.0117247E-2,-9.240028E-3,-9.5592495E-3,1.6654788E-2,-3.0786237E-2,-4.3838196E-3],"split_indices":[8,0,13,44,10,0,0,0,0,0,0,0,0,0,0],"split_type":[0,0,0,0,0,0,0,0,0,0,0,0,0,0,0],"sum_hessian":[4.56643E4,2.778513E4,1.7879168E4,4.8116943E3,2.2973438E4,6.7406133E3,1.1138555E4,4.30858E3,5.0311426E2,8.268352E3,1.4705085E4,1.9084902E3,4.832123E3,1.3822864E3,9.756268E3],"tree_param":{"num_deleted":"0","num_feature":"100","num_nodes":"15","size_leaf_vector":"1"}},{"base_weights":[-1.886183E-1,6.389044E-2,-2.592853E-1,-3.512356E-1,2.586459E-1,-1.9161601E-1,-4.019139E-1,-1.42936725E-2,-4.6007883E-2,1.0321426E-2,7.0000395E-2,-5.892893E-3,-1.8449642E-2,-1.8960256E-2,-5.345881E-2],"categories":[],"categories_nodes":[],"categories_segments":[],"categories_sizes":[],"default_left":[0,0,0,0,0,0,0,0,0,0,0,0,0,0,0],"id":22,"left_children":[1,3,5,7,9,11,13,-1,-1,-1,-1,-1,-1,-1,-1],"loss_changes":[8.083262E2,8.0097076E2,3.415271E2,1.17383545E2,4.0160156E2,3.1403497E2,1.7215356E2,0E0,0E0,0E0,0E0,0E0,0E0,0E0,0E0],"parents":[2147483647,0,0,1,1,2,2,3,3,4,4,5,5,6,6],"right_children":[2,4,6,8,10,12,14,-1,-1,-1,-1,-1,-1,-1,-1],"split_conditions":[3.4087242E1,1E0,1E0,1.17E2,1E0,7.561217E1,3.89E1,-1.42936725E-2,-4.6007883E-2,1.0321426E-2,7.0000395E-2,-5.892893E-3,-1.8449642E-2,-1.8960256E-2,-5.345881E-2],"split_indices":[14,0,7,10,6,14,13,0,0,0,0,0,0,0,0],"split_type":[0,0,0,0,0,0,0,0,0,0,0,0,0,0,0],"sum_hessian":[4.52976E4,9.904988E3,3.5392613E4,3.1627358E3,6.7422524E3,2.400563E4,1.1386983E4,2.8381677E3,3.2456805E2,6.448418E3,2.938346E2,1.6956371E4,7.04926E3,1.1013724E4,3.7325943E2],"tree_param":{"num_deleted":"0","num_feature":"100","num_nodes":"15","size_leaf_vector":"1"}},{"base_weights":[-1.8069148E-1,2.0094422E-1,-2.2527908E-1,-2.562094E-1,5.0196564E-1,-4.8441505E-1,-1.8010983E-1,-7.324476E-3,-3.611083E-2,3.9396297E-2,9.90932E-3,-1.5139333E-2,-3.2404955E-2,-5.6309807E-3,-1.7879112E-2],"categories":[],"categories_nodes":[],"categories_segments":[],"categories_sizes":[],"default_left":[0,0,0,0,0,0,0,0,0,0,0,0,0,0,0],"id":23,"left_children":[1,3,5,7,9,11,13,-1,-1,-1,-1,-1,-1,-1,-1],"loss_changes":[7.648159E2,6.4720166E2,4.709502E2,9.5383255E1,2.4616522E2,1.773722E2,4.1044275E2,0E0,0E0,0E0,0E0,0E0,0E0,0E0,0E0],"parents":[2147483647,0,0,1,1,2,2,3,3,4,4,5,5,6,6],"right_children":[2,4,6,8,10,12,14,-1,-1,-1,-1,-1,-1,-1,-1],"split_conditions":[2.004894E1,1E0,1E0,4.0312405E1,2.12E1,2.02E1,7.399601E1,-7.324476E-3,-3.611083E-2,3.9396297E-2,9.90932E-3,-1.5139333E-2,-3.2404955E-2,-5.6309807E-3,-1.7879112E-2],"split_indices":[14,0,0,2,12,13,14,0,0,0,0,0,0,0,0],"split_type":[0,0,0,0,0,0,0,0,0,0,0,0,0,0,0],"sum_hessian":[4.4942625E4,4.701121E3,4.0241504E4,1.8665648E3,2.8345562E3,5.971766E3,3.426974E4,1.5119059E3,3.5465897E2,1.4592799E3,1.3752762E3,2.8320708E3,3.139695E3,2.482919E4,9.44055E3],"tree_param":{"num_deleted":"0","num_feature":"100","num_nodes":"15","size_leaf_vector":"1"}},{"base_weights":[-1.7307511E-1,3.6865365E-2,-2.4817142E-1,-3.374144E-1,1.9122425E-1,-1.2624113E-1,-3.220297E-1,-5.1653814E-3,-2.3989124E-2,3.512456E-2,4.880037E-3,-5.7140626E-3,-5.1747944E-2,-1.3587967E-2,-2.5785252E-2],"categories":[],"categories_nodes":[],"categories_segments":[],"categories_sizes":[],"default_left":[0,0,0,0,0,0,0,0,0,0,0,0,0,0,0],"id":24,"left_children":[1,3,5,7,9,11,13,-1,-1,-1,-1,-1,-1,-1,-1],"loss_changes":[7.0310815E2,6.789235E2,2.9576685E2,1.14316345E2,3.981806E2,1.3456813E2,1.9901709E2,0E0,0E0,0E0,0E0,0E0,0E0,0E0,0E0],"parents":[2147483647,0,0,1,1,2,2,3,3,4,4,5,5,6,6],"right_children":[2,4,6,8,10,12,14,-1,-1,-1,-1,-1,-1,-1,-1],"split_conditions":[3.7421383E1,1E0,2E0,6.4E0,1.2401613E1,3.92E1,2E0,-5.1653814E-3,-2.3989124E-2,3.512456E-2,4.880037E-3,-5.7140626E-3,-5.1747944E-2,-1.3587967E-2,-2.5785252E-2],"split_indices":[14,0,95,13,14,13,7,0,0,0,0,0,0,0,0],"split_type":[0,0,0,0,0,0,0,0,0,0,0,0,0,0,0],"sum_hessian":[4.459559E4,1.174937E4,3.284622E4,3.4303896E3,8.31898E3,1.2391763E4,2.0454457E4,1.2978918E3,2.1324978E3,1.2865856E3,7.032395E3,1.2231901E4,1.598615E2,1.6241273E4,4.213183E3],"tree_param":{"num_deleted":"0","num_feature":"100","num_nodes":"15","size_leaf_vector":"1"}},{"base_weights":[-1.6572858E-1,-2.5286105E-1,4.336427E-3,-4.6431944E-1,-2.1132582E-1,2.6483643E-1,-9.073356E-2,-1.7549321E-2,-3.6704835E-2,-1.0924374E-2,5.7217598E-2,-4.7244537E-3,2.116687E-2,6.916119E-4,-1.5929965E-2],"categories":[],"categories_nodes":[],"categories_segments":[],"categories_sizes":[],"default_left":[0,0,0,0,0,0,0,0,0,0,0,0,0,0,0],"id":25,"left_children":[1,3,5,7,9,11,13,-1,-1,-1,-1,-1,-1,-1,-1],"loss_changes":[6.5592554E2,2.5697034E2,3.714324E2,1.4663513E2,2.377832E2,2.2842438E2,2.618115E2,0E0,0E0,0E0,0E0,0E0,0E0,0E0,0E0],"parents":[2147483647,0,0,1,1,2,2,3,3,4,4,5,5,6,6],"right_children":[2,4,6,8,10,12,14,-1,-1,-1,-1,-1,-1,-1,-1],"split_conditions":[7.83E1,1E0,7.4E0,2.83E1,1E0,1E0,1E0,-1.7549321E-2,-3.6704835E-2,-1.0924374E-2,5.7217598E-2,-4.7244537E-3,2.116687E-2,6.916119E-4,-1.5929965E-2],"split_indices":[8,0,13,13,6,0,7,0,0,0,0,0,0,0,0],"split_type":[0,0,0,0,0,0,0,0,0,0,0,0,0,0,0],"sum_hessian":[4.4263824E4,2.9267955E4,1.4995867E4,4.803397E3,2.4464559E4,4.0090195E3,1.0986848E4,3.3840596E3,1.4193374E3,2.4336834E4,1.27725395E2,1.2272402E3,2.7817793E3,7.5315967E3,3.4552507E3],"tree_param":{"num_deleted":"0","num_feature":"100","num_nodes":"15","size_leaf_vector":"1"}},{"base_weights":[-1.586115E-1,1.629385E-1,-2.0167512E-1,-2.3420078E-1,4.0168694E-1,-4.4891238E-1,-1.604574E-1,-7.426981E-3,-4.222038E-2,3.1278517E-2,5.5245925E-3,-1.6619425E-2,-3.562042E-2,-1.6231341E-2,-4.78479E-3],"categories":[],"categories_nodes":[],"categories_segments":[],"categories_sizes":[],"default_left":[0,0,0,0,0,0,0,0,0,0,0,0,0,0,0],"id":26,"left_children":[1,3,5,7,9,11,13,-1,-1,-1,-1,-1,-1,-1,-1],"loss_changes":[6.08708E2,4.9239862E2,3.949718E2,1.0180695E2,2.1136163E2,1.6982166E2,3.532444E2,0E0,0E0,0E0,0E0,0E0,0E0,0E0,0E0],"parents":[2147483647,0,0,1,1,2,2,3,3,4,4,5,5,6,6],"right_children":[2,4,6,8,10,12,14,-1,-1,-1,-1,-1,-1,-1,-1],"split_conditions":[2.1804815E1,1E0,1E0,1.17E2,2.32E1,2.83E1,4.67E1,-7.426981E-3,-4.222038E-2,3.1278517E-2,5.5245925E-3,-1.6619425E-2,-3.562042E-2,-1.6231341E-2,-4.78479E-3],"split_indices":[14,0,0,10,12,13,8,0,0,0,0,0,0,0,0],"split_type":[0,0,0,0,0,0,0,0,0,0,0,0,0,0,0],"sum_hessian":[4.395586E4,5.1911885E3,3.876467E4,1.9490746E3,3.2421138E3,5.537722E3,3.322695E4,1.7102344E3,2.388402E2,1.8322511E3,1.4098627E3,3.8412825E3,1.6964401E3,9.398336E3,2.3828615E4],"tree_param":{"num_deleted":"0","num_feature":"100","num_nodes":"15","size_leaf_vector":"1"}},{"base_weights":[-1.5179724E-1,-2.516579E-1,-2.0967998E-2,-3.1294435E-1,-1.3504757E-1,-3.2369497E-1,4.0899E-2,-1.2901695E-2,-2.3431508E-2,-4.965813E-3,-2.3713548E-2,-7.235267E-3,-3.0589117E-2,2.679338E-2,-1.1654902E-3],"categories":[],"categories_nodes":[],"categories_segments":[],"categories_sizes":[],"default_left":[0,1,0,0,0,0,0,0,0,0,0,0,0,0,0],"id":27,"left_children":[1,3,5,7,9,11,13,-1,-1,-1,-1,-1,-1,-1,-1],"loss_changes":[5.703162E2,1.7688574E2,3.5394662E2,1.386018E2,1.0335173E2,1.6527054E2,4.9872443E2,0E0,0E0,0E0,0E0,0E0,0E0,0E0,0E0],"parents":[2147483647,0,0,1,1,2,2,3,3,4,4,5,5,6,6],"right_children":[2,4,6,8,10,12,14,-1,-1,-1,-1,-1,-1,-1,-1],"split_conditions":[7.05E1,9.289241E0,1E0,2E0,3.58E1,1.43E1,1.4921461E1,-1.2901695E-2,-2.3431508E-2,-4.965813E-3,-2.3713548E-2,-7.235267E-3,-3.0589117E-2,2.679338E-2,-1.1654902E-3],"split_indices":[8,81,0,7,13,13,14,0,0,0,0,0,0,0,0],"split_type":[0,0,0,0,0,0,0,0,0,0,0,0,0,0,0],"sum_hessian":[4.3652637E4,2.4755832E4,1.8896805E4,1.6226205E4,8.529626E3,3.2058313E3,1.5690974E4,1.1997381E4,4.2288237E3,7.717965E3,8.116613E2,1.978244E3,1.2275873E3,1.800908E3,1.3890065E4],"tree_param":{"num_deleted":"0","num_feature":"100","num_nodes":"15","size_leaf_vector":"1"}},{"base_weights":[-1.452243E-1,3.8165413E-2,-2.1235567E-1,-2.956171E-1,1.6935988E-1,-2.982861E-1,-1.1720377E-1,-1.18390275E-2,-4.4212017E-2,6.4080856E-3,6.198115E-2,-1.2335246E-2,-2.4942538E-2,-5.2656806E-3,-5.179889E-2],"categories":[],"categories_nodes":[],"categories_segments":[],"categories_sizes":[],"default_left":[0,0,1,0,0,0,0,0,0,0,0,0,0,0,0],"id":28,"left_children":[1,3,5,7,9,11,13,-1,-1,-1,-1,-1,-1,-1,-1],"loss_changes":[5.338967E2,5.089614E2,2.5953076E2,1.1336493E2,3.6771304E2,1.7244214E2,1.6447873E2,0E0,0E0,0E0,0E0,0E0,0E0,0E0,0E0],"parents":[2147483647,0,0,1,1,2,2,3,3,4,4,5,5,6,6],"right_children":[2,4,6,8,10,12,14,-1,-1,-1,-1,-1,-1,-1,-1],"split_conditions":[3.7421383E1,1E0,8.602325E0,1.17E2,1E0,2E0,3.92E1,-1.18390275E-2,-4.4212017E-2,6.4080856E-3,6.198115E-2,-1.2335246E-2,-2.4942538E-2,-5.2656806E-3,-5.179889E-2],"split_indices":[14,0,61,10,6,7,13,0,0,0,0,0,0,0,0],"split_type":[0,0,0,0,0,0,0,0,0,0,0,0,0,0,0],"sum_hessian":[4.3365074E4,1.1620521E4,3.1744553E4,3.2784067E3,8.342115E3,1.6679436E4,1.5065117E4,2.9817632E3,2.9664355E2,8.033979E3,3.0813617E2,1.3269115E4,3.4103203E3,1.4873746E4,1.9137141E2],"tree_param":{"num_deleted":"0","num_feature":"100","num_nodes":"15","size_leaf_vector":"1"}},{"base_weights":[-1.3888939E-1,1.6866374E-1,-1.7615765E-1,-1.9787009E-1,3.924127E-1,-1.095291E-1,-3.152259E-1,-4.492787E-3,-3.3775453E-2,3.224339E-2,6.0383985E-3,6.352993E-4,-1.1093645E-2,-1.4827889E-2,-5.2353293E-2],"categories":[],"categories_nodes":[],"categories_segments":[],"categories_sizes":[],"default_left":[0,0,0,0,0,0,0,0,0,0,0,0,0,0,0],"id":29,"left_children":[1,3,5,7,9,11,13,-1,-1,-1,-1,-1,-1,-1,-1],"loss_changes":[4.9399487E2,3.8211395E2,3.56135E2,9.107218E1,1.9831189E2,3.5689697E2,1.6978735E2,0E0,0E0,0E0,0E0,0E0,0E0,0E0,0E0],"parents":[2147483647,0,0,1,1,2,2,3,3,4,4,5,5,6,6],"right_children":[2,4,6,8,10,12,14,-1,-1,-1,-1,-1,-1,-1,-1],"split_conditions":[2.004894E1,1E0,1E0,4.0312405E1,2.12E1,5.71505E1,3.89E1,-4.492787E-3,-3.3775453E-2,3.224339E-2,6.0383985E-3,6.352993E-4,-1.1093645E-2,-1.4827889E-2,-5.2353293E-2],"split_indices":[14,0,7,2,12,14,13,0,0,0,0,0,0,0,0],"split_type":[0,0,0,0,0,0,0,0,0,0,0,0,0,0,0],"sum_hessian":[4.3094992E4,4.6573223E3,3.8437668E4,1.7654197E3,2.8919023E3,2.5988291E4,1.2449379E4,1.4407853E3,3.2463434E2,1.4981818E3,1.3937206E3,1.2446656E4,1.3541634E4,1.2141084E4,3.082952E2],"tree_param":{"num_deleted":"0","num_feature":"100","num_nodes":"15","size_leaf_vector":"1"}},{"base_weights":[-1.3281794E-1,-2.2359169E-1,-1.6168214E-2,-2.1475312E-1,-9.829219E-1,-2.942145E-1,3.9047435E-2,-1.3718068E-2,-5.134111E-3,7.189881E-2,-5.2010614E-2,-5.916981E-3,-2.9201403E-2,3.756685E-2,1.2777615E-4],"categories":[],"categories_nodes":[],"categories_segments":[],"categories_sizes":[],"default_left":[0,0,0,1,0,0,0,0,0,0,0,0,0,0,0],"id":30,"left_children":[1,3,5,7,9,11,13,-1,-1,-1,-1,-1,-1,-1,-1],"loss_changes":[4.5352466E2,1.6144702E2,2.877957E2,1.5903918E2,3.989566E1,1.5823895E2,4.0653204E2,0E0,0E0,0E0,0E0,0E0,0E0,0E0,0E0],"parents":[2147483647,0,0,1,1,2,2,3,3,4,4,5,5,6,6],"right_children":[2,4,6,8,10,12,14,-1,-1,-1,-1,-1,-1,-1,-1],"split_conditions":[7.05E1,3.92E1,1E0,9.289241E0,4.580393E0,1.43E1,9.8234415E0,-1.3718068E-2,-5.134111E-3,7.189881E-2,-5.2010614E-2,-5.916981E-3,-2.9201403E-2,3.756685E-2,1.2777615E-4],"split_indices":[8,13,0,81,2,13,14,0,0,0,0,0,0,0,0],"split_type":[0,0,0,0,0,0,0,0,0,0,0,0,0,0,0],"sum_hessian":[4.283021E4,2.4086113E4,1.8744098E4,2.3810246E4,2.7586743E2,3.1048508E3,1.5639247E4,1.5542214E4,8.268033E3,5.820321E0,2.7004712E2,1.9331295E3,1.1717213E3,7.61225E2,1.4878021E4],"tree_param":{"num_deleted":"0","num_feature":"100","num_nodes":"15","size_leaf_vector":"1"}},{"base_weights":[-1.2695365E-1,3.7554704E-2,-1.8817475E-1,-2.6727387E-1,1.534894E-1,-7.948339E-2,-2.5588036E-1,-1.0472501E-2,-4.3211922E-2,5.742324E-3,5.7554968E-2,-3.4616364E-3,-5.0233375E-2,-1.0579229E-2,-2.1749323E-2],"categories":[],"categories_nodes":[],"categories_segments":[],"categories_sizes":[],"default_left":[0,0,0,0,0,0,0,0,0,0,0,0,0,0,0],"id":31,"left_children":[1,3,5,7,9,11,13,-1,-1,-1,-1,-1,-1,-1,-1],"loss_changes":[4.2889807E2,4.0823935E2,2.2837097E2,1.0969002E2,3.22482E2,1.1291693E2,1.5162207E2,0E0,0E0,0E0,0E0,0E0,0E0,0E0,0E0],"parents":[2147483647,0,0,1,1,2,2,3,3,4,4,5,5,6,6],"right_children":[2,4,6,8,10,12,14,-1,-1,-1,-1,-1,-1,-1,-1],"split_conditions":[3.7421383E1,1E0,2E0,1.17E2,1E0,3.92E1,2E0,-1.0472501E-2,-4.3211922E-2,5.742324E-3,5.7554968E-2,-3.4616364E-3,-5.0233375E-2,-1.0579229E-2,-2.1749323E-2],"split_indices":[14,0,95,10,6,13,7,0,0,0,0,0,0,0,0],"split_type":[0,0,0,0,0,0,0,0,0,0,0,0,0,0,0],"sum_hessian":[4.258411E4,1.1549536E4,3.1034574E4,3.181933E3,8.367603E3,1.1912687E4,1.9121887E4,2.9021707E3,2.7976248E2,8.0566396E3,3.1096283E2,1.1783209E4,1.2947838E2,1.5332178E4,3.7897097E3],"tree_param":{"num_deleted":"0","num_feature":"100","num_nodes":"15","size_leaf_vector":"1"}},{"base_weights":[-1.21330604E-1,-2.842195E-1,-6.2472567E-2,-3.045442E-1,3.314475E-1,-3.205772E-1,-1.7861338E-2,-1.2961919E-2,-2.671904E-2,6.722493E-2,-1.4380526E-4,-6.577231E-3,-2.6648054E-2,1.7700868E-2,-3.1772293E-3],"categories":[],"categories_nodes":[],"categories_segments":[],"categories_sizes":[],"default_left":[0,1,0,0,0,0,0,0,0,0,0,0,0,0,0],"id":32,"left_children":[1,3,5,7,9,11,13,-1,-1,-1,-1,-1,-1,-1,-1],"loss_changes":[4.0598944E2,1.4075232E2,3.5819647E2,1.1316998E2,1.2182533E2,1.8398584E2,4.50657E2,0E0,0E0,0E0,0E0,0E0,0E0,0E0,0E0],"parents":[2147483647,0,0,1,1,2,2,3,3,4,4,5,5,6,6],"right_children":[2,4,6,8,10,12,14,-1,-1,-1,-1,-1,-1,-1,-1],"split_conditions":[4.67E1,1.023E2,1E0,3.4359044E-1,-9.229849E-1,1.43E1,2.004894E1,-1.2961919E-2,-2.671904E-2,6.722493E-2,-1.4380526E-4,-6.577231E-3,-2.6648054E-2,1.7700868E-2,-3.1772293E-3],"split_indices":[8,44,0,15,80,13,14,0,0,0,0,0,0,0,0],"split_type":[0,0,0,0,0,0,0,0,0,0,0,0,0,0,0],"sum_hessian":[4.234735E4,1.1239192E4,3.1108158E4,1.0880505E4,3.5868756E2,4.5834966E3,2.6524662E4,9.090664E3,1.7898416E3,8.825129E1,2.7043628E2,2.4259211E3,2.1575757E3,2.9011848E3,2.3623477E4],"tree_param":{"num_deleted":"0","num_feature":"100","num_nodes":"15","size_leaf_vector":"1"}},{"base_weights":[-1.1595089E-1,-2.732118E-1,-5.9578836E-2,-2.9131556E-1,3.6420688E-1,-3.088053E-1,-1.7002914E-2,-1.1493E-2,-2.2334924E-2,2.1990393E-3,8.096816E-2,-6.282169E-3,-2.5909692E-2,1.6754342E-2,-3.0255711E-3],"categories":[],"categories_nodes":[],"categories_segments":[],"categories_sizes":[],"default_left":[0,1,0,0,1,0,0,0,0,0,0,0,0,0,0],"id":33,"left_children":[1,3,5,7,9,11,13,-1,-1,-1,-1,-1,-1,-1,-1],"loss_changes":[3.733468E2,1.2834644E2,3.2897916E2,1.0309155E2,1.234653E2,1.7342508E2,4.056851E2,0E0,0E0,0E0,0E0,0E0,0E0,0E0,0E0],"parents":[2147483647,0,0,1,1,2,2,3,3,4,4,5,5,6,6],"right_children":[2,4,6,8,10,12,14,-1,-1,-1,-1,-1,-1,-1,-1],"split_conditions":[4.67E1,1.047E2,1E0,2.8E1,3.02E1,1.43E1,2.004894E1,-1.1493E-2,-2.2334924E-2,2.1990393E-3,8.096816E-2,-6.282169E-3,-2.5909692E-2,1.6754342E-2,-3.0255711E-3],"split_indices":[8,44,0,13,87,13,14,0,0,0,0,0,0,0,0],"split_type":[0,0,0,0,0,0,0,0,0,0,0,0,0,0,0],"sum_hessian":[4.2114957E4,1.1112001E4,3.1002957E4,1.08056455E4,3.0635547E2,4.522627E3,2.648033E4,7.744926E3,3.0607202E3,2.449076E2,6.1447865E1,2.4132473E3,2.1093796E3,2.9116106E3,2.356872E4],"tree_param":{"num_deleted":"0","num_feature":"100","num_nodes":"15","size_leaf_vector":"1"}},{"base_weights":[-1.10784076E-1,2.707593E-1,-1.3264199E-1,-4.9788404E-2,5.064992E-1,-3.5074463E-1,-9.514976E-2,-9.19088E-3,2.6682196E-2,3.2240928E-3,3.9167553E-2,-2.023965E-2,1.10943895E-2,-5.239873E-3,5.5292487E-2],"categories":[],"categories_nodes":[],"categories_segments":[],"categories_sizes":[],"default_left":[0,0,0,0,1,1,0,0,0,0,0,0,0,0,0],"id":34,"left_children":[1,3,5,7,9,11,13,-1,-1,-1,-1,-1,-1,-1,-1],"loss_changes":[3.4941943E2,1.7158272E2,3.2398224E2,7.540215E1,1.6005048E2,1.7996997E2,3.9190894E2,0E0,0E0,0E0,0E0,0E0,0E0,0E0,0E0],"parents":[2147483647,0,0,1,1,2,2,3,3,4,4,5,5,6,6],"right_children":[2,4,6,8,10,12,14,-1,-1,-1,-1,-1,-1,-1,-1],"split_conditions":[1.2401613E1,1E0,1E0,1.6142472E0,1.2E1,1.001E2,1E0,-9.19088E-3,2.6682196E-2,3.2240928E-3,3.9167553E-2,-2.023965E-2,1.10943895E-2,-5.239873E-3,5.5292487E-2],"split_indices":[14,0,0,1,23,44,6,0,0,0,0,0,0,0,0],"split_type":[0,0,0,0,0,0,0,0,0,0,0,0,0,0,0],"sum_hessian":[4.1892812E4,2.2693042E3,3.9623508E4,9.62005E2,1.3072993E3,5.810992E3,3.3812516E4,7.8284955E2,1.7915544E2,5.0394376E2,8.033555E2,5.310089E3,5.009037E2,3.3543965E4,2.685478E2],"tree_param":{"num_deleted":"0","num_feature":"100","num_nodes":"15","size_leaf_vector":"1"}},{"base_weights":[-1.05812356E-1,-2.5648755E-1,-5.230894E-2,-1.858275E-1,-4.052722E-1,-2.8646097E-1,-1.3101011E-2,-1.0476938E-2,2.5672166E-2,9.035612E-2,-2.0708E-2,-5.488085E-3,-2.4661018E-2,-1.280872E-3,5.205075E-2],"categories":[],"categories_nodes":[],"categories_segments":[],"categories_sizes":[],"default_left":[0,0,0,1,0,0,0,0,0,0,0,0,0,0,0],"id":35,"left_children":[1,3,5,7,9,11,13,-1,-1,-1,-1,-1,-1,-1,-1],"loss_changes":[3.360097E2,1.1475037E2,2.823977E2,1.2292175E2,6.988483E1,1.6113263E2,3.476784E2,0E0,0E0,0E0,0E0,0E0,0E0,0E0,0E0],"parents":[2147483647,0,0,1,1,2,2,3,3,4,4,5,5,6,6],"right_children":[2,4,6,8,10,12,14,-1,-1,-1,-1,-1,-1,-1,-1],"split_conditions":[4.67E1,2.62E1,1E0,1.033E2,4E-1,1.43E1,1E0,-1.0476938E-2,2.5672166E-2,9.035612E-2,-2.0708E-2,-5.488085E-3,-2.4661018E-2,-1.280872E-3,5.205075E-2],"split_indices":[8,13,0,44,67,13,6,0,0,0,0,0,0,0,0],"split_type":[0,0,0,0,0,0,0,0,0,0,0,0,0,0,0],"sum_hessian":[4.168075E4,1.0921123E4,3.0759625E4,7.4061035E3,3.5150195E3,4.4109385E3,2.6348688E4,7.1638867E3,2.4221669E2,1.32547245E1,3.501765E3,2.3791863E3,2.0317523E3,2.604046E4,3.082252E2],"tree_param":{"num_deleted":"0","num_feature":"100","num_nodes":"15","size_leaf_vector":"1"}},{"base_weights":[-1.01012155E-1,4.217658E-2,-1.5519947E-1,-2.181237E-1,1.3628425E-1,-2.3432718E-1,-6.968419E-2,-8.014731E-3,-4.1807562E-2,1.2572549E-2,-7.0491196E-3,-9.421598E-3,-2.1068102E-2,-2.9645716E-3,-5.057016E-2],"categories":[],"categories_nodes":[],"categories_segments":[],"categories_sizes":[],"default_left":[0,0,1,0,0,0,0,0,0,0,0,0,0,0,0],"id":36,"left_children":[1,3,5,7,9,11,13,-1,-1,-1,-1,-1,-1,-1,-1],"loss_changes":[3.2196292E2,2.7910626E2,2.0367871E2,1.0799806E2,2.672447E2,1.3413116E2,1.4154825E2,0E0,0E0,0E0,0E0,0E0,0E0,0E0,0E0],"parents":[2147483647,0,0,1,1,2,2,3,3,4,4,5,5,6,6],"right_children":[2,4,6,8,10,12,14,-1,-1,-1,-1,-1,-1,-1,-1],"split_conditions":[3.7421383E1,1E0,8.602325E0,1.17E2,2.95E1,2E0,3.92E1,-8.014731E-3,-4.1807562E-2,1.2572549E-2,-7.0491196E-3,-9.421598E-3,-2.1068102E-2,-2.9645716E-3,-5.057016E-2],"split_indices":[14,0,61,10,12,7,13,0,0,0,0,0,0,0,0],"split_type":[0,0,0,0,0,0,0,0,0,0,0,0,0,0,0],"sum_hessian":[4.1493508E4,1.1391623E4,3.0101885E4,3.0245232E3,8.3671E3,1.5633961E4,1.4467923E4,2.766884E3,2.5763907E2,5.9116875E3,2.4554126E3,1.2555146E4,3.0788147E3,1.431105E4,1.5687302E2],"tree_param":{"num_deleted":"0","num_feature":"100","num_nodes":"15","size_leaf_vector":"1"}},{"base_weights":[-9.643333E-2,2.6343888E-1,-1.172119E-1,5.076769E-1,1.9497919E-3,-5.634001E-2,-2.3902494E-1,7.96061E-3,3.665635E-2,-2.2222137E-2,5.3262464E-3,2.5854341E-3,-8.350587E-3,-1.1158135E-2,-5.1415533E-2],"categories":[],"categories_nodes":[],"categories_segments":[],"categories_sizes":[],"default_left":[0,0,0,0,0,0,0,0,0,0,0,0,0,0,0],"id":37,"left_children":[1,3,5,7,9,11,13,-1,-1,-1,-1,-1,-1,-1,-1],"loss_changes":[3.0893762E2,1.440375E2,2.895896E2,9.1496216E1,5.0939888E1,3.1143954E2,1.6269836E2,0E0,0E0,0E0,0E0,0E0,0E0,0E0,0E0],"parents":[2147483647,0,0,1,1,2,2,3,3,4,4,5,5,6,6],"right_children":[2,4,6,8,10,12,14,-1,-1,-1,-1,-1,-1,-1,-1],"split_conditions":[1.2401613E1,3.0958359E1,1E0,1E0,-1.6935526E0,5.71505E1,3.89E1,7.96061E-3,3.665635E-2,-2.2222137E-2,5.3262464E-3,2.5854341E-3,-8.350587E-3,-1.1158135E-2,-5.1415533E-2],"split_indices":[14,2,7,0,1,14,13,0,0,0,0,0,0,0,0],"split_type":[0,0,0,0,0,0,0,0,0,0,0,0,0,0,0],"sum_hessian":[4.1309773E4,2.2543384E3,3.9055438E4,1.1651316E3,1.0892067E3,2.6042867E4,1.3012568E4,4.5836716E2,7.0676447E2,2.061175E2,8.830892E2,1.3177865E4,1.2865002E4,1.2757465E4,2.5510356E2],"tree_param":{"num_deleted":"0","num_feature":"100","num_nodes":"15","size_leaf_vector":"1"}},{"base_weights":[-9.203721E-2,2.4989603E-1,-1.11900315E-1,5.178802E-1,2.7819162E-2,-7.199116E-2,-2.8738904E-1,6.6258623E-3,3.746934E-2,3.9873994E-3,-3.7829652E-2,-1.1682287E-2,-1.3366287E-3,-1.3449791E-2,-5.23987E-2],"categories":[],"categories_nodes":[],"categories_segments":[],"categories_sizes":[],"default_left":[0,0,0,0,1,0,0,0,0,0,0,0,0,0,0],"id":38,"left_children":[1,3,5,7,9,11,13,-1,-1,-1,-1,-1,-1,-1,-1],"loss_changes":[2.7940735E2,1.3440463E2,2.7225726E2,9.1209045E1,5.041405E1,2.3173627E2,1.00482544E2,0E0,0E0,0E0,0E0,0E0,0E0,0E0,0E0],"parents":[2147483647,0,0,1,1,2,2,3,3,4,4,5,5,6,6],"right_children":[2,4,6,8,10,12,14,-1,-1,-1,-1,-1,-1,-1,-1],"split_conditions":[1.2401613E1,3.7340195E1,2E0,1E0,3.42E1,4.64E1,3.89E1,6.6258623E-3,3.746934E-2,3.9873994E-3,-3.7829652E-2,-1.1682287E-2,-1.3366287E-3,-1.3449791E-2,-5.23987E-2],"split_indices":[14,28,7,0,46,10,13,0,0,0,0,0,0,0,0],"split_type":[0,0,0,0,0,0,0,0,0,0,0,0,0,0,0],"sum_hessian":[4.113346E4,2.2576467E3,3.8875812E4,1.02247534E3,1.2351713E3,3.1674008E4,7.2018047E3,3.8431747E2,6.3815784E2,1.1593215E3,7.5849846E1,6.9272173E3,2.4746791E4,7.0330776E3,1.6872726E2],"tree_param":{"num_deleted":"0","num_feature":"100","num_nodes":"15","size_leaf_vector":"1"}},{"base_weights":[-8.781812E-2,6.54343E-2,-1.2983774E-1,-1.9064571E-1,1.7002136E-1,-3.259683E-2,-1.9295381E-1,-2.0744143E-2,1.0016939E-3,6.509637E-3,4.7259938E-2,-1.2202028E-3,-4.8976693E-2,-7.925465E-3,-1.674628E-2],"categories":[],"categories_nodes":[],"categories_segments":[],"categories_sizes":[],"default_left":[0,0,0,0,0,0,0,0,0,0,0,0,0,0,0],"id":39,"left_children":[1,3,5,7,9,11,13,-1,-1,-1,-1,-1,-1,-1,-1],"loss_changes":[2.6383072E2,2.361619E2,1.9733258E2,1.2081145E2,1.9316212E2,9.8166534E1,9.529291E1,0E0,0E0,0E0,0E0,0E0,0E0,0E0,0E0],"parents":[2147483647,0,0,1,1,2,2,3,3,4,4,5,5,6,6],"right_children":[2,4,6,8,10,12,14,-1,-1,-1,-1,-1,-1,-1,-1],"split_conditions":[3.2560097E1,1E0,2E0,9.86E1,1E0,3.92E1,2E0,-2.0744143E-2,1.0016939E-3,6.509637E-3,4.7259938E-2,-1.2202028E-3,-4.8976693E-2,-7.925465E-3,-1.674628E-2],"split_indices":[14,0,95,8,6,13,7,0,0,0,0,0,0,0,0],"split_type":[0,0,0,0,0,0,0,0,0,0,0,0,0,0,0],"sum_hessian":[4.0967668E4,8.815508E3,3.215216E4,2.5561025E3,6.259406E3,1.2655601E4,1.9496559E4,1.2377413E3,1.3183611E3,5.954625E3,3.047806E2,1.2548062E4,1.07538414E2,1.5691642E4,3.804917E3],"tree_param":{"num_deleted":"0","num_feature":"100","num_nodes":"15","size_leaf_vector":"1"}},{"base_weights":[-8.380325E-2,-2.1541122E-1,-3.8331408E-2,-4.7293976E-1,-1.7383228E-1,-2.5251168E-1,-3.4206551E-3,1.7251395E-1,-2.438338E-2,-9.745347E-3,2.5681261E-2,-4.1544866E-3,-2.283845E-2,3.4671452E-2,-9.648429E-4],"categories":[],"categories_nodes":[],"categories_segments":[],"categories_sizes":[],"default_left":[0,0,0,0,1,0,0,0,0,0,0,0,0,0,0],"id":40,"left_children":[1,3,5,7,9,11,13,-1,-1,-1,-1,-1,-1,-1,-1],"loss_changes":[2.4415753E2,1.12099884E2,2.2673978E2,8.5798676E1,1.3080911E2,1.4703665E2,2.8849268E2,0E0,0E0,0E0,0E0,0E0,0E0,0E0,0E0],"parents":[2147483647,0,0,1,1,2,2,3,3,4,4,5,5,6,6],"right_children":[2,4,6,8,10,12,14,-1,-1,-1,-1,-1,-1,-1,-1],"split_conditions":[4.67E1,1.19E1,1E0,-1.1863098E0,1.047E2,1.43E1,9.007774E0,1.7251395E-1,-2.438338E-2,-9.745347E-3,2.5681261E-2,-4.1544866E-3,-2.283845E-2,3.4671452E-2,-9.648429E-4],"split_indices":[8,11,0,89,44,13,14,0,0,0,0,0,0,0,0],"split_type":[0,0,0,0,0,0,0,0,0,0,0,0,0,0,0],"sum_hessian":[4.0798996E4,1.0475704E4,3.0323293E4,1.4547858E3,9.020918E3,4.2490146E3,2.607428E4,4.5684495E0,1.4502174E3,8.753294E3,2.676242E2,2.3233286E3,1.9256862E3,5.798625E2,2.5494416E4],"tree_param":{"num_deleted":"0","num_feature":"100","num_nodes":"15","size_leaf_vector":"1"}},{"base_weights":[-7.994319E-2,4.1903134E-2,-1.269046E-1,-1.8712814E-1,1.2206374E-1,-1.1887668E-1,-8.8269925E-1,-6.4829956E-3,-4.0865507E-2,1.1395116E-2,-6.7851664E-3,-9.668952E-3,-1.989262E-3,3.714886E-2,-4.7754295E-2],"categories":[],"categories_nodes":[],"categories_segments":[],"categories_sizes":[],"default_left":[0,0,0,0,0,1,0,0,0,0,0,0,0,0,0],"id":41,"left_children":[1,3,5,7,9,11,13,-1,-1,-1,-1,-1,-1,-1,-1],"loss_changes":[2.3258038E2,2.0763034E2,1.7790347E2,1.0608131E2,2.2856807E2,1.710574E2,3.697708E1,0E0,0E0,0E0,0E0,0E0,0E0,0E0,0E0],"parents":[2147483647,0,0,1,1,2,2,3,3,4,4,5,5,6,6],"right_children":[2,4,6,8,10,12,14,-1,-1,-1,-1,-1,-1,-1,-1],"split_conditions":[3.7421383E1,1E0,3.92E1,1.17E2,2.95E1,8.602325E0,4.580393E0,-6.4829956E-3,-4.0865507E-2,1.1395116E-2,-6.7851664E-3,-9.668952E-3,-1.989262E-3,3.714886E-2,-4.7754295E-2],"split_indices":[14,0,13,10,12,61,2,0,0,0,0,0,0,0,0],"split_type":[0,0,0,0,0,0,0,0,0,0,0,0,0,0,0],"sum_hessian":[4.0644223E4,1.1307037E4,2.9337184E4,2.9310989E3,8.375938E3,2.902999E4,3.0719464E2,2.6872463E3,2.438525E2,5.937947E3,2.4379917E3,1.4947933E4,1.4082057E4,1.2700468E1,2.9449417E2],"tree_param":{"num_deleted":"0","num_feature":"100","num_nodes":"15","size_leaf_vector":"1"}},{"base_weights":[-7.625392E-2,2.3101372E-1,-9.4286256E-2,4.513047E-1,-5.6991815E-3,-5.7589486E-2,-2.586586E-1,2.6693773E-3,3.0403165E-2,-1.4797005E-2,7.271632E-3,-3.2255135E-3,4.2078316E-2,-1.4487286E-2,9.05498E-3],"categories":[],"categories_nodes":[],"categories_segments":[],"categories_sizes":[],"default_left":[0,0,0,0,0,0,1,0,0,0,0,0,0,0,0],"id":42,"left_children":[1,3,5,7,9,11,13,-1,-1,-1,-1,-1,-1,-1,-1],"loss_changes":[2.244166E2,1.1708365E2,2.3073502E2,7.251106E1,4.7560745E1,1.9466943E2,9.549542E1,0E0,0E0,0E0,0E0,0E0,0E0,0E0,0E0],"parents":[2147483647,0,0,1,1,2,2,3,3,4,4,5,5,6,6],"right_children":[2,4,6,8,10,12,14,-1,-1,-1,-1,-1,-1,-1,-1],"split_conditions":[1.2401613E1,3.0958359E1,2E0,3.72E1,-3.0222374E-1,1E0,6.53E1,2.6693773E-3,3.0403165E-2,-1.4797005E-2,7.271632E-3,-3.2255135E-3,4.2078316E-2,-1.4487286E-2,9.05498E-3],"split_indices":[14,2,7,11,15,6,85,0,0,0,0,0,0,0,0],"split_type":[0,0,0,0,0,0,0,0,0,0,0,0,0,0,0],"sum_hessian":[4.049798E4,2.244267E3,3.8253715E4,1.1619866E3,1.0822805E3,3.1273201E4,6.980513E3,3.287714E2,8.3321515E2,3.7025897E2,7.1202155E2,3.103525E4,2.3794952E2,6.51995E3,4.60563E2],"tree_param":{"num_deleted":"0","num_feature":"100","num_nodes":"15","size_leaf_vector":"1"}},{"base_weights":[-7.2701566E-2,-1.9545335E-1,-3.0802818E-2,-1.4263658E-1,-3.903414E-1,-2.3330471E-1,1.701818E-3,-8.180526E-3,2.616474E-2,6.892856E-2,-2.0457545E-2,-3.5909396E-3,-2.1637185E-2,-4.5572975E-4,4.471829E-2],"categories":[],"categories_nodes":[],"categories_segments":[],"categories_sizes":[],"default_left":[0,0,0,1,0,0,0,0,0,0,0,0,0,0,0],"id":43,"left_children":[1,3,5,7,9,11,13,-1,-1,-1,-1,-1,-1,-1,-1],"loss_changes":[2.0759497E2,1.0567169E2,1.9808772E2,1.12980774E2,7.341531E1,1.3402704E2,2.5039958E2,0E0,0E0,0E0,0E0,0E0,0E0,0E0,0E0],"parents":[2147483647,0,0,1,1,2,2,3,3,4,4,5,5,6,6],"right_children":[2,4,6,8,10,12,14,-1,-1,-1,-1,-1,-1,-1,-1],"split_conditions":[4.67E1,2.8605145E-1,1E0,1.047E2,4E-1,1.43E1,1E0,-8.180526E-3,2.616474E-2,6.892856E-2,-2.0457545E-2,-3.5909396E-3,-2.1637185E-2,-4.5572975E-4,4.471829E-2],"split_indices":[8,15,0,44,26,13,6,0,0,0,0,0,0,0,0],"split_type":[0,0,0,0,0,0,0,0,0,0,0,0,0,0,0],"sum_hessian":[4.036359E4,1.027042E4,3.0093168E4,8.081876E3,2.188544E3,4.161445E3,2.5931723E4,7.835836E3,2.4604037E2,2.226612E1,2.1662778E3,2.3002722E3,1.8611725E3,2.5622248E4,3.094751E2],"tree_param":{"num_deleted":"0","num_feature":"100","num_nodes":"15","size_leaf_vector":"1"}},{"base_weights":[-6.931677E-2,8.839549E-2,-1.008041E-1,2.568288E-1,-6.124159E-2,-9.407155E-2,-8.6860806E-1,2.3223951E-2,4.489438E-3,7.243139E-3,-1.35092605E-2,-8.259249E-3,-1.260791E-3,3.522633E-2,-4.7219943E-2],"categories":[],"categories_nodes":[],"categories_segments":[],"categories_sizes":[],"default_left":[0,0,0,0,0,1,0,0,0,0,0,0,0,0,0],"id":44,"left_children":[1,3,5,7,9,11,13,-1,-1,-1,-1,-1,-1,-1,-1],"loss_changes":[1.9980533E2,1.6878903E2,1.7328564E2,1.09236145E2,1.5278047E2,1.627951E2,3.540912E1,0E0,0E0,0E0,0E0,0E0,0E0,0E0,0E0],"parents":[2147483647,0,0,1,1,2,2,3,3,4,4,5,5,6,6],"right_children":[2,4,6,8,10,12,14,-1,-1,-1,-1,-1,-1,-1,-1],"split_conditions":[2.7314648E1,6.8E0,3.92E1,1.91E1,1E0,4.1E0,4.580393E0,2.3223951E-2,4.489438E-3,7.243139E-3,-1.35092605E-2,-8.259249E-3,-1.260791E-3,3.522633E-2,-4.7219943E-2],"split_indices":[14,13,13,12,7,66,2,0,0,0,0,0,0,0,0],"split_type":[0,0,0,0,0,0,0,0,0,0,0,0,0,0,0],"sum_hessian":[4.0232363E4,6.695326E3,3.353704E4,3.1494976E3,3.5458289E3,3.3246637E4,2.9040305E2,1.4032784E3,1.746219E3,1.7851969E3,1.7606318E3,1.6354496E4,1.6892139E4,1.2966719E1,2.774363E2],"tree_param":{"num_deleted":"0","num_feature":"100","num_nodes":"15","size_leaf_vector":"1"}},{"base_weights":[-6.608238E-2,-2.264253E-1,-3.684043E-2,-1.4013106E-1,-5.6358814E-1,-1.090188E-1,7.948214E-2,4.1429546E-2,-8.946225E-3,-2.8783698E-2,2.4848066E-1,-7.501691E-3,1.3448182E-3,3.1757932E-2,2.6783373E-3],"categories":[],"categories_nodes":[],"categories_segments":[],"categories_sizes":[],"default_left":[0,0,0,0,1,1,0,0,0,0,0,0,0,0,0],"id":45,"left_children":[1,3,5,7,9,11,13,-1,-1,-1,-1,-1,-1,-1,-1],"loss_changes":[1.88044E2,1.7990475E2,2.848186E2,1.8529532E2,8.7140564E1,1.1669949E2,1.8702417E2,0E0,0E0,0E0,0E0,0E0,0E0,0E0,0E0],"parents":[2147483647,0,0,1,1,2,2,3,3,4,4,5,5,6,6],"right_children":[2,4,6,8,10,12,14,-1,-1,-1,-1,-1,-1,-1,-1],"split_conditions":[1E0,2.83E1,8.12E1,3.78E1,1E0,-5.1237166E-2,9.007774E0,4.1429546E-2,-8.946225E-3,-2.8783698E-2,2.4848066E-1,-7.501691E-3,1.3448182E-3,3.1757932E-2,2.6783373E-3],"split_indices":[0,13,10,10,52,80,14,0,0,0,0,0,0,0,0],"split_type":[0,0,0,0,0,0,0,0,0,0,0,0,0,0,0],"sum_hessian":[4.010623E4,6.185025E3,3.3921203E4,4.925736E3,1.2592888E3,2.0932568E4,1.2988635E4,1.8887698E2,4.736859E3,1.2574382E3,1.850583E0,1.6080013E4,4.852556E3,5.777185E2,1.2410916E4],"tree_param":{"num_deleted":"0","num_feature":"100","num_nodes":"15","size_leaf_vector":"1"}},{"base_weights":[-6.300734E-2,-4.7681175E-2,-3.6382985E-1,9.007656E-2,-8.502813E-2,2.7072723E0,-3.842964E-1,6.2092055E-2,3.7652457E-3,-6.9313752E-3,-3.520931E-4,-4.4237822E-2,2.0507994E-1,1.283471E-1,-2.0241192E-2],"categories":[],"categories_nodes":[],"categories_segments":[],"categories_sizes":[],"default_left":[0,0,0,0,1,0,0,0,0,0,0,0,0,0,0],"id":46,"left_children":[1,3,5,7,9,11,13,-1,-1,-1,-1,-1,-1,-1,-1],"loss_changes":[1.8428876E2,1.9571149E2,1.2283917E2,1.379462E2,1.2509163E2,6.850162E1,1.17708374E2,0E0,0E0,0E0,0E0,0E0,0E0,0E0,0E0],"parents":[2147483647,0,0,1,1,2,2,3,3,4,4,5,5,6,6],"right_children":[2,4,6,8,10,12,14,-1,-1,-1,-1,-1,-1,-1,-1],"split_conditions":[5.1560642E1,3.213378E1,4E-1,-1.1174048E0,1.16E1,7.391955E1,-1.212898E0,6.2092055E-2,3.7652457E-3,-6.9313752E-3,-3.520931E-4,-4.4237822E-2,2.0507994E-1,1.283471E-1,-2.0241192E-2],"split_indices":[2,14,67,89,85,28,49,0,0,0,0,0,0,0,0],"split_type":[0,0,0,0,0,0,0,0,0,0,0,0,0,0,0],"sum_hessian":[3.997469E4,3.8037914E4,1.9367789E3,8.112561E3,2.9925352E4,1.1952623E1,1.9248263E3,1.0167608E2,8.0108853E3,1.7735262E4,1.219009E4,3.4444852E0,8.508138E0,1.24388485E1,1.9123875E3],"tree_param":{"num_deleted":"0","num_feature":"100","num_nodes":"15","size_leaf_vector":"1"}},{"base_weights":[-6.0039636E-2,-6.6775575E-2,5.9732556E-1,-9.331882E-2,9.6415244E-2,-2.1372616E-1,8.081979E-1,-1.3978518E-2,-3.1817125E-3,2.1474376E-2,8.981211E-4,8.904171E-2,-3.5839014E-2,-8.5138634E-2,4.309582E-2],"categories":[],"categories_nodes":[],"categories_segments":[],"categories_sizes":[],"default_left":[0,0,0,0,0,0,0,0,0,0,0,0,0,0,0],"id":47,"left_children":[1,3,5,7,9,11,13,-1,-1,-1,-1,-1,-1,-1,-1],"loss_changes":[1.7656332E2,1.7094337E2,6.93459E1,1.8764026E2,1.4426163E2,8.580985E1,4.4793472E1,0E0,0E0,0E0,0E0,0E0,0E0,0E0,0E0],"parents":[2147483647,0,0,1,1,2,2,3,3,4,4,5,5,6,6],"right_children":[2,4,6,8,10,12,14,-1,-1,-1,-1,-1,-1,-1,-1],"split_conditions":[1E0,9.86E1,1E0,1E0,3.4E0,2.09E1,-2.1185822E0,-1.3978518E-2,-3.1817125E-3,2.1474376E-2,8.981211E-4,8.904171E-2,-3.5839014E-2,-8.5138634E-2,4.309582E-2],"split_indices":[6,8,0,0,13,83,80,0,0,0,0,0,0,0,0],"split_type":[0,0,0,0,0,0,0,0,0,0,0,0,0,0,0],"sum_hessian":[3.9864504E4,3.9461047E4,4.0345422E2,3.394093E4,5.5201177E3,8.324932E1,3.202049E2,4.664678E3,2.9276252E4,1.0514979E3,4.4686196E3,1.6255964E1,6.6993355E1,6.063837E0,3.1414108E2],"tree_param":{"num_deleted":"0","num_feature":"100","num_nodes":"15","size_leaf_vector":"1"}},{"base_weights":[-5.7222206E-2,-5.176562E-2,-8.5056365E-1,-3.047587E-3,-1.3668583E-1,-7.331212E-2,-1.0144845E0,2.9997237E-3,-4.587174E-3,-5.4469956E-3,-1.99958E-2,-5.246528E-2,5.510499E-2,1.170901E-1,-5.2517053E-2],"categories":[],"categories_nodes":[],"categories_segments":[],"categories_sizes":[],"default_left":[0,0,0,0,0,0,0,0,0,0,0,0,0,0,0],"id":48,"left_children":[1,3,5,7,9,11,13,-1,-1,-1,-1,-1,-1,-1,-1],"loss_changes":[1.7202425E2,1.6332559E2,3.451126E1,1.402825E2,1.0506735E2,5.663079E1,2.9428986E1,0E0,0E0,0E0,0E0,0E0,0E0,0E0,0E0],"parents":[2147483647,0,0,1,1,2,2,3,3,4,4,5,5,6,6],"right_children":[2,4,6,8,10,12,14,-1,-1,-1,-1,-1,-1,-1,-1],"split_conditions":[3.92E1,7.507343E1,8.405951E0,2.7252338E1,5.1560642E1,7.44E1,3E-1,2.9997237E-3,-4.587174E-3,-5.4469956E-3,-1.99958E-2,-5.246528E-2,5.510499E-2,1.170901E-1,-5.2517053E-2],"split_indices":[13,28,2,61,2,23,47,0,0,0,0,0,0,0,0],"split_type":[0,0,0,0,0,0,0,0,0,0,0,0,0,0,0],"sum_hessian":[3.9747406E4,3.947695E4,2.704564E2,2.5086223E4,1.4390726E4,4.735654E1,2.2309985E2,1.4663923E4,1.0422301E4,1.3019781E4,1.3709438E3,2.5931677E1,2.1424864E1,1.6784829E0,2.2142137E2],"tree_param":{"num_deleted":"0","num_feature":"100","num_nodes":"15","size_leaf_vector":"1"}},{"base_weights":[-5.4504234E-2,1.0478278E-3,-1.2865184E-1,-6.451275E-2,8.4014855E-2,-4.3851617E-1,-8.8542126E-2,-3.767473E-3,3.0450845E-2,2.387245E-2,2.8280572E-3,7.224255E-2,-2.3356404E-2,-1.3920841E-2,-2.4994544E-3],"categories":[],"categories_nodes":[],"categories_segments":[],"categories_sizes":[],"default_left":[0,1,0,0,0,0,0,0,0,0,0,0,0,0,0],"id":49,"left_children":[1,3,5,7,9,11,13,-1,-1,-1,-1,-1,-1,-1,-1],"loss_changes":[1.6335573E2,1.2333356E2,2.110763E2,9.249136E1,1.0807693E2,1.0556561E2,1.100882E2,0E0,0E0,0E0,0E0,0E0,0E0,0E0,0E0],"parents":[2147483647,0,0,1,1,2,2,3,3,4,4,5,5,6,6],"right_children":[2,4,6,8,10,12,14,-1,-1,-1,-1,-1,-1,-1,-1],"split_conditions":[2.19E1,4.95E1,1E0,1E0,5.29E1,-1.2635726E0,4.76E1,-3.767473E-3,3.0450845E-2,2.387245E-2,2.8280572E-3,7.224255E-2,-2.3356404E-2,-1.3920841E-2,-2.4994544E-3],"split_indices":[13,64,0,6,64,29,10,0,0,0,0,0,0,0,0],"split_type":[0,0,0,0,0,0,0,0,0,0,0,0,0,0,0],"sum_hessian":[3.9657527E4,2.2672254E4,1.6985271E4,1.26647705E4,1.0007484E4,1.9455049E3,1.5039767E4,1.2465102E4,1.9966823E2,6.5169995E2,9.355784E3,2.8372871E1,1.917132E3,2.537296E3,1.2502471E4],"tree_param":{"num_deleted":"0","num_feature":"100","num_nodes":"15","size_leaf_vector":"1"}}]},"name":"gbtree"},"learner_model_param":{"base_score":"1.7335531E-1","boost_from_average":"1","num_class":"0","num_feature":"100","num_target":"1"},"objective":{"name":"binary:logistic","reg_loss_param":{"scale_pos_weight":"8.07889462"}}},"version":[3,0,1]}